{:log-weight 0.0, :result {:num_cluster 8, :pi [0.02623190542605672 0.02207370687345986 0.006605606930334867 0.05622321682508766 0.020748957086716736 0.6717412777565376 0.014273659765639607 0.18210166933616714], :mu_vec [[-0.8435512949321967 0.2928736207855219 0.5738657271883025 -0.1538238295877189 0.9927378442796292 0.7804887883897156 0.5633079993630724 0.9061221501394556 0.8346005136282773 -0.6120954690798096 0.17559906347629195 1.6517574411425184 0.7272727486016819 0.6255276515697552 0.3589511839955627 0.1724113814356344 0.11113118177715386 -0.6320940720946434 0.09633123491550027 1.2206424767753816 0.5287487369216622 1.2190889815287331 0.8515749746663634 0.3872444783714236 -0.45161957646940387] [1.330278998993684 0.18529944130022458 1.582698008955166 -0.18960687675136012 1.0753543024027792 1.2051094807994946 0.8508684239392715 1.0876018168182442 -0.04636312345706506 1.567014712779867 -0.12070385189682786 0.2950020938777821 0.29015441085783655 0.13944531785661823 -0.5573627403034308 0.3104341107310687 1.4573069431881338 0.8173534732964389 0.47109836953441064 0.008191341088206627 -0.08770615765153988 0.7777503419800881 -0.2718306947688487 1.8697585236553804 0.6292340682671018] [-0.22629575004562563 -0.6340208713579291 -0.26156767761610966 0.09414908502023894 0.12194506653789744 0.5422506335473533 -0.3881235576643388 -0.30435784993569004 0.4222283349553234 0.9746253873700632 -0.07700837929779303 -0.5043578917848938 -0.20705423002199175 0.29524082962056014 0.25322634851932363 0.1305963531367495 0.19072597672460623 0.7181503652443423 1.2844977162419713 1.311889752538168 -0.43577545633269155 1.4388408843276705 1.4654594388195088 -0.5210871012394612 -0.3402917331314639] [0.5128619106848877 1.1874630276248777 -0.6036615998427083 0.20156950225524434 0.153183848726905 0.4691562665547599 -0.5856241021392316 0.13000005043339513 -0.27492131829991506 0.23924222217323887 1.1734306068525577 0.9368409477950721 -0.1903371540858444 1.8675790027074086 0.4335572103726339 -0.089510373066927 -0.1069601115270058 0.1343798135610222 -0.0776330350141482 -0.06453589156269879 0.512615429375803 -0.7326347505854195 0.7342139848078848 1.2015030546812637 1.2693800416361527] [-1.636301675996831 0.8633078754839767 0.6736466083807423 0.3838306548597148 -0.06578348493152086 2.374216515785265 -0.04976866072102004 -0.1689074828777969 0.2675565192870551 1.162507771168423 0.8453586912371246 -0.11400322883496727 0.17310799795822807 0.5860952857410614 0.8998274764669292 0.263843214780718 0.6686157311335408 1.1832512505761823 0.12698128004725884 0.7687351271264653 -0.7360239286006446 -0.12387193258701135 -0.10067690976128463 -0.13747903031919229 0.11381619985471392] [0.6409320652042299 0.027736398283966512 -1.195278243067793 0.5084028188523981 0.5144395734310316 1.4112609531759737 -0.15633550584806066 0.6655963949289719 0.9044805470889064 -0.5093521935839976 -0.14008555454420157 1.4773848423644023 -0.984870509518461 0.7970652783068181 -0.8469989589932848 -0.04455366813031858 1.5316001094282559 0.39285393011125963 1.1400958026288466 0.9794934245253832 0.29097984093868146 0.13898974209877496 -0.11752215223965612 0.09240573422631149 0.7199957513138873] [0.5847255065709319 0.24615532283500463 1.05371431665113 0.7419870661794289 -0.34128382672521784 -0.07022316414450547 -0.17635362140627564 0.7437033858754043 0.7317736017419174 -0.32386805872143787 0.3222635142593328 -0.2779672814966222 0.8598837805850198 0.029830990484886966 0.22537324539897985 0.42024817760574934 0.6313552967976812 0.5900920360888107 0.9626712698340714 1.5692131375923193 0.5244621060191262 0.4056474756567088 0.1354975627881443 1.1351422703248124 0.7250846371468729] [1.0287418475680128 1.1378568615483975 -0.4245406902696254 0.8635000511951612 0.4572232491800499 0.6063887915248254 0.5003752719366539 0.23451717218660317 0.6601952617929849 0.04133128216508203 -0.02317083365098127 1.0878790145666697 1.5540746215202055 0.8985973060420647 0.9465921916893036 1.3320790713692632 0.5045761948449244 0.7938359242329056 -0.2504838651741008 2.130610867286142 0.5277338709359538 1.6172823957440978 0.7144188692245713 0.5068761330512739 0.39648808269146296]], :factor_vec [[[2.6008113619187987 -2.27616546078572 -3.0597785543693607 0.38413121398930955 -1.3666451969465443 -3.645119043759534 -0.02313588062988109 1.8947152232565372 1.2442240233132114 -3.907698825454225 7.741835998752073 -6.000851170542356 -0.08693921985933512 0.45830157705506497 -1.0887032729543 2.5021551052681255 -3.6860987260617324 5.323573002115893 -2.8175376232908547 1.0156295810831832 -3.1314020192922825 -1.7371854900918735 -2.591144156677345 -3.119568885689608 2.953555736969634] [3.89368927074192 -2.997968710843856 -3.8695147715796807 2.668987199128048 -2.4186606029177398 -1.137183585139542 2.2863657315891355 -1.3880411258534169 -4.3529189550986835 -4.085367253934458 1.449222818947674 2.650670462497049 2.7172643417295252 -0.5251262177959906 2.8758419610388124 1.3858624397789994 3.8204501481380344 5.3491932867289 3.4750672398267377 -1.4208929280894682 1.4038562356848854 -2.8289665292796946 -3.46810198486388 -0.005426349741807779 1.4336461491505308] [-4.249475059925744 -2.5774740905867692 1.9818578099451762 0.489277368025937 -0.1853197776074189 -0.9434106264450683 1.2597749100169144 -4.840842756938208 0.6171377308790214 -2.707312161294532 3.9899424402881496 -0.12087088197803253 2.7107641132811184 -2.7666597577887266 1.3565632129272787 -1.488523367242786 1.5777293859683004 0.3396362460255038 4.229637165218233 -0.7835293898146991 0.6240496626208529 -4.281352955337751 -2.8103574935939917 0.811992250184489 -2.1046712737074134] [6.087911981741023 3.0738616710121693 0.13606863522027537 -1.8141122518874635 1.8028386140313193 3.2226711894914164 0.3078830430948309 1.5425538444219158 -2.0399105190959235 3.0498203186094903 -2.747670183777629 -2.727439839244451 -3.8792038583343516 0.9008824229713397 -3.165226144189631 0.8171262340746612 -2.0139460927707 -0.16696230641619214 0.1277076869490324 1.795850700097468 2.5899658444578577 0.5082914455170693 0.527052640719635 10.643349987860416 -2.9789982862878173] [4.070752586335574 -2.731807756105142 3.230848456007698 3.752319847983556 -3.7453624447783636 -1.7683013989116376 -0.44519889742889224 3.4670996266336815 4.061724701220549 3.0101669770229216 -2.1049470612429833 3.7754862597467365 0.6552017183317875 -2.9659479054343154 -1.0319910847233218 3.9481365186594375 -1.2617781723070662 1.4918514895593207 1.088687626502669 1.344001340982892 -1.542391265531613 5.932062179819636 -0.25380453545565157 6.06599508119527 -0.19032440202437467] [-6.475354476300563 4.065275755285145 -2.531169981720214 8.53821429193038 -6.739304533975398 -0.04709290229402735 -4.719407744317228 -1.335569460796405 6.582104019249976 -6.411530501187467 4.024273007180574 -1.4589685414543345 3.7075209622576675 2.34934241987806 1.9455516781861313 3.1040517678672868 1.4728635775941339 -2.194553546101788 3.143220175847205 1.4455562534908748 -0.7407084833907862 -0.3612183611229897 -1.2219113127957386 5.320140431603301 3.7914031196916884] [-0.1493603803844754 -0.03241190256079546 -1.3000143823391612 -0.6583955763678107 4.877709609845229 1.5276425912525815 -0.5500440511802593 -1.9060696963113166 -2.6279516644122913 -7.281885316356023 -4.745429915673183 1.6876432341680727 5.05881336718589 0.221602518534241 5.005309196160266 0.9764371025432681 1.8842063469672348 -2.2978547303276673 1.7645356951242348 0.062414869816564605 1.243511532606487 1.0492186488963413 0.292034265965345 2.9414309402811494 -5.378817948944119] [-3.229948536892801 -3.4627591328774883 1.988263779490027 -1.0493430367899113 2.2429657718874094 3.691738439178287 0.174976604851491 -1.1880136596738118 -2.053811486651388 0.6268690800718463 -0.2675899161875505 0.3504709715015413 1.7268179336929699 0.578554427272517 0.7531804717029256 -2.853295635758033 -1.647739219386029 4.546398355545366 -1.753130612169762 6.425589916804788 4.7802461535046294 -1.528776624630339 -3.952675979289631 -2.7957627672796495 -1.5442039227883637] [-5.012379143761029 -0.8408835425916248 3.948039168061474 -2.7270111493567573 -1.9436099809067473 -2.3616393577081207 -0.5752460926944591 -0.8503416507709889 0.9281191538330875 5.439867077002283 1.241084328074453 6.1574410060386535 -1.102925204249496 -0.5782735133682242 1.32968704580996 8.823876591739726 1.6657186316004524 0.5289459223168664 -1.6144468053574743 6.0933157253128565 3.1970291989323827 3.180443993038659 -1.4815770962956198 1.8304831070164802 1.3290332897356738] [-1.7696422452314824 0.48845911603501896 -1.4689733061005439 0.8623889450177773 -5.038184317279652 1.4002992553894265 1.1509738182574138 2.1982268233350926 2.452499280939267 3.005179593612932 -2.4758809101017096 1.163075547701638 1.6401884090164993 -4.442711928201609 -2.219937353787412 3.267329865493615 -2.008566037355986 0.9300081313002606 3.003984306241241 1.9551797697166635 -3.5010105559522273 5.60139996791765 3.1939924954994576 0.6194161356069492 3.6945174106744734] [1.6550942729284122 -1.0006497629229236 -2.9536159052701447 3.4309674451440273 -0.02830681495780052 -1.4111049352545484 1.0377283578209529 0.4144893152714364 -2.1504863192095254 1.5914509538758617 1.1960328330823304 3.473292704895036 -4.492160420547155 3.8490021117586695 -1.89957047544353 -1.7726412257696431 -2.182290054226801 -0.08286921986871765 0.2215634916291277 -0.8275818618728752 -2.1179417389712514 -0.5030096573075253 -0.610777138405842 -1.2683667190004857 -5.1385039341618155] [4.521360575394064 -0.382126327365829 -0.6553355911739862 0.7156183194341308 0.9000387495455218 -0.4850525967859923 0.6163120281404981 1.4499294696063116 0.5363382661896968 -3.2876016822453886 -0.9496256869291757 0.6289820828275783 -4.734838385343278 4.542767115883058 -2.8038497048960713 2.8848974216398426 1.6248335511898824 -2.0944044536109505 -4.3977548424040735 -1.3629637035069442 -4.127603117430713 1.1751406508398623 -1.744043674287259 -3.500275635310878 1.7941386432126976] [3.1207094922757954 -1.418701220462268 1.669517910726354 1.3322333895581455 6.8310720957759825 1.8254874912470591 1.9517657281920295 0.21267027057569285 -1.1186625137382185 -1.7179806289266812 3.7152453282175633 -2.1840448893059747 3.7758874625991394 0.002403329121191511 4.532232527570131 0.06710326909589173 -2.2394832202368966 -2.500129799590842 5.989578339600558 4.51840666099247 -2.179933576956645 2.216641008192632 0.48940694077143104 -3.2495485437223706 -1.0016068078160056] [-6.069318672176756 1.0174093363316765 -2.645509664829217 3.0800256029207587 -0.07834817564664953 -3.5786732206304546 -4.047674916806818 -0.7691077918225622 2.3640171127576517 -3.234065328856861 -0.6510363347252917 2.477980956935415 4.126003224320849 -0.25112258481351907 2.2633043571612856 -1.0826374255752789 -2.3894488308144664 0.14651420157564646 -6.3052462816080315 1.4678162680083995 3.191886340574148 0.3744605086292777 5.103997444755142 -0.3672818297620712 -9.190573067168332] [4.572315482876176 6.587053066435573 3.290795058873444 6.927545783833146 -3.310795715883727 -1.1528110279221506 4.004014584682511 -1.0670054865066754 0.09905883496828854 2.040216209827281 2.4333496979499727 -0.6945154131780824 -3.4065867526673337 -0.00726466205960119 -5.871478479307503 -1.7919187008545285 -1.1724976581423499 2.8642692195885076 -3.4217951296525806 0.13382424352390898 0.7263415315598505 0.8318065503404863 -5.023243192937521 1.3963905228735793 1.1688732762458722] [2.406467340429564 0.3767269758665399 -2.8086949698982284 2.362540584592973 -1.3868093442368308 -1.074568914328303 3.375660310583887 1.1058316223782645 -7.032791361724043 0.1928151142695665 -1.6244264156243728 0.3969451875487825 -1.7162433813214362 -0.4858229053311662 0.047579073460919 -2.543930000877612 -0.6303135284990047 4.445885736104846 -2.7456534374980315 -0.17151351650308427 -2.608644037451646 -1.3735003124190677 -1.7890807231623924 2.747833745104227 -1.7268360255023056] [-0.8747521622800385 -4.50462113225638 3.2501981507670163 3.5662318943453037 -9.118712466956548 -0.6301984725510876 -1.2972400974462066 0.9208207333943041 -1.7241616183733341 9.754077575798433 1.1605075777473834 7.453304243148274 2.5171248721872126 0.4646660907073714 0.0736120348021155 5.133226416734404 -2.022879660877288 0.2190933113515276 -0.22854682759285566 -2.22517674778242 -0.03328962275266034 0.49083240733526895 2.434148769547057 -1.120063238178782 4.073948669130941] [-2.8158493926762755 3.3132034841780214 7.653112832378962 1.5891673379414915 0.846160045331412 -1.3011070536794198 -1.788547082624409 -3.494228735939453 4.908111633046105 -3.617930817602609 -2.215815712885576 3.282082488128635 -0.08269381731305714 2.8517091785499504 -0.6556934618271935 -3.010871633895726 0.8172579782744152 -3.8669121906897663 0.8587841813034867 0.7274420634495176 -1.1997016351627792 -2.722094839120065 -2.4898615801942907 -3.657878870273237 3.718782246112494] [1.1488580574206388 -0.17043526961661237 1.719086356611285 -1.914510118783213 6.097312136588393 -0.8018624312950506 0.2580333725201611 0.4629204356885805 -4.829820190233036 3.7179654464415037 5.50911657926198 4.72031053495389 -1.8615884018288726 0.3435543245050059 -0.8377415154172112 -5.474696525713587 4.622446562645843 7.711035793691771 -2.670977235553166 0.3994142637826084 -2.254944823014874 3.303800858804276 3.27064867690919 -1.010551188505643 -1.0115101804127213] [3.8831208863423714 5.063385524755394 -2.8547105400093216 4.2327694647880305 -0.35694443819182337 0.8456996177392164 5.030815957695964 -0.8292078425724261 -3.971811591892229 0.9617665169774805 -1.6782541890085194 -0.969295597495416 -3.8921030020402343 4.160760517317223 7.79705227818992 -0.933499560719558 -3.601129586749347 2.8654368747815036 1.3821762786229599 2.929539356529606 -0.8658606819784185 -3.578944413425229 0.30008116668940116 -5.7664234247537385 -3.3461612830072243] [3.9537706552703944 3.939999924986108 3.0269672678565516 1.9467200907313098 2.3547008066561927 1.4822427631467268 -1.0698321955678218 2.4211181566842988 -5.680670130001411 1.4815159379265526 2.4111574961700066 4.5011374468853695 6.348554449150074 0.6015121903557723 5.927969230094928 0.7637279098460793 0.8337566762508897 2.8776343165282428 2.2642369486821967 0.8428450541255785 -3.125203662663035 4.660263633703679 -3.0001027825202122 -1.278815737611862 -2.9352113393324064] [3.343531090350971 -5.475453951997307 -1.5200880458331223 6.27679054993546 5.574366077481998 0.8591805687839515 3.574370918339227 -4.386239083643775 0.9965589175885212 -1.0907404707194661 -0.7792374081056797 -0.88052909825976 -2.137310303463374 0.7688729944098174 1.4345557977536993 -3.7041941300415706 -3.0111120139082947 1.6519727806231779 2.7606045786214257 -1.8488913108821565 2.8028571788996937 3.140580208087359 4.665528457811933 0.32551221498472194 -2.6127513930754147] [-0.0699499006289599 2.411840725147986 -5.279352331480214 -1.5099351801588556 -0.00697470855421134 -6.833594582804919 -3.6148783850282333 -0.11625997672848104 4.144941386628351 -2.1904465146677374 0.3073733054715641 -1.1252066352980112 -1.3097453656502227 2.4869745186129526 -0.2958341824603999 -3.968066724489997 5.866218225093918 0.19379765525388226 -4.95378638174778 5.005568874244357 -4.120409554655019 0.4776113236424484 0.8265467287452208 2.731377627670113 -0.9946029414979396] [-2.4200532945989752 -2.2016446671202137 6.218213019816871 -3.1589483117454464 3.5797646704364663 1.9678907519327407 5.376071300103886 0.3206852684066144 6.9350346235499085 0.7708658591128119 -9.090316129167707 0.09537100401116341 4.031417107256128 4.528324265149505 -2.6418366300363294 -4.416970683007062 -1.055730287104825 -0.9257458915506542 4.2060345724317125 -2.050788403903724 2.5941994654023652 -2.265951085443661 2.0100948747350884 4.621071577462006 5.537178797898043] [3.4067549624815365 -2.370011531907991 -4.458291713599269 1.7885882362370664 2.2095039179322677 -4.163363427234246 -1.596073938877488 -5.255832290663424 -5.1141886098573 -0.44031824168177486 2.5965027473733304 -2.681558017223717 -5.504473472375782 -1.0235737829135014 1.0430932629038547 6.8682414984232345 0.28083477699044423 2.828443751755535 0.03871874662431765 -5.9854526080241035 3.7219796063051382 -3.33547261431231 -0.8336785713344288 1.184384216092653 3.056642056024856]] [[-5.085303050683994 2.965847729845585 -4.218292186456493 -2.288110231739366 8.127521419807332 -1.562802531783684 1.5012847696666676 -4.246206169681143 3.2729250129925127 -4.770478026735709 -0.0035683831691810664 -2.5312857373349087 -3.145088572468469 0.8157180725678335 -3.731658230271897 3.8334696760635603 0.5207253150648563 4.0468652939818135 1.524773641324315 -2.4319491464389063 -1.156093714395465 -0.17881578241311452 0.818182378056818 -1.54096619978423 0.9890575902619712] [-1.8775509605036569 2.3889206686346407 6.107554297776687 3.467206083424054 -1.3349839303123803 -1.2178906124130962 3.0619008785277777 -2.5672085593470855 -1.467384334260495 2.564903129244552 0.6415462088575397 0.5197272768751893 -1.7224566417892186 4.0794983234797435 0.11337276752550393 1.8999181002114183 -3.1702636559577146 0.40643810363243305 -1.136612066481038 0.7052969698788386 -0.4816293447025008 -3.7597186930249737 -0.25663079732386757 -5.037892652223672 2.633362025301053] [1.7473783444268105 -1.4439745064296508 -2.26073351471001 -3.817808507959608 -1.675576440459853 -0.02831491268151526 0.40394870032331787 4.7359452703327465 -3.28342826877189 1.6342625402379707 2.7356753967728578 -1.5567954136792623 -0.08994014376067005 -1.8601403952405962 -0.28170328100397907 0.029018126713081183 3.0059156235541646 -0.893683323181675 1.9228517351596106 -2.9017464750530397 3.396376651637114 6.779328320206001 0.4262659527528208 3.9238602138026666 -1.625567951112096] [1.7203709056133902 -4.687580192101365 2.4168731099384173 0.16309551629598207 -3.413800832271033 -3.441392928704401 4.4504781728010245 -4.809029085825572 3.4973772663072626 6.941943993275925 1.5932060697835257 2.1236331735500813 -4.530145379623938 1.127678114515278 -0.2914328942683348 2.2244966156212507 -4.89793360740526 0.14835365217147758 0.9597206110282346 -0.8861748375261138 -2.998180063758555 2.052751859065236 -1.257370939781224 -3.8492305733417886 2.9125815229867205] [0.33371177157315685 -3.5690446388528305 -1.5625006210139505 -0.10380047161354011 2.647219497214283 0.9570196008350316 -1.7951450026541411 6.769136856824494 2.9639121119310454 -1.306247036678244 -4.445926176149965 -0.9215143354929232 -0.7190942736577246 -4.960100133395615 -5.729578316908351 -3.343098144619166 3.28513642811247 0.011218268866685865 3.061636630331743 0.6746472859987367 2.6131242933096632 5.402721548211922 1.6811794158476892 1.3010576928931696 -1.0123402403297475] [0.7628734377864224 4.631059821861554 -4.493729066132622 -1.1802670152898957 -5.427771073546704 0.8315443383112171 3.0607977750453372 -0.327759516748752 -0.7938218160110253 2.5773277559004177 3.130582429022997 2.0760494442976865 -1.8392532290292842 -3.298892758131448 -4.324305249858969 2.5182637233568683 -5.905911877107437 1.8824796497003307 2.2797538351369595 -3.8257008620473503 1.2215985855427334 4.930812506107969 0.3023895768914812 1.6225895439068052 -2.480379944704793] [2.325616658534718 -0.9486084840818181 0.6073493846064364 -3.429994076125429 -4.007888062650659 -1.8569007463908727 -2.4999748151549857 -3.3366368610462787 -2.6511995273921993 -0.5556073958056305 -2.161757566962875 6.230288415139494 6.434080036204204 -3.9577660867010023 3.139140991758844 0.359290358041094 -1.9377441712955363 0.15496895322048204 -6.0935310948342245 -3.129118898562482 -2.033074849191631 0.3056366325717192 -2.1931438423784675 0.8460637768644823 -1.0175093130222108] [-0.1812080534904461 1.7059731411975123 2.599717370274701 -4.113348621574049 0.2388331212207311 1.8288174925388017 1.5863835057672069 -1.14155782048808 0.2589731990430223 5.751696238526858 -0.8400804298760418 -2.746224299094555 -1.8781983375062619 -1.197246908148402 2.606983245910728 0.5966735742591266 4.431342619027266 -1.3847697078153451 5.452883075264436 2.5021873446774396 2.4456936658914983 3.195080492918046 1.0819330266199536 -0.9735797976606391 1.6224337723693607] [-0.15237383754581768 0.7517866641053861 -3.6760929133727145 3.435095656058276 5.740490179814637 1.4436641084732607 -2.7350565883347016 2.6283782728536287 6.142099732676117 2.744449518679588 -1.8852755933405865 -1.8855761891186225 -0.9189512886578266 -1.0092161960570807 1.4815764239482598 -3.9023272564006906 0.03899699217750546 -0.5070123598974701 0.9289078500324319 -1.6885995122072142 7.288606505182143 6.119690863395606 -4.3287885947579 5.636245531283816 1.3341193500928734] [-1.0981877251575423 0.22871002951570876 1.571611795668321 -5.698931653401849 -0.11824563904598345 2.520353585507222 5.5822669840613095 -2.668831774322327 -0.2854188843787591 -1.0351967109906581 1.5945798109185516 1.4055166830278294 2.741088069584435 -0.8219318628260179 2.409842436723589 0.020596223691892068 -8.92441808848793 -2.3449919079248738 1.6818126032724046 0.7507496198314649 -1.725532737642816 -3.072708009165252 -2.7302239692883865 1.4292768231055804 4.046145289603019] [3.7768129847145575 5.409382221198496 -0.9513959448871958 0.8441535785638818 -1.4632077454315702 0.5043259520909184 -3.8136830922549594 0.47003343352623406 2.1783329706176286 0.7780483838601853 5.654508839500129 0.5793592437964663 1.1311478506955297 3.60697413214842 0.7841875855773122 -0.2723496419872345 7.931992537675591 -0.6470831865028115 -3.455754407356941 -1.9775981528712334 1.4659429697444846 0.33332387322546914 -1.3800109988142006 0.6070498220436773 -1.240662614568582] [1.9889213010315248 5.186471707888574 -2.5038168673643892 5.943641509182959 -1.902679071801122 2.2931969595921355 0.16081055304579556 -6.141575924007025 0.4841116392139869 1.7509009889237377 1.8440107461384556 1.6776515682642745 -1.4688992945779726 7.632094675155312 -1.1270577964316928 -1.54936600750592 4.644505554383314 -1.3578543769089226 2.9200529037276506 1.2310261489518441 3.574086239188634 2.5901313574850464 -3.01543450532368 2.450020998406948 1.2253652665436736] [-2.8616593756138107 4.761066822708293 2.818100912986436 -0.38146778718088964 -2.350716269012165 0.742340734648931 4.737468126448154 2.589587012766348 4.106839740264764 -1.7036597585968882 -0.8029280248940327 -2.3286730785917897 0.7614742422874606 0.845145887672826 -2.121426206484962 10.23335161535157 -2.0850901509488904 -0.3597291698403203 1.6497826822991126 -0.8721987648785194 0.8286053221550627 1.795810245565246 1.5657028345772328 0.999381914914401 -0.056357910870216854] [-5.850193710504799 3.1098860654972027 4.237890872288754 2.077602293538071 -7.239725399155917 1.6162154732040181 5.246228770337825 3.856757355674459 1.2443569466690572 1.5829149932330484 0.1732747327192201 -0.7209227350081999 -2.668438812696782 -0.7846590039869412 3.8567561523805227 -0.9219673369698775 2.9541461349104177 -6.8139026743231295 -5.115470348211783 4.547034955796117 -4.821825041725951 -3.6224422276606636 0.592176847218906 -5.213928027523018 1.0602226090202604] [1.20897738677283 -1.4082645838353463 3.526975691121254 -0.6989164367988498 -0.009748050218060245 -0.19730454730331454 4.31614128732722 2.0706977385213885 -3.7496338305510015 2.038475843724313 -2.17626038575559 1.8145549248127206 -3.9842569015825964 -2.6151978075458073 0.6915195258673728 -0.787980912229282 5.276687325099661 0.23656884194902472 3.601962679614132 -8.026396754597327 1.482935698161855 -2.836887271384628 1.344942665944805 -5.333850284133121 4.4718310482628745] [-2.9462807642039266 -3.0391729444240125 -0.6739085373475711 1.9826940765553782 -3.519736603686182 3.6363473209871344 0.8068952584653928 1.9072698965036126 -0.5267402877789058 -0.7645309526525734 -0.7914391427723124 -1.1207974155552212 4.675525908365156 -0.7999896562268889 1.2492807313672767 -8.42043059799738 2.939973291395298 0.8182865448596983 1.6782642681900104 1.0009740603444575 -1.410693343051246 0.9156976043574159 -5.38449416481866 2.0966273159884894 4.726883282590072] [-2.030348958987291 0.3475242486016049 6.585945263692367 1.405948968386888 0.14579028211382034 -0.9791783155305225 3.220278642222169 -1.1078413128570364 -2.3361982300287196 7.594157079957948 1.3637196163865635 2.433659378410178 3.3298069956495615 -0.4508344757188439 -1.5202806286386605 -5.468602894423311 1.9201130782158164 -0.7186789812194574 0.7931099192175359 2.011253206406396 2.2040987853273095 -5.207098086801422 -3.321406432664632 -0.8407245858587069 0.25026999242957976] [4.364751548805339 1.2721761225502788 1.9976973135800113 -2.5808528991254023 4.42290472684097 0.5831832276665294 1.4387293439834985 -7.504870172256398 -0.6603901182475838 0.18516016408704308 -2.3313095955228826 -4.408533134048738 3.591145408377907 5.848550926227785 2.918493500408841 -0.27340933569751663 -1.552127522641338 1.8980453420228034 -2.8867812240163913 1.5191134115196823 2.992296330426843 2.2693742727159902 6.396023562363968 -1.6981621316230109 -1.809024868798534] [-1.926187112448023 0.6889497061259814 -2.1240393148313848 7.007459933921064 2.5908792887409384 -2.2790653378576406 2.4169044859341113 0.9155835696977139 1.9679000971482907 -0.6809922324523425 -3.951517897365976 5.5020125247149 -1.3509955793151083 4.825498897529431 -2.089475624691554 -6.089251465662185 4.243665027184564 -0.5839521462659438 -1.1808076225732003 1.648108361298134 -3.6744963439130567 1.5133105299545961 6.392441755179171 -1.32278836587089 -0.09220262771880222] [1.0516315178886972 -1.4540301437724927 -0.3146951307183638 1.2445410912612955 -2.891144727226079 -1.0418110106394984 -5.687403573460788 -3.020547550505373 1.4174080070545716 -0.7863856499718116 3.082102313774849 -2.3977289218440867 3.7715277069324666 -0.35705564049074817 7.202975124437735 -1.7210363996692428 3.7602339580172623 0.026602957681984396 1.8373734897452756 1.1731997262886562 1.5014177732644847 0.08932883323526003 -0.43416873196977085 -0.41513705736371936 0.6915566362173278] [3.477034677280323 2.427483946992138 0.3313425662725451 -1.5384530444972602 2.3848188307395595 -0.39955882638277557 0.2271400523146952 5.123118848972995 2.741067690097567 3.9106521193965973 1.2258707809095846 -1.9513850435003475 3.0535856154555616 2.990958302652887 3.7129673115074993 -1.3114684144262088 2.50835337190044 -0.5894065512026565 3.398128011928871 -2.2332867967826453 3.6157124676297143 0.7166243689106873 -3.763880580742006 1.793431978427527 2.4112607314402856] [-2.8214487947181848 4.703509242621331 1.0616304519018027 1.785293947290059 -3.085779543576111 -1.6662368971946566 -0.5157290200821922 -3.224323018082983 -5.233690662841627 -3.3547519181368193 -0.17875012207254803 -4.95300559818559 -0.5343661288601156 0.09328961253143997 1.195703693246951 -0.2767783949208254 -2.092397110906602 -0.03850392484641307 -1.3565969680416714 -3.0121003038962 2.212269958309896 3.0219746970489547 -1.8421936478829743 -0.0549823380311289 2.388257682128407] [-2.033177876222082 0.1785418362426508 8.143427555491094 -1.670462563728284 5.83646614256182 -0.18401778406405744 2.1170186128547983 -0.8964041623195165 5.2801695081554705 -3.430858284350898 2.44488318557881 -1.5968182972476372 -5.231206990976068 -0.866580746133603 -1.0178900622276132 -0.2339805993371183 -2.309770693572174 1.1278981449606755 3.0655659158756534 0.4999514538885128 0.009124555889024333 2.628317782122789 -0.0034034380125168018 -0.621219822492616 5.881742815428549] [3.4892748426819358 -2.7621545815475903 0.21464674937508701 7.20330704093385 -0.6478312746871184 -1.2941882570785657 3.622342780432758 2.0063189754208475 0.10606641757754659 0.14047394387564277 -0.6698433209056036 3.9051325489591835 -2.8232819725241662 -1.5861238364841854 -2.6419980069081577 1.9972758956230878 1.5485607167097235 2.0203508168337705 -1.5222850476710228 2.0346078205413636 -1.5443271814787745 10.938713667603448 1.4031406987131623 0.03199392202445592 -6.075650591196512] [4.5830734881468365 -2.2801870221384144 0.012508258165166986 -4.32319561716916 -5.879380945168242 -0.8365748514581752 1.7948386286040523 -0.3032340123090472 0.0349941516127219 3.30698588115725 -2.6221176549738674 -0.5150911132621065 1.6880976425286813 0.5044354428797913 -2.273248808562002 -1.3291297332701835 2.4450131719097516 -1.4975028560911663 1.6968501253660737 1.2750099419283119 0.26670113174518595 1.0172172303331881 0.5090363185288406 0.43211143952470765 -1.2231773007308229]] [[4.43239505496747 1.3988447768432064 -1.4539337115891098 0.8132820926720739 8.869591714943523 1.1269530657530296 1.1535854901084612 -1.0362925460249528 -4.039435778902628 2.0128233773554975 -1.025387906526493 -0.3728008208675075 -2.0435745609418783 1.8763764703430008 -4.288471575827119 -4.900385232895116 2.5942589707331822 -3.726706679672021 4.885654042679989 -4.085263036455517 -2.773141615574321 1.0274874521001454 -0.7400398319827652 1.0961494425708043 5.706690393831323] [7.872519856837522 -4.220988258667456 1.8778097888148841 8.96454265438401 -2.61966145995453 -3.7332514747207037 -2.8476218240812754 -2.0840384165384824 -2.821241718318979 -3.238707667558913 4.363213016941996 -0.40367592642602595 -4.22804375139761 -1.0495638555986933 -6.121900569351829 -0.09025393633743234 -1.9428612047278828 1.0749110484678424 7.971104139585425 2.3236747277933323 -1.8534490407713506 -2.9774075769389325 -4.327899677090694 -1.3425160819511164 -2.6637928967345146] [-4.553639269120428 -0.3601877024842482 -1.3717623085039832 4.572839143050558 -4.065689206504358 3.967593529329966 -5.226482744327671 0.20432292861820267 -1.6098403460590103 0.4043371133673612 0.1506686084345344 0.24751777590173424 -3.908595523528067 -2.1012997098864052 -5.551582289782222 -2.3164128758538607 -1.204006284185319 -1.0974824247333266 5.21549113840402 -2.1420451991411973 -0.7602402931527539 1.9190322558978783 -1.9781352821336102 -0.8121148733632881 -2.0161017155915975] [-1.491855281963144 -3.772729841733553 0.8189984170050961 -2.521205072546948 -0.6327366720800387 -3.6159451870578327 0.9491635877265747 3.883739023687445 2.435848344677133 -5.203544010854162 6.471974636146048 -3.3396792798721657 -0.5570493467714166 -3.19045082772233 4.058909816588501 -2.352931316774973 0.48815363569927095 -1.9009795766228978 -3.137858223133135 8.42566901512183 -1.1382146653814278 3.649814380218879 -0.998660170538362 1.2236224792479664 1.0287818939448965] [-2.3200314702875957 3.8723412222571234 -7.4231696719159 5.33111145882325 0.6907221695361985 2.86367396903504 2.9091774345533334 -1.2543545758906411 -1.294113346495888 -4.916890223999233 4.246783647399687 3.381416403621309 0.07873343791675252 -2.8241798659125035 0.77772000946626 3.627928851850084 -3.6850698450823325 1.4070989709944575 1.0699811958196206 -3.352397115825024 -1.570457825035362 0.5997514143452012 7.414015993393862 -2.193949843471381 0.7482283674222372] [0.26122547352941033 0.6482259683880174 -0.6606806704421295 1.5257251757980232 -3.246115742359633 0.730731573731239 -1.50041286118898 -0.03242326568863163 4.1379634497036655 1.6854874278606191 -3.3915432597160025 2.6269932581656223 -0.45833374372883456 1.5677703852005531 2.631477233656634 0.081873518379811 -1.4867360929699662 0.6969842342269328 -5.4338555279708505 -1.6367079423318578 4.8014522877850805 1.7929128911806465 1.5373771528335523 2.3597178953127624 2.9288308159279395] [5.24643241312105 0.26157071629069084 -1.4392741499700843 -3.276992012112245 -5.0626517701702785 2.5631948830651488 0.08142850404333682 2.675453431646749 -1.1006971852703242 -2.3216221716179812 -3.1316306721972382 -0.8548075602189875 -0.4158196753456765 -1.7676248655033429 -7.482472312437047 -2.6759922845266333 -1.2454366959571634 -6.817393141572055 -0.6144834623292204 -3.581648076056729 3.175827712755953 -3.9762402999784197 -0.37258503860781916 1.5949662710051116 1.5632031177577757] [3.681720357439309 0.40799633377946876 1.9262266716320977 -0.5478397246811717 4.743308209406513 0.8230545422678364 -5.136491949085044 -0.6514096536694078 1.724709936173975 -0.2731204820475677 8.709293601554961 -1.651660312432497 -1.2075480103685299 -7.588437640876985 -0.3002657455354211 -1.8281327067981792 2.400465628761664 0.6111627940890829 5.679936172126805 -1.6450247802641844 -3.403834818588577 1.3939355591261686 0.10315066919371099 -0.2707667208783641 2.577545965012315] [-0.7518375522400904 -0.8439161166552736 4.707626548749502 2.1397999085726083 -2.250205251037836 0.7056850859802226 -4.157163714620276 1.6100097289357709 -2.0323228929599293 4.731472382774722 2.2457986956176215 3.620262794170711 3.449872086193456 1.0339704659980988 -4.7306818213501 0.09335066547215112 -2.156329403262677 1.6323546706600678 2.4812281855476623 2.7904688288078083 -8.765514369719979 0.8252181116168766 -3.9494169428944197 0.7184671052302887 2.3117148370587417] [-1.9154401188610533 1.9986854257974822 -1.9202282182420536 1.9132715128020867 0.8583743691817727 -3.1065982848371196 0.9336835516392756 -4.035917123617813 1.6054535207549285 3.091601780470617 4.969214714781637 0.7943453199599795 1.572472143950768 -2.2523103893365612 7.524427625846613 -3.5243006346318237 0.8433933402955389 4.53028544080376 2.9932951090679203 0.5307825263724582 0.6089108573752682 -0.10151395199324281 -2.0772218529547035 0.47663442192161876 4.688661242322336] [-6.824019812545361 2.0444934256995344 -1.6970566159632734 -3.1570423990216683 -1.9389912814180832 -2.6082682979342278 0.17141349891615906 2.633981036065723 5.711440294346197 -1.1888157577349248 -0.18681755006740747 -1.029688062414232 2.4962181295198707 -3.988017862499593 -0.8441661247815955 -5.189205695683304 1.6982047740589954 -7.390720374665814 -0.8605237358374338 -5.617406047425657 -6.337311212311363 0.5229952990794907 8.20485989853055 -1.3841189113260923 -3.271536728628786] [4.530291291014217 0.8706717829520476 -0.5207050364096406 2.0055426060669768 -2.7739154021768417 0.11692749983122874 0.33080868282770937 -2.9102078128588014 2.0507261745057663 -5.9295351321383025 -2.4198067135595664 5.488341055073583 -0.7635213808778389 6.501574306690592 1.392290772001863 0.4336489406675107 0.32910983689719 0.6913298572146305 -3.076630335943019 -0.923188425859155 -4.539837144592054 7.049996445577629 3.9809703877036853 -1.582937654867763 1.0417830742672989] [-7.4206009760699345 2.2156864073596894 -0.028353056789635955 2.3305512554381265 1.9550269299340968 7.928475359834177 -4.345658698144958 -2.426127479470681 -4.159966707467197 -2.9485906854650796 -2.7102903781896277 -2.8873281303669307 8.153840958236861 1.571731976516817 4.255951312570074 -1.6282793360352514 -2.168616692932277 -3.406722445113267 -0.9357765083578018 1.667977878714927 2.0486976047846226 -2.202799715316052 2.999617049968922 -3.136166966408357 -6.726443596781606] [-0.5435719671272532 7.250292749522982 -0.5919500470352592 2.104314950400192 3.5462879270760506 3.819034165944048 5.958443124114874 -2.5905349354767258 -0.3631804335812568 5.590828255495461 -3.096169991216342 0.35786612735225964 -0.9928855176596683 -3.1148312527114 3.276093243024139 -3.1719871773404855 1.911521095125081 -1.1994906531312997 -1.5877262093084719 2.210965970251995 1.3286246422853303 -2.506370979902242 1.6006502624863355 -5.336282215245154 -0.10217800749712436] [-1.132056507734066 -0.13498972556412858 -1.4110862764378336 1.3276557242424827 2.5085963840987424 1.7088449597633082 3.5650874993837807 3.863047481524109 -3.6502461575104475 -4.441385695909612 -3.976535113594971 4.040796364789767 -1.7276754370040006 2.8397037607082605 1.552705105361968 0.20007301348927775 1.1273823092094974 -1.9664597069648204 -0.807821254907203 -0.2302596086415783 -4.016413513515762 5.290387711716206 2.4523232423545815 -2.7885631699888824 5.769725574962294] [-4.7294424639028385 1.0612973125584553 1.756328884397272 3.8443811176391014 -0.1601653416857371 -3.022324041477005 -4.8636114331478515 -0.09007157924351006 2.813621580190731 -1.91205860816063 0.9888587171888505 4.143178503531307 0.39977264652350486 -4.932889327466951 0.773622515487352 -1.519075362596502 -1.5547454030904564 -1.9999877767943794 3.611334613744433 -3.7650509347282677 -0.18268120937832377 3.172276854036954 -7.092370061752012 -3.743184361702336 1.1743383234548788] [-4.597822594185687 -0.4790175113480936 1.7567627813045534 -7.247582124528301 3.24596590723975 0.37738239276433183 2.09997997564158 3.755793532228075 4.228947491943882 -1.3570437770815826 2.5761558098400092 2.4524586604903504 2.5411994359044368 -2.834280786393482 -2.4983945708153885 2.691571746368981 0.9548882802468297 1.6418038585400014 -3.900717889327307 -3.49021591780638 3.010597704891233 1.9176129970965434 -0.4821942559302134 3.951164597499262 -2.4412119828158696] [-3.611476085031898 -1.9985320823780133 -1.5593832594921346 5.479967970510935 -2.1422198092058693 1.1802294117980423 1.3435759113549988 -1.8059242229853631 -0.7420882340352908 -3.8546884101806516 -0.878123262787746 -3.653368732410364 1.2147244866596432 -0.12230508078860097 0.2900323658078553 4.932832824763247 0.034434914191559834 -3.20577753161006 -1.8430967594218557 3.4770740135074174 3.6115837357433676 3.3377218108576607 -0.8839996697137129 8.148528525606649 2.7836969132401457] [0.7881678202325464 5.1537734844515315 2.645921070067265 -1.79378340288056 6.183411233995172 1.98690714175066 -0.7111722716923161 0.8436634522377955 3.4537484712611106 -1.0558575906395835 3.2018236409111847 0.8865595109793285 -1.7413972158189202 4.258167607028789 0.9484214940526521 5.232652062937791 3.652230855443661 -2.7610447858180702 0.531860207175035 4.2342415111857115 3.7071166305015804 1.5588233960108153 -3.9289256260070324 -0.8984209261518281 0.23529443128446714] [0.5761983175450214 4.70065649718688 2.953451078354755 1.380966770878826 2.2880183186385374 1.768302476674342 -0.6975522919910138 -2.7384593186765422 -3.299960369773657 3.4050385655870055 3.1624098565071996 -2.4879037902596663 -3.9486380456446346 -3.7070768125016276 1.023396955959434 4.7198768830490465 2.82866861069885 2.5832835276866333 -0.503445884340479 -0.07431809489877467 1.9520449857586553 1.7886336583200915 4.347926291062117 -3.583926637390305 -3.8222018769940256] [-0.509687877146513 -1.1427356865797795 -1.084830660366992 3.6694422724830695 -6.215869966924081 2.9902413694984267 3.8468808314348726 -2.76302362209169 0.6604162307413195 -0.5013450824675219 0.5392130439430285 1.7251403644445753 3.820065579800953 1.0240521837690557 1.9230144707840122 2.3829478086828986 -1.58694673630816 -1.4327905370357061 0.648232827350171 -0.9965511533801379 1.50006345457773 -0.12259862187413634 0.6617879085252041 -2.107772549613755 -6.1166605331185995] [-5.626580809372967 -2.7019734886610816 1.0841142251450864 -5.433090466170604 1.6110372884241464 4.433077973932492 0.8387729482228257 -0.9992839682797514 5.077190568576328 1.383552413246019 -1.7345559870078606 7.016850924739514 1.81376431002398 -4.066412525486679 0.04190174336710645 1.7776427643253863 -0.6902731769689421 -4.686469562933931 -2.055880482707757 3.1027426690395767 1.2965877105194998 2.6420186883474277 0.861498223567267 2.2641937287432525 4.7270094637572475] [2.55692067018451 2.261755029713921 2.8036087303077712 0.6296830952913806 2.1323473611541446 -4.098587536420147 5.129238299938389 -8.49720299701574 0.7254642894712268 -6.3473769330598175 -5.45680827435517 -0.27980616740549286 5.134181434482796 1.3556345310303086 -0.9786980586187368 3.451699632154168 -1.5605941644135062 -2.2872526447068027 0.401870855511567 -0.11539438714273587 2.8364684837917693 2.293700637415938 1.3251193452922652 5.028010346496829 3.614415346548356] [-1.1694064757461273 -0.027819378552767282 5.547669468050209 -1.8212665192536077 -1.3681408451142092 4.684486019806667 5.316456430117941 -1.5167565147993456 5.570628743740156 3.8623284956376778 1.7207785134835247 4.209759138127871 1.7109878366270102 2.3522317349979476 -1.3971652207799354 4.022222241911265 2.0809947801905806 -0.5411615857989704 -1.7510763048414506 1.3278537961249213 -2.932028542536375 5.483070190915342 -2.067498104859504 2.6045134665146277 -0.10493128480582209] [1.4057049566149769 6.519531256914676 -1.2694489279585366 -6.0037446726964205 -5.351965872873067 0.8658745414288262 0.6781289331352268 4.494029426538538 0.5002164369606212 1.1886727093542717 -0.15861253273844905 -0.606736218027734 1.2034845802540317 -0.47271327891656295 0.10027985529610586 0.9833649348108799 -4.403670052790297 -0.7741741146322236 -0.6709693136431991 5.447282990711892 -4.180877251166869 -2.7861376033570533 0.5658342530234239 -0.9977891646561232 -2.2420117936505073]] [[0.7397447211873289 0.09950266970525062 2.092871662214622 -2.4615774997057813 -1.3428753885599622 -3.338244586525218 2.43757269803918 3.425967127744326 -5.663632516849181 4.0177619679424215 1.323694395024529 -1.6724897389502433 3.2465874982145144 -6.422477227353726 0.6214397489528803 2.258158787403886 -6.708603585893752 3.6189454672245276 -3.8238677113091244 -0.63059576253561 2.187792567410958 -2.1057553043424817 -0.9140248177831851 2.047039442208204 1.2543746021260929] [4.511610854742673 -2.2853287291974924 2.712581342333066 -0.749648591637412 2.3870324886852186 -4.506764471801287 4.74357526936061 -0.421245630357827 1.816187915903222 2.557733048786857 3.6099553009714276 -0.5397411649751584 -1.2292404263684886 -6.682437340087758 -0.9676604695735127 3.067953399800909 -2.747564351522271 1.0721943148636022 -1.790492542288133 1.4070269024347781 3.618821728613393 2.4759927952809933 -3.0167431893578573 -2.1101462003077627 0.35865857142767305] [-1.9373939112445409 -4.978448521780778 -0.7326856023823469 -8.42459599385622 2.398599044073863 3.448282318697081 5.435805152505944 -1.4693529852558649 -1.0739575400427308 2.2757663965587365 -0.3999449367466306 2.4161159663367346 0.368599544019781 0.0693252283073105 7.76121686593212 3.5206457266137137 3.981908990821826 -4.854183047237835 -5.642872170870356 -2.5080757099104467 -1.5743717009914695 -3.529248866349228 -3.47240233964336 -2.0965475685146617 2.208809217018593] [4.885197522948891 -0.47940941343354876 -0.2582610966345183 1.9110620982719888 -3.859217673783908 2.9936300351423393 0.10178064354995373 -2.23541420209719 -2.618502050241846 -2.7060405555704494 -0.6452500715345482 -4.296812280950512 2.482366343348543 -0.8432169278635924 3.4081807221479106 -5.225798883676254 -1.735173173456218 -3.8733232950336696 2.1280463317444593 -1.809173069272807 -8.226461503181456 -0.7023353586699872 3.5523500430520993 2.493697210271608 1.3826038182744367] [-5.7778356048549115 -3.409424890964114 0.14327236316737452 0.6182317853770631 1.1461352562488865 0.8088891948992518 1.016365658050137 5.129815908519025 1.4596796146495628 0.43216531712385214 3.7110798808185916 -2.97407724392884 -4.348315664155765 -5.510678801734031 0.6983544203578451 3.772200362999779 1.045807094060684 -7.39313566264947 -6.2687038014427845 4.815512199415243 0.8632073371337534 2.103614210199537 -0.5638741561841669 3.7922558744628723 2.510245971497003] [2.888094175631717 2.099277460500181 -5.0557537454250925 2.3673269873287612 1.0978798085728523 -0.19348320509547395 1.8608862502694978 -4.150694217029697 6.968122869043905 -1.055856318718199 0.8315396128364552 5.9102033363710085 5.564374097594667 -3.4645002846106085 2.704516394198037 1.0706242591180393 0.5381967846346316 6.561790238107647 -1.5745061991318265 -2.047968333036169 -1.629019600213072 2.527115220106662 0.38299964916525964 -4.3549828812231075 4.008239732830655] [-0.5937917200012168 2.557580375664506 4.353659870866652 -2.2297958018475192 -3.8621376529794142 -0.7067860876504812 1.3518798467755864 -1.0941617240362338 0.8470056935888626 0.2751631082973714 -2.6708024860387365 -0.7855229062322402 1.5066394857151386 -0.07329238825476386 -3.967822047899812 4.542615836375289 -2.1819443811192696 -1.007293497398887 1.4683983170017836 -2.699727967525211 -0.215050883050452 -1.8215768333515379 0.17026482661047607 -2.527288419894493 -5.106458093685298] [-0.042314947218524135 3.5153178948990447 -2.6775947581665633 -5.238592678929248 3.4022954107774845 2.58924368141457 0.2462101929927194 2.316959331629318 -5.728794619348509 -2.444818450302242 -2.7619342976473207 -0.8116503424325299 -5.416313589168497 -0.16357523297076038 2.6721345030957844 2.002342861582239 1.5860139387801127 -2.151071666516962 -2.17680894473911 0.9611649205082962 -2.189606095374361 1.7598362340924993 0.037131666214963 -4.1770497529404835 5.800216318495511] [-0.2820870412355286 -2.1998772529683253 -0.781084965578513 -1.1852598192273494 2.8636273890648556 1.7984907184225387 0.28522930485742864 9.58354401627981 -6.614700647319851 -1.0495293886173656 3.2223451885079712 -3.2237588750427926 -1.4071683832409925 -5.736128773325436 1.3688862316270123 -1.5473692360352764 1.7776154998764588 0.6764754026742692 -2.523222708203226 1.6941468920881249 -2.532122271978976 -5.196664535344906 2.3812372807081896 -0.44411766822327076 -2.475987244100545] [-0.5042622643981691 2.0712901076268513 3.144925119229596 1.5511135178716842 0.12842431583262284 2.724862113478667 -3.5585957769527607 0.7315922315583256 -1.5125540277576166 -5.914719534646619 -3.137414876359469 5.3000205620014675 -6.446017473012596 1.0959912411228039 -2.433017400977951 5.907517892505717 3.6238847369138942 0.5201814609343866 3.6974688504397264 -0.39654404722788844 2.714616681457063 -0.1484083977558045 8.475040796794145 -1.0971501631306932 1.3521577273042162] [2.852293510870783 3.5952161548303647 4.2338953147745775 -3.981047296558522 -2.3598966645185238 -1.0975205346924768 2.3886492859647404 5.114748571256195 4.176123957328095 -2.985196879168531 -9.80268610551796 -3.4064887868321954 -5.529409107113609 -0.9378029374117325 4.088994060904395 -2.56742272625956 1.0620915225030703 5.00912437880112 1.0911992047130479 2.962008664498468 -2.929649375051223 3.0717396698578265 3.3053180292875983 0.16546641450088737 2.5118627721926634] [3.0431271907344035 4.719234242296221 -3.37346459028886 -1.0787527698755253 5.555896677596998 -3.603489962705967 0.1127676328983653 5.973431650035576 4.087606038460067 -3.8268398753569937 4.9380943023836235 -2.409239513268385 -1.4629955873687712 -6.646094626990527 -4.710959812322018 -1.2082644349777696 3.4075819139196195 -0.684735027677426 -2.821544343052267 -4.556930817103677 0.5871485983187062 2.345243152095448 2.4780017069071434 0.03799525548863944 -6.264242151044212] [-3.9999910665440748 1.6554232730212974 1.1600844664740788 4.69058602581896 1.1568733769113662 -1.662753874059908 -1.00900754453219 3.343370482153793 -0.027076493995678408 -1.8571251858975888 2.994614436612124 0.9446464417417295 5.139471058092859 3.4360622909926883 -8.216424442495756 -2.789026458971124 2.771641028200251 2.535110514820559 0.8724970424718912 3.7038064432350084 1.903743211135418 -1.508578995761935 0.3044071311855319 1.0064580969697716 2.3324710817658] [-1.6189598041193587 1.753283431732689 -6.415785424351723 3.0420595932095695 -3.9342225155548034 -3.923034775905079 -1.3254175852008212 2.9659099217297196 -0.5089503075180049 -2.064975657119635 3.272924790192686 3.746485111669725 -2.1080711897938285 -1.0753703208686798 -4.11144969486562 4.298558128138551 -1.4507081886894047 2.0274537897112177 -1.8063786558821167 -4.965592163301475 -2.0427931323490953 -0.5225334022996433 -5.123230543226521 -8.754301816431903 1.5120652658471272] [1.31454151413865 0.24020833143227832 -2.564499096088672 0.9058634944067254 -6.702366035917356 -0.10319546250054379 4.518223668328798 0.11618563038323368 -1.3202307378824911 1.557116212251765 1.0360758073773302 3.5497381756261674 -1.4937469661448632 -0.9488583132719126 1.2884418404527698 1.1196652659042432 2.249207532586541 -3.9017342957072527 3.8927469974256086 0.6031208480054119 6.674077628285521 6.725674601910787 -0.5801293102191885 1.151744290884219 -6.035217366547622] [5.822382614685044 2.252741142274104 5.901053112443502 1.7757622161802729 -1.5179129936730402 -2.930549218065093 1.2034909320618257 1.8749879062218182 -1.4815763508796453 3.125716092862808 -1.7880533651126145 -0.638619458558485 -0.23596923485605298 -1.8844909523771785 3.0745722127892354 -2.385836839535682 -1.701889257842324 0.8671020702175549 1.2052303561169337 0.2457034458755552 -4.508088007945181 0.2743895426972548 -4.275503426772487 -2.2848417481907024 0.610918812524383] [-0.7903353397282731 -1.891021418531599 -1.9380462844730366 1.339478094600066 0.017503709080105345 -1.4716935025198143 0.4669534517393954 -2.828967622352286 -0.7564107849992365 -2.8052426775131907 3.1533675797995966 -6.644577242807509 0.16450993645920436 -4.013665230634942 2.1652931284875585 -3.0053285415322724 4.9339398935023935 8.149986187972509 -1.884268407135739 -0.3845314769126263 -0.791176983107257 3.953478174812402 -2.3209140593767263 -1.0850257448760683 -0.7979224268166183] [-3.8545640067927547 10.010900252120646 2.533883814985359 -2.32028555783479 2.3533283101266864 2.253734072888556 1.1017682902353971 -2.289070606399143 4.419143584578717 2.5905468405445187 2.890674734165042 -0.18771980691549067 -0.05030862355987964 1.4845637472520767 1.4238666796073116 0.8519063407233054 -2.411203400169187 -1.0985065023775211 0.48504551648779826 -0.2710690968026716 3.3919974473486953 -1.2645579777761873 1.735726392174168 -0.6958482425758472 2.5292235657278166] [0.8865277084300243 1.8324023001385377 0.040849879015217416 1.8107100590194192 -2.642450787288708 1.555470548437814 -4.625138152612111 1.694833769733509 2.251027559624887 -1.5403480269718612 -0.6630614912865456 1.0351706201990158 -3.084346550482586 -0.08572909568630871 2.5364552078686584 1.7257507943483332 1.3470419701129372 1.3266451055529185 -1.7123152713758178 -0.38961052594981865 -3.4850629489636997 3.3406041489478753 2.070360091802791 -1.258574997273748 -1.3618990477800315] [-3.458869310824084 5.914555704640361 -3.813690520560886 -2.1718871739985444 -0.6001138441140785 3.108791478181132 6.663764084197261 4.008693621023381 2.793350845586853 -0.08045009721353563 1.767206911229316 3.0342667224211 -1.6422610114866711 -3.354814683271592 -1.1622853103030197 1.239981398616577 -1.4873293723668848 4.092372854806942 -1.9399380111168805 -4.679380923772806 -1.636785377710752 5.174263325875251 0.05362961086829093 -2.378831602709804 -4.524687621423903] [-0.7490844326243129 -1.2407486368089664 -2.0462496906815812 0.9539115038396635 3.6364986814289413 -2.600033735964205 3.855288293308394 1.595445080587449 -0.5625838427768499 -0.6158934469162896 -0.2445417611216661 1.260545236697913 -0.04318560361955648 3.288184771184904 0.06763218274808164 4.6978388503335475 -2.68547402582707 2.474506932608087 0.8812500752291612 4.713755468270748 4.548939201103229 2.1818202785114504 -4.380205101715285 0.47444509715355787 -3.5025220184544774] [3.524270339832809 -2.8609453833185694 -0.30615533775991616 2.244611372876889 3.053592875138781 -0.28237984143056255 4.810012208448919 -2.1733763562182027 4.101699070236004 -0.45857311727935385 -1.5612735505073194 1.319122880765772 -0.8502602255103853 -1.4810798279218857 1.3651183979173247 -2.969403839329611 -0.9265019026720183 1.9296296507562056 -1.2180113526229503 3.87364266025043 1.9081207437077197E-4 0.622649006391315 -0.6563089151046868 1.235895790238587 0.004927943501447984] [5.886374262588497 -2.7685797272083765 2.312794243637809 -2.135825110119102 -2.4986139783795425 -1.060245253278698 0.6582361879702123 -0.5546961684096696 -0.764121042129414 2.6015037013636793 -1.4071851701437457 -0.33493158555912156 2.1902642493537705 1.195938501334142 4.09098340419596 -0.954069440503406 3.7474263350239747 -0.6322763357080974 -5.1095052202642846 -3.8676227108386554 -0.931973634609456 -3.895427443915917 -0.6490654936274345 -0.26169225966696436 0.16753245585842247] [-6.352147219082357 -5.331497070869178 2.0094475190388836 -0.10559469706188163 7.235834498466945 -3.452556218268843 -3.4391239823725437 -5.5853453074807895 -1.2233384421934064 -6.46091113347032 -3.7273677632218902 -2.6951401140695315 -5.943506980774437 1.6831151670849003 -3.5680497847224704 1.1744865902126724 -0.5162707632616457 -3.4956526638532983 -0.6640871727025879 4.167993285549243 0.047036962578099334 -1.8210647680593004 -2.470132835360695 -0.17761723734219437 6.331162374007535] [-1.7969961437588462 2.3492534951617605 -5.440806824584952 1.0998497536960952 -5.0749859095431615 3.601332673539946 -0.15935220615209195 -0.29154006981231734 1.4958141365087723 -6.580437374458101 -2.0313715758207667 -0.22599322119818915 -1.6632753145610664 1.3401520399183113 0.6416608306862167 4.3219854794011745 -2.054849272770242 -2.2116439651727062 7.27821263546535 4.356364521988734 -1.8817706677244623 2.669685407852723 5.250216005356833 -4.014364690699904 1.4567275369760724]] [[-1.975130133268446 0.8625039319236361 1.738110151942391 -0.832360766534606 -3.592872760023311 0.9293512840177138 0.34458457849287494 -1.7257070858953463 1.076442724945761 2.419531284531054 0.05944560183171202 1.9881711325935925 3.548425480859606 0.2781874878161961 4.001357981326923 -3.9468144146433186 -2.852652915495598 2.5042054668461082 -0.21289922777887182 2.6629517117178976 4.469244147662255 -2.075204804573343 -0.33621961795263294 3.08036085174573 1.9445157942963673] [-3.272794808375731 4.692747826184041 -2.653301380384483 -2.40021548911565 -4.244644816695087 -1.8375588128684686 -2.071550960468688 4.62669195726675 3.100767941478126 -2.2964974532923668 -1.9460396773241544 -0.02329065902030969 0.0880137988940222 0.9904784825103825 -2.652323107049944 -2.08489315140221 -4.333849431511504 -2.946783774872559 4.190811055644489 2.9145710996381227 -1.2111398058848855 0.8196872191678377 -5.143195843497117 -2.141586260675356 -1.0791632920815695] [0.07418832796754718 2.3503648520422624 -1.921693500418245 1.8144579454913086 -1.0305336964697567 -0.3603105510123375 1.8278361702262071 3.7171307429519787 0.5995013421014685 -4.6449847404107905 -0.6243488259118908 -1.3272053635022014 3.7704262819221714 -2.1413586238127813 2.1258479886493777 3.770330001061022 -1.5919932490123656 -1.2505060335866616 0.013431553496119963 0.9627860477424757 2.0493870715352696 0.46144478048996296 1.8013013611660103 1.8311388079818858 -2.441088075603888] [0.4594914219322796 6.6259092034472395 7.991738495263242 -1.9333071405746125 -1.9810063837049343 2.1332741277922938 -1.3428263376099259 2.6026320808131853 5.74430928356971 1.1900269669403953 2.026319871504704 -1.2349671261775588 4.952163800543361 1.621291620911685 1.2379150189877042 -1.34248590530378 0.5432327692167662 3.5062776516125482 -0.9029611954803594 5.552334904860553 2.5325431320483793 1.3968073175235522 -0.03505160489666004 -0.19298949819237698 0.26979449504022945] [1.46088968073368 -0.3825219951878695 1.023046003977723 4.844599539198009 -2.4248979852472554 -2.2766477278637303 2.1754428745260403 5.730977215017653 0.5038343575532518 5.599218017289155 5.265845966509334 -1.286606462515545 -0.7594596305595285 -2.32514499051125 3.7126968392965107 1.0322446004608523 2.1292933180055154 -2.585399710134232 -2.4967839701652177 1.1611047926017013 2.0387200970552493 2.0986664579491676 -1.924871912145588 -1.273055263159386 0.18335004071646804] [-2.5657881958817272 0.6139913913283154 2.988158309388702 -5.352379862342955 2.9707395726247094 -4.083727822191006 -2.5102646585036164 1.4703330988944097 -4.906152919119651 4.450440433361484 -3.2017994203143267 2.784119088166497 -2.1838484474353717 -0.1848359937099764 -2.316789704048683 4.130098439663275 3.1642317978401935 2.6152438578940895 -1.2978113145231094 2.242611226781474 1.1674972021542283 -3.80776965934308 1.5770039589965108 -4.068164590469895 6.774680566347912] [-2.9987467077600862 -6.944658480242031 0.09469286270977392 0.4447745153615389 3.520390624799906 1.0092223728603853 -1.5895481291768974 -1.9591642124283304 -1.0837889838721377 -2.3115646184052565 -2.979230280848199 -0.6673589848090498 -1.8190149352649687 -5.161029320126572 1.680195574201963 4.176462684395995 2.265447681637235 -1.5338859627185646 5.653172013589702 7.073285731216263 7.351300476133533 -4.482769491252215 -1.2301625459742829 -0.6481754340800234 2.1085847499044097] [3.665951731565348 2.781328284132807 0.9127818124218692 -4.113625893470272 -0.1964385630147607 3.0721804463520375 1.8108568081190475 -1.1954251694390572 0.33943035311526193 2.5941351304768694 1.0167236362494627 2.070225329000938 -0.27453325112403265 -0.08317306353502502 3.8224118888756706 0.500245715230443 -2.8622669983889035 -0.16259702570797002 -1.6883990068247894 0.09010374196066459 -2.7191816662803308 -0.7965414719412529 0.39155534900882294 2.375019521023611 0.411850480983425] [-0.6335321117896224 1.6482990517672145 -3.0294956684396777 9.87176941485678 -7.681142956592223 -5.08534727023618 3.617460874117988 -4.82334246079245 -3.01561925352551 5.720585409998265 -1.7395320589897332 2.1916718692373975 -0.31004874765439844 1.450084580659048 3.171184141123246 -3.293301379118499 0.24488017308156107 -4.0505409214137975 0.8435156694266916 4.274440274827087 1.8527162663595318 -0.04261396859922295 -4.587118361921502 1.5917572737495655 3.1063486858380966] [1.7614620344762555 -0.06503548532550557 -2.6544169535069115 -2.326610771091129 1.9955875871832183 8.12105045761206 6.556678815279579 4.502262603344724 -0.0799728708718021 -9.884853491340568 0.5810305036934094 -3.4347055260092567 1.850443242062817 -1.0285002785602606 5.584617504412439 -0.47612252634352165 1.8131116341186797 -0.43338646908836204 3.6724069316438817 -2.7973772625514806 -1.3231346701090854 -3.012482631849404 4.713257010240868 -2.825131198878093 6.232436176565237] [-1.1814808507995804 -0.12010463276215977 -4.418300849140671 6.860391380607075 -2.262489049463633 -1.658083699758788 3.221234112618584 4.000710769112796 0.2935751624179877 0.6729090644117179 5.3814533793485495 -0.4349361982546443 -4.1767311750344716 -2.2486938274448183 -0.7617876826134593 -4.12253241516304 -1.0550984678964093 3.413825832039152 -0.8011020583246311 -2.929297787211214 0.010086081721922158 -0.23876004985144866 1.6114214922164813 -0.24237966139788908 5.5102851918345825] [2.995543182258261 7.097637541052477 4.550291508972454 -4.452336821844169 1.3218890335441495 -3.035230129034892 2.281588033968317 1.1324357054853764 0.7070812625025018 -1.1467054631435423 4.889118117975167 -1.8082748507477384 -6.645695270276444 1.9905869942828016 1.5569449706312803 6.516969412818273 -0.2218713356907982 -1.9957877614742952 -4.401651370899158 -1.1022061133031493 0.7414417867966715 -3.862398108670633 -0.7596298199246296 -3.3492478861426718 -1.495080170093198] [0.7446689824858768 -1.019619862337606 0.3726978458578651 9.110950413752898 -3.8973865716777993 2.6866887556830656 0.8750905230950796 2.408379315654532 2.5056538558735837 3.8508400012514037 3.617763510240568 -1.1103148876932558 4.434748130909545 1.9308610932395665 -4.295432569107 0.7618056049809694 -1.1390534800243437 -1.3883396482582602 2.874491827492666 -2.5754553755175387 1.9327653273872223 0.2700051826536658 1.2227195981470291 2.5541032880689594 1.5754579218708151] [1.2355470774966024 3.4702546328148656 0.8604073790701816 3.288016185012834 1.983278882008542 -6.712022125239251 -4.074704316587903 -1.2642341291382753 1.829881901646778 6.386844031747837 -3.2526966307155085 -0.19253474224309197 -0.27571383804245614 -0.7057781841622233 -4.107821899487764 2.7514028650797 2.4629503444305767 -5.107964577033436 8.509645524194775 1.2167866120215316 0.75993431800857 -0.32280263467839915 2.539452120239462 1.0591819749879365 -3.0928116331408715] [1.4313778160738404 -3.156080753952096 -0.184788862668815 -1.6978261166034674 -0.8408524464986324 0.5888116805244139 -4.339203349506958 3.57249534126587 4.40419937380626 2.5638330625964816 0.9300238530294396 2.4905263029893887 -1.6535106527644539 -2.395856878383443 -1.8030070587632383 -0.4505375575093316 -3.5505072380959155 1.3206171987303632 6.769302878660484 -1.2488066911748557 -3.953128424179174 -1.7496607690432913 4.39691350803687 2.473954201859467 -2.634948065696012] [1.3486777336601683 1.942046072549736 -0.038409068342122044 2.0420664414802143 -0.5543445262201119 2.6881450890470426 2.86632330722737 -0.6911056291290656 -0.8972538009197943 -0.8781955431722281 4.102376380993473 -1.442480827244449 0.7747814684073977 -2.7495524649453364 1.9222118964938189 3.702305030371603 -0.1850052914615833 1.4895580826867578 -1.7044452705838933 2.9317837764513985 -3.3043302392534137 -2.6492770813422117 -1.0339236276628718 1.6636464171441454 -0.891426214282582] [-3.098821793824683 -1.5180448979438732 -0.3528938987230837 -2.4446556073668684 0.09592342536643264 -0.4522880846480997 -4.796780074911434 0.68226375154932 2.635824617013097 -1.5940324116503013 1.6500890772271486 1.0046053226589085 4.399423272334087 0.0824141458705572 1.6681408245188882 -0.4201909783804932 5.190608246972259 -0.6443496463249823 1.6330442401136156 1.1211649294421113 -3.748427908222899 -0.4116754049060611 1.4507737682376414 6.290968195641207 3.8656086867711865] [1.624972538914828 -6.615533833934146 0.36560939637188866 -3.9564406304696824 -0.7342820543559141 -3.102191595147325 -5.4833848011517405 1.0315792436191342 4.877482967131319 0.48329341504365664 -2.0662239385171506 1.6439228237243806 -1.480991469475321 -2.152277086131583 -0.5886665099340482 -8.126939009780807 3.664100764288966 1.11274061111002 -1.506214647264765 4.190619348874258 -3.1608631542965266 -2.0355441008563813 -0.38039755510337453 -2.175874267367475 -0.8367387571365439] [1.766889815198367 -1.2376258685448391 -0.08958031915789932 -3.095751901258161 2.680614392725103 -1.1744586157576864 1.0013266219934311 7.046322660870332 -0.9580392973124026 -1.8679504504609343 0.7310246301235945 -0.24352267338551187 3.280431092412141 -4.558211302236113 -3.8380404655569684 5.214981664095062 -1.8702847175956254 -0.45456069721967257 1.9326559526067009 -0.41374893981783795 -3.1150792857263885 1.174592423170971 -1.0364284973973177 -0.4724634466337628 1.1975597345114837] [-4.07882792112302 6.137392633632744 -1.3082136954931427 -1.7049947597444242 4.437702325766659 1.1388858604428531 3.4974170374731197 2.1059727678537046 -1.1501116347542093 1.6692397277133812 0.0411614968884243 -4.671653634379585 -5.6109520112696485 -2.3353634826500262 2.827454500979018 -1.0670652371009572 0.10844783639417205 0.003934538980582436 -2.9192369217941794 1.930504828159724 3.324511688751774 -0.4200015123778443 -4.682987551386524 1.7264489064657447 3.032740142964309] [0.041030772347390415 -0.10289317581943858 -1.8649236057964402 -2.877671662627432 2.460766951751712 -3.280972504368995 -4.259438702365322 -0.20494680647026803 -3.0587515419564077 -1.9061786593123609 4.847957140547865 2.1944414568835864 -1.4333957368570471 1.102824577413609 -4.24045736911209 -4.836204754769544 -4.019731691929442 -1.0333403763266666 6.185810030002438 1.8558816519890027 5.995215768682761 -2.143260943746981 3.072003977009722 2.3412023788720155 0.8944403253708322] [1.5505037427509982 3.4919727695660088 -1.154095365385312 2.560430091768825 0.9433222451456771 -2.8770046994897305 0.2678021068995061 0.42963618694509903 1.593228150537323 0.6794818647814556 -2.8856258617656296 1.5487950451189383 -1.694108268921698 -1.8699066346464446 -2.0598374306086678 -1.6696638405364506 3.074174770787742 0.281201377099783 1.225553876774616 2.996591175153681 0.6000952636659103 -3.7825598930839934 1.5729758470124577 1.0384488426507166 2.651814026845918] [-1.1706722661773867 -0.7779221937692735 1.4771323757076333 -0.5564056144382874 -5.46237668630243 1.3074569749574019 -6.758083205593227 2.932305552651915 -0.44273229957990673 -9.174150002858688 3.020826473870171 -0.5468371545986097 5.540061221914944 1.2308216955783464 -2.8330923505227346 -1.1251411484552993 4.252382893875433 -8.085772723527404 3.2455770195587066 4.839984119302658 5.281430312659149 0.05875890595441041 -0.8937738660542991 -4.462262776006423 4.022665949446277] [2.7658689347890038 1.6003137145589663 3.475343928170877 4.529503992956133 1.283439301446834 1.7203274826351818 -6.97608594385824 2.570501819458821 -0.24051778142526586 -1.126132495557544 3.367914267631874 2.0610410888696116 -0.7761681493574295 -5.467747525528568 5.8050357901236564 -0.6090792478465201 -1.206139829109496 2.521976609341062 0.8494172568355358 -2.223485279467342 -1.6131062609080846 -0.856137430279764 -2.228446214652335 0.14403230668960645 -3.52861647377518] [-3.7342374882049647 -1.0618525764903608 -1.4112400355460533 0.07044666666688976 0.10735302670144353 -2.7774793511323463 -2.2934978612766437 0.001453003860841795 -0.2889475373885971 1.130435553636174 -0.6945311248619495 3.7871340007706515 -1.065196223532474 -2.0141669991851288 1.5734797224042503 1.5256473491752591 -4.261949461404316 2.301565508999158 1.4958599021339625 -0.7146115189401154 2.529270345791039 -0.7798278276356843 -1.81927850512194 -0.5200300376891749 1.0624816037645053]] [[1.6250395692953088 -3.332694184508701 1.7160715493982526 0.11949336116871911 4.628403483685554 6.814128811705419 1.18174701324871 -1.7587295664915636 2.0578803029274924 1.2515160591818915 -4.457163482476369 3.743115452587317 -0.2520857117661092 0.8973767821064509 -2.5857380969408736 3.4755196523280367 -2.8194227496322135 3.429985318876218 3.2165785308968413 -0.21812873809763933 2.504900409473742 2.4256232452647972 0.5397342970497379 -5.055419234015838 4.688246585734771] [1.363188075906444 -2.5989040167855224 -1.9185977010660609 -2.03084543284879 -2.7668303559712335 6.131953186043301 -0.6716663689282338 0.1433193589042632 -5.419953658888123 -2.6003302643886905 0.06607250170156823 -0.34663752972492173 -0.9478099872734393 0.7906459702016564 0.7695089738284714 -5.977468703838067 -1.7788456721944077 -1.6502833178046055 -3.092159619742655 5.895348313850825 6.660024214554734 8.216466005571961 5.8546090222078275 -2.3724275160796227 -1.071784730641282] [-4.700853786398375 -0.4961301489798889 5.639516488086527 -1.0670409729787464 1.5215665854459646 -3.1970234162446043 2.515338106307461 -0.21780002927320813 0.4524707138367956 0.7349516617234209 -3.6953112388825864 2.9041386606324835 -0.6070930284700475 -5.026593699567019 2.8849702278483766 -1.2664160811292624 3.115911435053187 -3.3175269548644377 -4.80422375179325 -0.5095576073291403 -1.7445539090897255 0.07056419374480272 -1.0785310458818669 -0.5457609229480218 -0.6596817139358839] [4.11651360738082 0.39531078906153455 0.7886528396982675 -0.9111914098861658 -0.6476604278103011 0.03956891317069822 -0.1999849338347089 0.7902538778588604 -2.4509977941230674 -5.5330026323620265 1.9952592229830592 2.6639714887567445 -2.01887303217067 -0.9583539335108315 -4.007442823060423 -0.8476068190647363 1.5537042596510624 0.4767677252740762 -4.613255108545324 -0.3117900516691173 -2.32198007146792 -0.2087453872831609 -3.72256310364358 3.650809231642149 0.667787533168368] [-3.2989352171108877 -2.159797809342954 1.5897738360406155 2.47712543250687 -4.31624703593078 0.5231479112385105 -2.911559358721835 -1.73503599189999 -4.130191270233014 -1.029872899007338 -3.2608548747209367 0.6927500712179353 -0.8465364520653678 -2.0633870767703404 3.8770408662247915 -2.326352353713987 0.9859916126014636 2.2710402866363855 5.443382201861983 2.386870673154578 -1.3576184866578942 2.0945162575408967 -7.88037806698981 1.4383769903668389 0.12935705993737392] [-0.4074924485330735 -6.3157795176428095 -2.7787427197586227 -5.568466425877779 -3.2944064924479544 -0.12041241728280522 1.6897171766786219 2.6951637920382017 -0.2594257976915035 0.12596479667710142 -0.30749543990711065 -6.8747629776858235 -0.07350410261598922 4.326072263085412 -1.1408352468925194 5.018088401071385 -1.5081037126015129 3.8795916676838385 -0.6247270155710616 -2.1379612447749987 -0.7884017180444485 -1.9264160087187352 4.789731824155574 -3.7998289917897896 -1.6849384561785536] [-2.4717173694808054 2.1652676160762594 1.3304245928356253 -1.9055373925886987 -0.3130091421351861 -3.4131344072212277 1.7887073827356996 -0.07117062812125247 0.6855930302248939 3.086622218865254 -3.412634645439549 -3.4959039997642587 2.9218558307551175 -1.4042799356543039 -1.5326536627665492 -1.1828317091217984 -3.212418510510021 1.3364168773593612 3.5233383071323185 0.09878353627364339 4.2704250743632475 -0.4389402790613726 1.9116275913037575 -3.2598035199065194 -0.7973145623062949] [1.9912646818020847 -5.690624231753353 3.0709918598618144 -0.5684332370521183 0.6469353105855413 2.9461348357602715 2.9437363972414667 -3.5732639725647433 -0.9782851879008596 -0.7828575016839039 0.768666140228075 5.780989445644905 -0.058969780150236795 -0.15972800383345637 3.1321936534214747 1.613667220870815 -1.1689145759854311 0.9106861648555578 3.157183646177169 3.336898532651855 -2.1245250171381707 -1.2681047454148473 -4.865462076952916 -1.4601567713383976 2.7573388995457] [-1.7199134713614612 -2.894766167272893 0.27425132444212214 0.6457848704068933 5.018555187008857 -0.047909197034032125 -1.8123560167773758 -0.5334215657619847 -1.26518615656549 -1.7506115498751873 0.748344200953116 -2.284045425006445 6.42782958820427 0.10080929592325577 3.2554817169170707 3.6543915940429863 1.4148931341533768 -0.6376428921443937 -6.215714848014365 -2.434716148187294 2.2821835751707304 -2.582748378656904 4.31740108436223 3.2056752137980573 1.167249947354556] [-2.926085860990256 -1.5827818927292083 3.747464299871109 -2.8886678203121807 -2.4929869615372273 4.171636294255356 -1.5227627559176564 -1.535283597433869 -0.1458316599330866 -3.256896030899134 -1.5863719174465774 2.5541344551224636 0.48999557236098606 0.0434235790332444 -3.9916936837286974 1.094783290973969 -1.435037523929664 5.252620381804039 -1.4455490489117921 -0.470865521716941 1.4816847303645475 1.464329421851725 -0.37199973102159173 2.15546783588508 0.44081288861176837] [1.3776398806703802 7.145883642601511 -3.3011209516677877 0.8059517156495535 -1.9037910842184531 2.665871179428372 3.4397022720228474 -3.12699060652899 0.02362996977418469 -2.9034460340820183 3.5126904904928886 -3.2155176463881525 5.259587027636262 -5.995766922118501 3.472599026717541 -0.10628984961942595 -2.436019540840954 3.5965742702186363 3.44432122314895 -0.9013133708072871 0.3283993947298226 -1.556082315925716 -0.8093659790407257 -4.791676531201724 2.2850779755088246] [5.255125218167585 -0.11169110364983525 -6.258413847892769 -1.1671460642167093 5.484951162334474 -1.8226241014966988 -0.564842311503845 -0.3306863929014285 0.6492709933487177 1.8224265921548919 3.1117061047715295 3.699036249441636 -0.540878334694795 -6.364221841285896 -1.3328667229083297 -7.142532127469144 -1.640202518267217 0.6551760134061053 -1.6058337085737635 -0.5967787425658106 1.6028588371297627 0.5707721106803026 -7.554514122233977 -0.9067472472318618 3.641945250412763] [0.45937649047647444 3.1375177220854766 1.4706656593898448 -1.3473609806815174 -3.3559655468170004 -2.1266021700216355 0.12790608123911237 -1.4582394375248928 -0.9722774792485676 -4.741620977048802 -0.7614898963773165 0.46080209723617904 3.3585227615200033 1.6151502750760787 -2.4266124596717833 0.06260964884563103 -1.5117001469553328 -0.9525840696295822 -0.044111562760144885 -2.793974736484834 1.8629982557280704 3.5692495481956206 1.632953763696857 2.138434370534542 -4.651016847214546] [2.16020095576485 4.281249890727497 -0.7050965286974522 6.996293078516607 0.15213402945065646 -4.639732806809559 2.367612449542528 -2.7281371616321364 0.9830613217480078 1.2029428790363963 0.21466681570435717 -4.072295410616319 4.911700276516024 6.880617632387181 2.0814594304975316 0.7387386769105566 -1.1249452347301825 -0.7196351183792224 -3.7217051405217347 0.8191681709320755 -4.302219812428423 -0.11512572302982416 0.10300412900194189 4.187990979059392 -1.6430987666613608] [-2.819438535134019 3.7535917067574984 1.0736166748926668 1.3229714994033603 -1.0352613364352097 0.7512016635466032 2.8863096085697593 -0.8434451780275343 -0.04491909378482789 -0.6718323538454898 -0.461961655099908 -2.8866064563431624 -3.3887059358591127 3.0539085275157043 5.431105870191498 1.5093160103261596 1.8921792903361943 -0.04409290770868274 0.46221260951856813 1.2281175385504082 -1.62362745663244 3.1579979925432475 -4.77460547143772 0.9320551854557488 4.669614613282371] [2.938061096777588 -5.780257942991357 2.6158552800742085 1.6368358048966698 -3.731843059456841 1.7330140447264575 0.09690524888679244 3.8899176067704824 -0.06344832954015855 -0.2242376731348198 2.851726790778242 1.147606132323259 -0.6653955490864818 2.5053067704026373 4.141949205595939 -0.40805907083514464 -0.6984553808158256 -6.644160902065536 -3.406296549368783 0.5852529700224287 -0.6397154585285247 0.9218136915332533 -3.7180041159985158 5.590182186717013 0.6819550211438938] [-1.304077801252522 -6.027515618551294 -3.0910415905227784 1.4424586436210285 -0.4068908980346741 1.4400178624933537 -0.38880262443775576 0.031388041244044346 0.7414352265532183 -0.19535447097463654 -2.4766532562208905 3.7296087558300672 -9.886015276251323 1.0015520609169224 2.3559445767212925 -1.9764344805619722 -0.004849254236943379 0.5855275363994787 -0.9661577184521049 -2.8121441490116275 0.2521481946943962 2.1446901028225964 0.674657531109479 2.2085549091753163 -0.3439599090096334] [2.723873096450292 0.5305633700198849 6.883029952615769 1.6092672748664931 -2.912161775327228 1.4857924146375396 1.0067322232675548 1.0640483258888256 0.1380901769180379 2.2943806881397544 -0.3803577184546583 3.6451110601623977 -4.905338213795397 0.3017205061325041 -1.1306085946615663 0.9208840885502831 0.27812922817460933 -1.8509720657377953 0.7158384562310285 -3.210864417646574 -1.786133947384677 1.4526451961159714 -1.5510057958284649 -0.908044956765031 -2.2048792092162004] [1.4920159762206917 -2.4907973493411077 -4.865433621535041 0.6788340846130771 -5.089997160224854 -1.6748378150068213 -5.512623038703879 4.402016515583865 -1.9959532318319186 -0.9759858091283031 3.724185690662998 3.768741193016158 5.425598172182878 2.2059158216954957 -2.607934288862853 -0.6082737921331469 3.52563115746371 -3.137409258249043 -2.723508920886141 -6.426420736356835 2.181997812481249 6.983587733924068 -2.5422438052495235 0.32524001197417113 -0.09115395732830128] [1.8699218280474474 2.039270901208358 3.5492341237888865 1.2226366982830683 -2.293484258541017 3.9074918876746527 -3.0751426982458274 2.796325990203553 -6.326714801188941 4.383325548145036 -0.2958668534722884 3.214547040144113 3.995754932438151 -2.469379161239806 5.360542044752143 -4.640495440478233 -0.4093417389968646 -2.5110441910877497 -0.6936921927267172 -3.56355248718248 0.08806395807424061 4.520811662353938 -4.732025144436235 0.1415206299200992 -5.7506066327702685] [-3.6626925985018457 -0.12561747987793542 2.424340128828988 -1.2053823472562746 -1.4635213841611265 -4.745122677317128 3.2208175657619096 -1.5732746402524012 1.6364803319002232 2.4398978287911595 -3.1843955232179586 -0.9072905399804232 -1.9147175918726171 -4.145205581964823 -4.035941421840546 -2.3939548735631533 1.0053477392886407 2.162187188245367 4.871540183830232 3.404454749678312 2.8655154991825977 -2.28906287475757 2.4297580751389307 2.6939959161020126 2.835867301359345] [5.4569727703318796 2.9872856526392915 -3.1718340162356964 3.904963794109173 2.7606938029612564 0.3304028431928918 -0.8802381558912125 2.89172220238948 -5.365544707138056 2.237706604453906 -1.9738944469755908 -0.8594911101616898 1.4074242632947056 1.5983896285536063 0.6181182243020299 4.375112360135423 1.2963744220082334 -4.953790691077866 3.8831605062907046 -2.794523096285734 -3.474517475596048 2.8518739763586183 0.19992803021368594 3.817693241846469 3.5871174718171543] [-2.6760834954771324 0.34102910043340184 -2.9194870734921228 2.2118623891335387 1.6269158470138598 1.7477668490765708 0.5704859669175601 -1.614032069754985 8.087479409132163 -1.3697080669789095 2.4085985357791353 -0.9813593360597033 2.6937388594358365 1.5078548257460966 1.1800606838887657 3.885218453239361 -2.874962581767041 -7.214383247530021 4.630748184737824 3.003927263004368 6.375892799297871 1.5396095634737228 2.6637725711786535 4.161772478493215 -1.4393541634533258] [-0.7674078342611936 0.5345858045865743 2.4601462279804855 -2.851008781511334 5.983196495551487 1.2848355137222742 -6.743018236858289 -1.741445813943562 5.539315415984825 -0.858981587799148 -2.3600653437588797 4.129872639167562 5.166760786550665 1.2664735058342969 0.571099194868988 -0.04472927266259358 6.461673515546916 -1.5198297867770711 0.4244257224723146 -2.599456166214548 -3.3386261675384787 -2.123202406068186 0.6308822245110761 2.0152109099948237 2.07800570966432] [-0.4858820048205826 3.7284045526969085 0.7453392678798328 -3.071889202770115 -0.18209563542397722 4.08524550336707 3.518420256022589 0.44480500819855584 -0.7694100481465178 -0.1523304475693939 0.4944705987877784 -1.4493216347665763 1.0492630373983642 6.148127836619732 2.538879162949817 -0.7571585894588206 8.244690654520078 -0.5793941099406783 5.588327397207894 2.095451773853028 -4.485834231328399 2.5559273885791054 1.5809825585859576 -0.7443475577173546 -3.8836803901436117]] [[5.019247618476166 8.061094166527697 3.9135795304716265 1.0495026435858636 -3.9958234697648543 -0.435780957683268 3.4330039638509287 -0.07267750747880097 3.820176266672163 0.030521782522643787 -5.4172445957335045 -2.787961603310927 -2.6834361398394284 2.897764881270125 1.580575524138626 -1.2781250988795665 -2.1876861934258116 1.738257920868338 1.7440735118173054 -3.4521969887566035 0.9523807016507086 0.3415077799093111 3.9987849458619236 -6.010255913004755 4.76482429981538] [2.4222256671129627 -0.2547704673833147 -0.44274655826268644 4.230993732637452 -0.5125931279200873 -1.6381003595281152 4.165248453488344 0.7654747115085723 0.7998236879849245 -2.3266949020388177 -1.8338727192558735 5.302929294579187 0.9128249300500657 5.808031729120676 -3.0677085078532085 -2.6951572995214734 2.279854322779653 5.263722622919771 1.6274964133387495 -3.4837987483939985 0.4475967399639752 -2.8700372380431163 -1.489018713424071 1.912862497950028 0.06887376357471245] [0.33040753723924066 -0.5886149278914581 1.970868167085803 0.06751775883537972 -4.356422245182063 0.13931154450293087 -0.7274956355563742 -3.8626238076768784 0.20949709188729998 4.00084588400886 -0.8832603675631912 -4.491127935273675 0.6944572416714925 2.015917142654004 1.0644740178056973 -5.626112512919808 5.965529720122207 2.4647075235663505 9.733391060932176 -2.5464158918620603 -1.9176954438726548 2.9885537530087976 -1.8341320620803039 5.617580811726083 5.481678115130327] [0.7632283120305005 -1.3674094469505855 4.420203225375522 2.3955098890083217 1.1451697375724392 1.9786898544938152 -2.8390884859948518 0.9815999614618542 1.560836698312878 -1.2596225922222193 2.673152567764179 -0.60951929701872 0.4904478791305177 4.854333024392836 -0.38377825210987376 3.9127485047624413 0.41141685548235185 3.4807842725012357 -0.2756532669707223 -0.45219862522152415 3.5301626802260917 2.1817512431441757 7.500239639936995 1.2513580680319156 2.324529553453415] [5.243622807601187 -3.1953133788854298 -2.6546007394950597 6.353587141249233 4.483093467640649 -3.0669555993604756 2.4457257902759575 -3.1184559974280464 -1.417404630887366 0.6766414355658734 -0.7192842649373261 5.76355870269876 -1.156684796055674 -3.419248442004677 -2.7253435724538484 -4.558385193045012 2.1540606888728626 5.0536990822462835 1.8075581121171729 -6.622251072797205 -2.311948316297899 -0.7019189765973988 3.449747437211518 -5.545394061308397 -1.7574018535673113] [3.2855082397705297 -3.991347620478673 4.705206859272781 1.0682441533088625 -0.7093992647802496 4.353384767579865 -2.742115863636186 -3.761743131320074 3.397891902235442 5.954106235576642 -0.9728926750205689 3.8327840080339075 -2.3895680038074376 3.361378242091943 2.2989793370514433 -0.7622969079569035 -4.58121849278491 1.1341826207498997 -7.203911338346739 2.3044141576990818 5.03437787687401 -0.2525520513439316 1.7094149859800678 -1.1921476660937307 0.6582264866384244] [-0.3902891387901412 1.9451759655353582 -0.1618362852350021 -1.6178002234597368 -7.664750970610694 1.9168056143399321 -0.8335964831541773 -2.622840323197805 -3.977748658094213 2.5638444787368004 4.867947868507827 -1.9736056896070968 3.88443730661478 -0.30156793675150734 3.8172163668080876 -2.5269929527171637 -2.8362996741968964 6.206896948987607 -3.7285379676997987 2.872032484920532 4.0577742509096755 1.880868438231276 2.3717892442746584 -5.18511942561866 -2.5724354419567943] [2.441148765564777 -2.717594859241737 0.12149849312686228 -0.1269225212963187 0.8369856052245765 0.5478858348639826 0.7585038669942193 -0.3348368612507387 0.6752719856420482 -1.4266445786827395 -0.8721836616082592 1.9872185444523058 1.1914185557212327 6.325163550999332 -3.785331478353771 -3.0706603481287846 -6.638996888111119 2.9362694806661254 7.2705033121877545 0.3166942127697041 -0.8323371145176297 3.4919344856922794 0.48057917935928207 -1.5029501567585686 1.7781083476538964] [6.487974598741122 -0.5725927443338659 -0.3709721532866505 1.0204340069238127 3.507611231427234 3.4935002916560505 2.357611197434665 -1.9749721964826645 -3.3090294818102866 -0.32405859637736895 1.1734895522319204 -0.1109886609996743 1.1056729434290216 -0.4812655668123636 -2.7316342243670984 2.2512856577205733 -1.169132399095931 -2.6413758066052035 -1.5755198855014971 3.495420251711355 -0.8851883618374767 1.61274054542414 -2.6276247474374848 4.580902037231458 -0.9739196610695582] [-0.2439289303486875 1.1733238245027413 -2.4374022038610517 -0.9126245044450783 0.9870193897077402 -2.735029019797135 1.7012551394756683 2.53915902842055 -5.054117151010197 0.6449388155813333 2.059295511420027 0.7322425318205963 1.43092435246225 5.262283294495949 1.9323288274635524 -3.709866547749562 -3.1381005051716335 -5.4029773908159004 6.247421097884246 -0.6461911121112585 1.7206632070394206 -0.016065714941405684 1.3770612360274055 -2.414787432841351 -4.970432796532546] [2.11661030009256 0.8847099858643317 0.5356481671712612 -3.940022464751567 -3.0933198542446916 0.8741380702658395 -2.969383613858796 8.102598607219038 0.5509718571937783 -0.04313540123686532 -4.3608033726136055 8.784253328823779 -2.665052039950772 -3.378691511097539 -1.9031412962017322 2.491892146024369 2.4816609895760484 -0.1898489228189006 0.427257819254633 0.05791901652220491 1.2173113206461375 -3.2897198376912313 2.0468055646896195 -5.639115688584959 -2.482315736439789] [0.1761534578023928 -1.444889873736456 -5.683438734992172 -1.1650763539586604 -3.3474694085875414 0.1680814022760387 -0.037881435328291746 -2.4849542128638 -6.232596008395802 -0.7651097599229957 2.1633736640212113 -1.2136917219354253 4.011605477006639 -0.3334686628538341 4.371128603012459 0.5511419831662951 0.7356854482093913 4.8648783089581835 -1.3244471693764146 0.6269000210196107 -2.296370358687945 -3.6949820503678863 0.9256042620039384 -2.8346498288339124 1.3802377130105652] [0.8013327820639633 -1.0498875315243008 1.430793316417703 -5.144269173415669 1.808031730699889 0.6213544759230201 1.7259391495542162 2.9598144898010115 -3.6907413796145665 6.136425025189565 2.1937981839550527 1.55455186928878 -3.0848967046131106 2.6016169344093085 0.886118624054822 0.9448661571947647 -2.5459469056756716 -0.34082897587189015 0.9958832880794539 -0.6665349241466867 -1.8560263574917846 -1.4658798244249145 0.8752458638463507 0.9609849208464287 -1.4357855646563766] [-6.027445837753126 2.4074646094410834 -2.0583135320841 3.04193659573579 3.663673091328632 1.3154992868006647 -2.2283177926247544 5.255199792547839 -0.39066089946235444 4.646252089271746 -4.37348419295497 -2.0921452647914314 0.5034920474829723 3.95582555494019 1.3931237052723817 4.851726471369128 -2.2786920382658566 -2.8680558696280127 -6.089746206365149 -4.213238046674302 0.08704102147410844 -0.9839889665762316 -0.19836778971271518 5.5547996477903006 1.252575774483053] [0.29566174925542094 1.1634483943881109 0.20850168127598673 2.639317823666746 -3.508823865932278 -5.017134067520434 1.296411662706275 -0.5054020500607168 2.1844849920531106 4.173247605286784 5.463225864151489 0.12680433504600197 -0.8639898492761491 3.8976422526360204 0.7436098397645099 -0.2043352004911349 -1.8610092504890092 -0.6137221221804061 -0.573426312365044 2.423705622727906 -1.1729893554033228 3.239419157890219 1.4553001654628712 1.9533745164186658 1.8693387822485843] [-1.5690924560929207 -4.562365500964985 0.12886027639725778 0.039199727154527964 -0.673152301108513 -5.014311098785781 -2.4629496522678744 1.9669051921465197 -2.0133171456876724 -6.12599655928632 4.111135664812462 4.19738081550037 1.109556843437441 -0.9839782319221035 2.3529851919899953 1.1633385666193239 3.598923390547999 -3.3774542376552423 1.70295873458132 -0.2874769186254657 0.9218320285713706 -4.47428537189915 0.05639202821580494 3.303006325037172 -6.145696595896144E-4] [-2.0435931421351756 0.8230993614355817 2.0120002274392665 1.2607390532334555 0.9080039585238298 -0.914005356695935 -0.946012611533311 -2.423378666664353 1.1756936906200801 0.7020166303019539 6.460893210856661 -5.675127084296888 2.5576753296833745 4.691046633521753 3.4262929824172486 0.010741304835133914 -6.1068292180807475 -2.1153530282660187 0.9708033094735666 1.4962288704340712 -2.9028067483783824 -4.720013186090512 -1.850636623292496 -4.726279123828514 -0.9469010178452177] [-2.863111193313577 -4.323610740008437 -4.843136740702428 3.545061818143515 -4.825138805889347 -0.7413014943766569 -5.082443776300853 0.6644023279200957 -1.122641515895357 0.832239583745682 1.686422387096832 6.233278461684004 0.4330276809081072 -2.2486176836716565 -1.574669779614064 1.5914383469809223 2.878917445019214 -0.04430930100913694 -4.2756563339153475 0.6706655484335008 -5.957613860007742 -0.569268461194878 1.9704745168402602 -2.2842823274094273 -0.08097261846944598] [0.49824962306954534 -3.0179418005333476 0.8684296915740151 1.1925194302597077 3.8247294675466272 -0.9810858478996713 0.4797298552650554 -3.2590804983259005 -0.6902391586518435 5.821990470838368 -2.630618853750337 -2.951863245383368 -1.1310928173411436 -1.4984131111630323 7.537492572612989 7.214412835487949 0.03285836334451156 2.0111175465346824 0.2574483993537934 -1.6812422832009568 -3.4254625181728042 -2.0990305873967814 0.12461676355945042 0.20206425036743883 0.3332195460589201] [6.156205491213219 -2.323965346675758 -0.02176797137845754 -1.191353656538569 -0.4966673346481553 -1.0590203303480366 -5.7132401985909365 0.40491790408697304 -0.6657798111045858 -0.9127730797642613 -4.565267165316025 -1.3618173932622981 4.811880997350287 2.5583609483763095 -0.5048918864244438 -0.9462758038314125 4.046365169427788 -2.6748907188234714 -0.21153603490934575 1.2111822186257937 -5.567385237052062 -0.9525170909590721 -2.427961529495317 -2.0237799961559286 2.345662830531253] [1.0376758805975403 1.9921662437112289 -5.856611589115801 -3.604756046133015 -3.0000104443726436 -2.7278441234590325 2.7514484841674616 5.759526211667397 -1.5482795829151548 3.805895317792487 -0.7566740901862119 -5.7477820007147 -0.06371881673553725 -0.18957872081850902 -0.054355513948246725 4.700026030980722 2.3918129498026044 -1.766737480344816 2.0019744970665765 4.575421884383986 2.110839737917809 -3.1113796672578427 1.1633562280330347 -4.545470108445167 -2.591272107022938] [-0.8262355572305842 -6.034094833217733 2.4927033808818706 1.9834055756163727 -3.3682688760620336 3.2678307208704287 -0.591092285926412 2.3511148502624324 1.737698696845916 0.3562195482782363 -1.9008685690038924 -2.8543829716629103 2.0615998595911016 -0.9130696188588427 -2.1286932412489556 2.5990168640632896 -1.5544634655442828 -6.9394503076863705 5.53271709413462 -6.244204291830893 4.887637157519245 -1.3227800103582326 0.1036393469659046 1.259272666849646 5.973345338388646] [-1.0886702564432587 1.8323974626474082 2.013733455781961 2.62258734499962 1.4493270957936655 -0.3746772545848061 -3.635828809976777 1.3370523676412773 -0.17449040854769404 -0.9001893686954987 -7.29558671903759 -9.33102227820434 0.8531499856792528 -3.9471763423783077 0.290485521259944 7.210587882726444 -0.3731167243817369 3.418101019016794 0.40977103885467747 2.8925099816076227 -3.2853723467435945 -2.3784484666044894 -2.8619687266239215 3.5688879023698594 -1.753561069088835] [-3.126355436782826 -2.7234927638094075 -1.1561535020946068 5.2924678116598205 -3.9891580675965725 -0.7591421055780256 5.938379523320443 -0.11025901300476493 2.002541901672675 -0.7971544890924407 0.62295651822928 0.2130185359487115 -1.7546124310635185 -0.31536437768196607 -0.24859688974834088 -0.026580640175898895 1.4648056079877891 -0.7760313900415052 0.040059534625204646 -4.995492957828792 2.2421451554662966 2.4222139346492 4.418030478632135 -2.153958836854066 1.138163604577081] [1.729695674155803 1.6336771219423858 -3.1285086914911235 -1.037341139674473 -2.85521269622224 -0.4367527156689313 0.3358245012517177 -5.238633512427915 -1.336704161839151 1.531730374419006 2.070178387181352 1.729880437936959 1.7245990149282762 4.854370931857158 1.1377066779352178 -2.098999870462043 1.2235927856861264 -3.1289564460744836 -1.844355274752124 3.5184192091339117 3.2491979480658526 2.4209804723770847 -3.3616847156265237 0.3410028188860394 1.351563952508849]] [[7.6514298775882885 -1.9930862231046578 3.626285655856313 -1.6665821959305085 -2.672962653821338 2.5964241403496877 -1.7910901802493528 -0.35184956735487355 0.38833462149814113 8.874702304196152 6.866537644656748 0.48139277165607697 4.113624990862283 0.2960707436000139 -4.918325191159956 6.248046371703099 -6.475317598543477 -2.8233265609927893 -1.1359123882993645 -2.450773392946661 2.740503696379385 2.0511420164757137 6.4116689861282605 1.0745582480911011 0.7519108122387737] [1.8516402790732587 -1.680499705733746 -1.4940582383983008 -0.6682120602301307 0.9833193780176466 7.465940307199207 -2.9109280445354746 0.8722108459669193 1.357226896926427 3.1604602735196816 3.663722674112446 2.780198467700426 0.2980831654344769 -1.5003399883802728 -1.613755045658079 5.111477005807771 -2.3299755646035707 3.820265131084761 1.2069510748633083 6.129290660713098 0.27858845504510354 -4.218265679748646 4.978034406140491 -6.2241194034831695 2.3078534565946147] [-1.4628537534758197 4.372539404600592 0.021019595794371126 5.320482860725657 -5.348372889334725 -7.14854088595168 -1.4648000622454915 -4.961883440027872 -3.0497674340040506 0.03208189195749145 0.8400332830343988 3.83376142121505 -1.9103832233016464 0.875352093637418 -5.121513661418411 1.2847306218076129 0.25669926698575346 0.18747702871743444 -2.3504304368186624 5.366879976638157 -3.988466214909323 -1.287105765577803 1.0408448872425682 3.3794517934976738 0.14405854987177785] [3.6012843090036206 -3.1749102572043664 -0.3362594416306713 0.44640702320799497 6.797454590812808 3.4365033040595816 0.2688601861518315 1.179271457168351 -0.3786982691212896 -0.29125174488272515 1.284475323266486 1.5928504464708937 -3.0177395833205987 2.7424292957459526 3.8204032493695634 2.6724316744206447 0.07088936785311709 -1.66418441735746 0.8432387219290132 2.7680863692853714 -1.4024882792517834 2.4533782838127247 -0.1903503940502565 3.964126011980919 0.5775569521145485] [4.856882542888214 4.555080582408837 1.7614740423325483 -4.430530456858506 -1.182791286913397 5.790709241078854 0.7673153353574421 -1.696788632452281 1.5260278072075848 0.00878392365081615 -1.280008812220875 -6.411899382741838 1.9720046325036604 -0.7090195246050204 0.36683654975796787 1.4462863630462333 -0.5794346794924243 -3.4063167950662594 1.532849997514068 0.8543956684661878 -1.7038779217807183 -0.8973960423168468 -3.2870728989644973 0.5920234845061398 -0.8274194349425672] [-0.6862465333040719 0.9843104666280875 2.7124972481340097 -1.0844681355184649 7.406305927812745 -2.435350575526121 -1.0774957521854063 2.235930284401281 -1.280144445047134 2.9165857624834004 -5.053926435614877 -3.0762292713030037 -1.153804416720706 -0.45214670453574707 -3.428354969327032 0.44253015050602773 1.1254144193580917 2.270733394000877 -0.42783970015099565 1.9582492487096772 -4.104859196173591 5.3079123838116855 0.3552756411643431 2.891872949356579 1.077725318316465] [2.7277722136408484 0.6215556762937134 0.005131325185919078 1.7143692385404807 1.9326604565934422 1.6646674814547238 -3.4164746995408173 0.9195397210906779 0.7231930984669478 -3.094294317618 0.61021979909218 -0.3638739415682853 6.656591007242009 1.571594631539165 -2.0393150589476825 -0.43550134520668643 -1.7156529457573564 2.273693592918907 -2.9867397657307815 4.082206705567494 1.568297419870338 3.191607367591175 2.5772747497084842 -0.6043930867520901 -1.6068438580458655] [-0.7038182237904766 4.764081672606957 -1.3876934626558406 -0.6847787683090389 -0.5880720340265149 -3.077511664364689 4.877966141042314 -2.911690725259994 1.6171540899257029 -3.9039776361140763 -1.5719795682489348 -2.8626874864199654 0.27517147756382887 -1.4870332162055917 -1.2638155733250331 0.33505227578404106 -2.8331894201975345 0.3757733913649024 2.7565889988514756 1.5249263302531932 2.640975063906094 -2.067334226801307 3.7872794177116855 -4.583631685446576 5.159571657620563] [-5.177363853836987 1.835954714295862 -1.4136084772386295 -5.502097220773452 -2.0200051689043774 -0.6184972171895957 -1.9321886491387974 2.3311155731577333 -0.1491074161853777 -3.7036695410629736 -5.407462951057788 -1.850816919608124 -0.08434254589356038 1.5863793121907335 -3.4967124789208857 -4.305602528518757 -2.9707908592593033 0.980673121198532 5.211243044787919 3.453574337846448 3.3647098453321638 1.6096954298332797 -4.473281906641222 -1.4742564988823752 4.369989580018507] [-0.6360389100217394 2.2843349145458083 -1.2183325120926427 -3.59130986835559 -0.24836773496646664 0.8226593918630756 3.9782169187490317 4.528423328309769 1.5643793153901253 1.1486808698748823 -2.668907274866609 0.250218261888951 -0.33469485286807416 0.45992796310232864 3.820742390675084 2.9366159688767164 1.0054752668617544 4.0917600240610765 0.7193431950114106 1.8381136849568045 -3.4878880786260544 0.3021984137938083 5.942657756256219 2.055630637042088 -4.126645978770861] [0.6056091361492855 -2.294290520822119 -0.42816152775980526 -0.7612389522504053 6.171342175233676 -1.504808856829801 7.39253325576076 1.2299309586292202 9.340223178286987 0.20368736860521644 -1.7358056785810092 -0.04207970034404129 -4.073031288921713 -0.14526033114242892 -0.449360247947794 -2.577073430286522 -3.1107833447985107 1.0143008731652536 1.5796489382527255 1.6360764194324176 2.7588438233373567 0.49290555901614774 -2.7847652443986473 3.5045858579769265 2.778842120105581] [-5.5936079382804405 -1.7560318634539187 3.3709909659394293 -4.170862550702846 3.2189848733053057 -2.307991752114267 3.3603527763166015 1.3268441754536537 1.2290666768468175 4.568554876726974 0.3720774676875938 -1.7833071292434934 0.1910212444465863 -2.5514230535004523 2.0809018551405942 2.632894801853381 1.9043153109370135 -2.5340643789891835 -2.243852157962876 -0.6990514538890742 1.7594401888714986 -1.1591191254444482 -1.4099241063934325 -7.071542763807266 -2.4430042665195155] [0.15618595881913666 8.186282278060927 6.294400515779292 -0.03906776886209129 2.8725835701065523 -1.630527136667308 0.4781783169884558 -1.5092473270517608 -1.4156252180277595 6.762905329213579 -0.6738853060781935 2.586233802406402 -0.7483211249914654 7.282970819393876 -1.4738194317304996 -2.378327358382704 1.8206444096801764 1.5724502162075855 -7.5651448803616335 -1.0008553785099734 3.1017017964924367 2.4786999804991634 -6.196811871237658 -3.0373997068759726 -0.21152935542400414] [4.637643362949078 -3.67980641781255 0.5759085181522231 -0.9460144058995361 3.8853423172291617 2.8086552525908526 -3.6887077901866334 -4.555079930536114 5.205391391651196 2.9473798488786964 1.2114352246097875 1.809135161638233 2.0338529716461133 3.3324490241490587 1.8038448562511613 -2.4675271985342198 1.1989439720093806 2.161258628948194 -2.8438890955605585 -3.0328075589349295 2.9777959176572573 7.157348915382579 1.0173464892450987 1.5271994267102462 1.5014220833924148] [-1.0132694213984028 0.9207192730651712 0.0817143631976022 -1.2747047462873982 -2.541098167438596 -3.054795595955014 -3.3516266862917603 2.565726193950373 5.059865495501874 4.013352001971371 1.962733454648795 4.621254353617164 -4.034976419902379 4.229878476336339 1.7500271493435677 5.027462894525615 -2.5911526594621193 0.385616007074894 -0.7289763081597131 2.683181149776545 -4.462495708698123 1.7857134377749015 -1.6290055823989251 2.9693890505924676 0.7761640853017349] [-1.0081022801066497 4.230263702877797 3.5173095602146214 -3.063760863310068 2.5066007166715214 0.6521808773450588 5.506303175899216 -1.0409202039317667 2.91826383095992 0.7399238976480316 -1.1965387769048466 3.8608216992520883 0.5049030677559011 -0.17506802962184798 -4.009776385251369 -2.4575074815746625 0.5875427147022203 5.111173595201648 -1.3741013300075309 -5.662135237405055 0.1396766124392039 3.7320615347295516 2.629400980791338 4.288411718921385 6.567325355046781] [0.7419457044343989 3.499423040878138 1.9405309039340477 -0.9017403156062036 0.448240719494694 0.05698917803432152 -2.7979000283963056 -1.9926597909690495 -0.3288257017809045 -2.1343817230854425 3.525346665506069 0.8342495649694261 -2.1144553374409853 -0.5091213878672811 0.07363905819014696 7.492675754374702 1.8250898797798762 -3.430129206687873 -1.175876489538636 1.5125259279129102 0.6033100107019362 -5.439906255731244 4.291205825819856 8.298929400667825 3.788557448504025] [6.311966522256677 -1.7918449954980868 -1.410950581158773 2.1375111742715567 0.6837267463530123 -1.0702849291626002 1.0639249608182177 -4.445839509628137 0.3066604553076213 3.005600351839354 -4.953208202456584 -5.807436701087777 -2.8714945048110216 3.0577504012598107 -2.660727103778111 -0.46723340413682884 3.3659040537085434 -6.342579160668067 -4.376881880731639 0.13191353227417096 1.812336410584722 -2.5748784731062013 5.629380094653913 -3.7534751867130476 0.12391298944837628] [-1.4539612373462925 2.241735438490799 -0.5804420627921032 -2.0389265313660134 -0.8119927294330167 5.791099221135251 -2.779542420373606 4.486340653265937 1.3323562911280977 3.0011628021093015 1.278222031190053 4.9185850547778465 6.315496389831639 2.7894458008573815 -0.45781169072586586 -2.4610341522223784 3.428297079848155 -0.6960607953362039 0.21683643243466255 3.5965313734126774 4.504274215424866 -1.3174839445962292 -4.348316247257449 -5.596639047848148 2.2133240951177813] [-1.9610824581191602 0.3277398269037125 0.6942700770584248 1.0958898921079137 -2.6310732546806097 2.429687104630977 0.9216198715344901 -0.6441790518787398 -4.33777440608365 0.9885868973047429 5.776601189177667 -2.1121649371769173 -2.249949524430383 0.2515014056154593 -1.273598406536119 -1.0985074912521977 -7.853338578113762 4.457746168259993 -0.7988258502675112 3.736014754405474 -4.568410023569148 0.8922366338307666 -2.611332297662821 0.4110832153797188 0.36955632510009095] [-2.4104001278300253 1.113921379536853 1.8402380609909195 2.6128465274418717 -2.6640313061919616 4.3127917135687035 -1.3366490003006442 0.9723237066458632 3.1006907505303274 5.586496323601527 0.6369719804644717 -3.0520766560344517 -0.8905373283364557 7.77570116328622 -2.240786428280354 0.5750895941869312 9.336829710199291 -3.1802871251097855 0.8489988894856508 -1.221604637761311 -0.7187489906728666 -1.1790943361908504 4.827310614337898 0.8448096463239967 -3.4115327505673947] [2.7514285650670844 2.834855903878852 1.4770979195879261 0.6832663782783026 -1.4817815450099578 -1.1381579246964593 1.893950493901488 -1.7336992781777307 1.5302016732622943 2.9673549936999444 1.7820879930463407 1.0655865861934508 5.577851524153925 -2.141646686816576 -2.2599650220048892 0.3701909429604746 -0.31606795243450453 1.6198551181327665 5.6668537719996666 0.6104373146240476 2.3561639551959512 3.475717830931809 0.9489124740929937 3.701577679640636 -1.0670449975957637] [-1.3805958563208156 0.4110430492117818 8.165859700405234 0.682244129965629 -1.1715412704995474 -0.38334776140790444 3.2679563411183747 -4.50385577093674 1.1746073602987834 -0.8081202728023222 3.5618129090123434 5.395393081470229 -8.472465646797906 -1.2960200139845206 3.168250932241035 0.9971065667726904 -0.30651126183131644 5.153862342302827 -3.5337134814908255 1.374320996179992 -0.832151820652457 0.08834816145217558 -1.578684804346478 -1.0954156168200935 1.4751938934927618] [0.36941076188144517 -2.583771711170779 3.706527100461777 -0.5485311112725351 0.06523575484501831 -4.251944317679519 1.8767404782722743 -3.667399114595692 -0.8609553871367801 0.3384152014186108 2.766195803364862 0.11543840770758335 -1.2353020398872876 4.219428171349114 -0.5586483042949331 -5.897706363089467 -0.3555057048219821 -0.29016256755678166 1.00959441483067 -1.347502831494675 5.27343760404172 1.095194478453582 3.6879117748681765 2.031839146058942 -0.14202182180162942] [-1.6376338688961312 -4.7013233192778525 -3.2518593868556596 -0.19445481395198205 2.873448756121801 -6.239544287326026 -0.35089798163789315 -0.28493611909105726 0.40159686313486354 2.7146490891143173 -2.5210506828756825 0.04335491594762669 