{:log-weight 0.0, :result {:num_cluster 1, :pi (1.0), :mu_vec ((-0.22772354087749735 -0.8247185027847502 1.4019181471738296 0.6637933822449458 -1.8837007811497952 -0.186275925251576 -1.4638316287748454 -1.944950194436505 1.4571267710342848 1.7530134946400762 2.382958490768303 1.04511312756429 0.6912746537800871 0.5630690622575819 0.4086181975848834 2.2614119140011044 1.6058179112350133 0.9546278349860395 1.8875501503755818 0.1343990155312217 1.2233117032384946 0.7878926614089212 2.7220862102468226 -0.097848531108372 -0.3072984724952482)), :factor_vec (((0.33634135740293003 -2.6837731399819473 -3.6752527505416053 6.345836650199457 3.031575502229392 -2.037537549707214 -1.5700379795869825 -5.116879717056822 -3.9399301261180546 1.575562016376701 -0.15781982599892042 -5.0474357546849475 -10.067195919358056 -4.297152348342774 0.5253402529385048 9.0317124203672 4.018960116268369 4.030194688544492 4.746082363510388 -6.115459084911955 3.4594678541767485 -0.8151523265137655 7.558285703831629 1.8218954577488535 1.730383830450029) (-17.769943415912724 0.8863678357279864 -3.2669333196428476 -13.325673926474064 -6.226146896427132 -2.750964585112066 4.19132053435605 -9.120685987860979 4.526875897869477 -2.074654861055652 5.341522677630386 -8.744170644552467 3.208488482736809 4.338635559809004 3.311926276206054 8.424223277202733 -2.8372855353353885 1.632411211939325 6.127984827178523 -6.645286709730469 -1.5117004131994611 -10.04145242090126 -10.832231582488328 -10.927351398166723 -6.014230273679973) (-1.330388491220415 8.609789982493627 5.082425980395236 -8.569931791130802 -6.9626721976030455 5.179398808106658 -4.500814810378098 -8.379735324460668 -0.8295388342271858 0.9036725313947108 -0.4902374613012958 -6.336934549882878 5.758372001447008 4.895798496144878 -0.005564553454497134 1.2070000391334341 2.4876938259936345 0.2248231242483868 2.818695878140505 5.308739060741123 8.473484048217237 0.29183075788833046 1.5494855690819729 -3.25390778909477 3.493093506168273) (-1.1579581218735906 3.8178526585573853 1.5374471688393125 -3.922354636976646 -11.731940916557708 -5.151606338696695 4.7724217823603015 2.087561540494814 2.0834898146166867 -8.49618710771689 -7.028473997800409 4.613560813920084 -0.7200191557861417 9.595040227945923 4.627112482273327 -9.317672926871387 -4.070342509417306 13.273324687209014 1.0257557164958797 9.057052512529511 -6.009492396143059 -4.733008787714338 -1.4007633334104526 -6.234270799654803 1.8260110317475688) (-0.27775361163594214 -1.0768928170424026 4.590214312116002 -4.4856597349100875 1.7201192551830466 -2.7865761836447343 2.871133851677452 -0.709462987878251 1.574042072164382 -1.9722083069119676 -10.264379424064899 -2.0436097675228484 13.464307966774406 -4.745114142889611 7.288819060088006 4.471013336528814 1.340963140753435 12.131899921167152 -5.314185786772067 8.229573499249428 -7.350571002662927 -2.028252137477047 -8.386847021386052 -2.5480761152605695 3.7620189515243285) (-1.5268031305359488 -7.885877908558468 -0.959894908196336 -4.339797761454985 6.442957805213374 -2.9235644524223834 -5.595044951152418 -0.9995500767805652 2.824934580046381 -4.81570362094056 -8.58962239411637 -1.4450821992107108 -0.258871959376875 0.26368189145829257 10.195430978903767 -15.699204666001368 -0.7853978911602544 0.48041792701689345 13.672013106609121 5.280526429964967 5.952259534801187 3.6000211735041483 -0.8756122052341999 -5.340636630909402 -3.581880416810552) (-1.3430678673588583 -1.6642880823619435 -0.6522238162858913 -0.7645458895062249 -6.160232853856815 0.38400037807916376 2.844964370595594 -2.230409382586678 -5.843245030718078 -3.1876758616239647 15.102604145803912 -1.2630255915597721 -3.2493483488937196 0.6088479628847715 -0.05620306303018763 -1.1618766852249625 -11.357726861603107 -0.8957338696540553 -6.658229856837014 6.206979125349463 -3.2594527516593805 -6.558682280000745 4.97629027909978 1.842692884360301 -7.1056011914619726) (0.0380236735270707 11.548043306329179 7.194428619451172 -2.119323912958428 1.6380823387445709 -3.8770059827537535 -6.167208589254969 -5.805392702942849 7.067159881468801 0.6733888651206624 -11.7498038925911 5.325048536017459 -1.3797326529113287 -3.338401834509205 1.946988369039079 -14.319383404607132 4.869419113785612 -5.386222289781938 11.452814769546038 0.05801077656855902 -1.677510547687512 5.112510519351418 5.074321294796047 -7.126048966290471 -7.761442499623445) (-5.761863690287301 0.06176744613124008 -0.35344689611483265 -13.372011519779226 -7.049061301749045 -4.404076010800027 10.717437802639404 7.107922527741197 -12.015314409631449 5.559033454911418 3.4574744408462696 -4.953742452001541 -3.220472323698918 12.460726470089908 2.183901202916714 -0.08033179397013845 -2.8221323530600224 -6.507425576522181 -1.733688313385389 -3.606035957336517 0.28456156243306885 -2.967238747122521 -4.135807273722222 -2.563937740871527 -5.4359261241928625) (0.3269880561935439 3.223396115125453 -12.155459526783169 -1.214850336408307 -0.7426356390920076 -16.09332257656611 -2.236798124850652 0.1438613908256705 -0.5951909648436855 -8.117727863783035 7.310019501856348 0.8801480750058835 -1.4249915659807317 3.3451890045077257 -4.984631505501327 3.5774774122241184 -8.686973336869643 5.476853062257512 -7.557111764991321 -4.067074242994379 -1.79796249928599 -2.37183775276844 -2.6063478297918876 -1.31798585854267 6.937906612432101) (-3.7183756992075736 -6.806182787188359 5.3694719406654015 -13.623575653264266 -12.677233659391792 -4.178928266373548 0.7345269278022054 2.652980752562945 -2.879004336406656 -3.8129761888917453 5.392616510651887 -4.0573389072182655 7.4138748852713565 5.026531059217426 -8.563623847781813 -10.392786587964933 11.973200030030592 -3.4207776813150392 9.564520500106017 -2.0177105548721395 1.021624059739627 4.056999636870903 3.9292554447029295 1.9033503943219685 -6.224900755390641) (12.952255746108477 1.2685775774526658 4.5064245512824455 -3.2356449026617495 1.352367137580444 8.282098716308779 -6.007063578322967 -0.34627785395863353 0.9605326132296067 -1.8132233637997794 -8.156400336178926 5.9803558424795815 9.117042526702333 1.116249576938579 1.5819412771671724 5.483737441236809 -2.0748092419395836 1.1191813488494846 -6.700332920912254 0.6066686031241971 -1.977436585333419 -3.8254392704531357 7.578898517954084 -1.6380132312750972 2.91901992606578) (7.640678055141899 -4.67740242215305 0.4918577091066435 2.1319870563794163 7.560190330503593 3.236874269376537 -4.723353883294879 -6.661407534652426 -5.155203940557231 -10.75549504931067 -1.192159002610734 -4.807551560424856 -3.047613330649546 -9.402538819130394 6.461550649039573 4.949947119689431 0.6339929859091239 0.4964930076055719 5.129294998535148 10.122546172722798 12.624557502131994 -4.967354218135052 -6.319545936589018 -3.089041385066931 -5.833711013486644) (-3.1281924003078414 -4.140115490497036 -7.379503975334737 -7.2272466649902585 -4.57912434917126 1.776685451165053 5.636975095775196 -1.0642699560996622 -6.325497216085432 3.0862194192908183 4.351803574417017 -5.461422367467812 1.4239592595331731 -0.4632973896635234 -3.964249902444483 -3.031637003560925 -13.063315537029752 1.2729058873993901 1.7356913929402373 14.074069066557817 3.7708585058659367 9.7780195257145 -3.904523501228286 -7.389400655409862 12.168490478157448) (7.467870625782359 -1.0534518204075152 4.507197370699314 9.120846809020328 1.4885813775218248 3.001968818615915 -0.7068257253381925 -0.6415523470807728 4.932123828910533 13.341222850153237 -2.253016073678251 9.764816648558249 3.1098077418613363 2.8200499322179864 -0.12057723880633187 -7.974428526231006 10.445463508832589 1.1359081023449509 -4.656370552171258 1.584262110585513 -3.1200702531458813 -9.816359735826744 0.027673979009696037 -14.00617999469412 5.741504907429574) (5.672717069086232 -11.287956271352552 -3.0948706594453967 -2.112599103533487 1.273864070081666 1.737387783846028 -2.204592712931915 6.7563016931236834 -0.26421832025863157 -9.258098667463187 10.765087343578113 0.661974691416377 -8.075476289324925 -1.1886407949736895 -1.015764590841098 -9.376774177725306 -1.9021942194125319 1.879425379372976 2.2780608836448857 8.610067058213005 5.12295772283789 -1.62355495128512 -0.09674085190027126 -10.044683923930695 2.3850056441686283) (6.883791551324802 0.1961681546908054 5.420461612478056 -4.419093363517813 4.535325994162418 -7.415460952515454 -8.467030904473736 0.27571028497737815 3.07443712185184 1.9933569878946025 1.3455582319901538 -10.285016183870631 -4.925705104617445 -10.990434103235867 -15.336030575484108 5.138733286034968 -7.834209874204365 13.792248615813893 1.3485658079800649 -6.125478578142333 0.924311081362965 5.608283262445755 2.1755406260908936 -5.671593917322 0.401274478872801) (10.270468342738507 -5.360703208508335 -4.330859136318762 1.9667925682613498 -5.924038812487149 -0.6937139655908393 -2.505415417410374 1.5850771763128622 -0.8074262222292363 -2.9269006896400787 -1.7053418585766802 12.035302681252114 -0.37649328123419784 0.7756495953198744 3.6208604215750273 -2.4586327286627667 -0.9897116574485672 -9.319446442663729 6.301044769557545 -0.1463363212030595 1.2003689648253872 2.516567119218269 -8.256050856104187 9.578234136114599 -0.6156502563503878) (11.06032875572949 0.04902177121055662 -14.04574521234232 -5.84562131014228 0.45811230301950123 6.265109499372084 -5.12883209696246 1.70361062329233 3.476563578548427 -7.916490298449653 -2.635240061429201 6.414127659988451 10.570181848942307 13.70361171800069 -0.16044509312841837 3.4936486081822573 2.495448221018145 1.7094052862920233 -4.263327953284597 7.442375100678165 4.6739240012024394 -2.1773875081160203 -5.624098419616711 -12.43581516869684 5.781388332512475) (-7.545167046384108 2.321235926709194 -3.3613647571883942 0.12753120304769017 -4.134447535586229 -4.431818983642125 0.050618074338567354 -3.863328186749836 -4.982678713714011 -0.08010749826614927 2.3270077155945894 2.8929767974386276 -5.20328967471461 -2.1935888215121926 5.455459875666575 3.9987374682343826 -12.019901560882625 -0.7615648338509551 2.198830274699382 -6.5446039545952175 -3.5884837682878348 -3.283320928667206 1.3723662159829293 -2.0772820021538165 6.116901041568247) (-5.206632222554611 5.017745537841411 -3.693119404590344 3.301141986499229 -4.532798965759699 5.771115554719116 -1.953598694907313 -3.5290319287502157 2.073827944342792 -0.03591896647856585 6.5021952696759575 4.244503994554192 -2.006078085242847 -0.8725942168827026 0.4439700100496725 -5.042412204110587 0.15475471368198246 -11.146587892666732 -12.925669595856801 -2.111702846749152 -3.2124698850935727 3.3641641144505026 0.614649355598989 -1.8565657157247104 0.5110429827136881) (6.813487317100465 3.5734033378019503 -1.5455384895663118 8.756746710089818 11.209171150103886 -11.3041042989622 2.6790604882452187 8.473242733400497 -5.263041614170619 -10.100363997430662 5.151677629627422 -3.2331664074700277 2.979654016494567 -5.527596523179117 1.6542703127086749 3.142903544238331 -6.870035695629172 5.64090415132122 -3.605615872411955 2.539141950464245 -4.087826902554176 0.6106610271983618 -3.1764429456496166 0.7935590712739263 -7.34024915033366) (-2.057387329778371 5.8708274147943245 9.170673705030442 -3.5618767718404736 3.642219822812843 9.421564000978499 9.177739621445438 -3.5473580837386938 1.9097716661158746 -9.897408567228856 -3.972314963920719 -3.7193685608621125 -0.3684470118981357 -7.792424118312763 -6.271449284353215 -2.6738142621522654 -3.3013210375084694 -3.2010268341060737 -6.3621669304913775 2.0564140472740466 1.435239023490443 0.602552549398632 4.422244308674283 4.7467938074857825 -6.245708774551678) (3.6347746567956327 15.152308369067077 -4.144381525333475 1.79251559334155 -4.212663698575769 2.1258055292962013 1.9649452972408992 -10.050679625365524 5.119610174587846 -7.620445396544101 7.596237017689722 -6.789679465126831 -1.030505918160411 -7.798734698750257 2.4664309327604115 5.876083267399898 -1.8798699169327349 -0.5990964905255187 -3.083556075487002 -3.2909760676999684 2.7653964249210294 2.9321524695974834 2.9901857842967607 -12.020081713661765 0.5997469809699675) (-0.6213511069358867 -2.9003462050282187 -10.294782595331554 0.19862254932019197 -0.4405867976067618 3.801310638178099 6.050501370345707 -3.7456366981570044 1.7599031838875923 -5.174982231850128 -6.324014522427808 0.8593540170929265 9.889319593775442 3.3144906481194 -0.37120360637615835 4.834580525560632 -0.7260290811753398 -1.4980567208922548 4.778543687934413 3.36722090701722 6.944414222906466 2.4796933726753263 -3.0758537878105665 -3.264819503715708 -9.391358038518478))), :ischild_vec (0), :child_vec ((0.07863724596899949 0.023100649921350178 0.0594492456389385 0.06380892938644941 -0.04097697976510192 0.00836876837492262 0.029503180862409405 0.06325154218368789 0.07500467864833277 -0.07518790827782854 0.06737993737002354 -0.0481599800013405 -0.023752177063378024 -0.06620095592044525 -0.08205955527905984 -0.02212960021580028 -0.06459145354362902 -0.059306032976968126 0.06478889256203074 0.007123319352542012 0.03905265914132247 0.03209867594281132 0.05927607025681538 -0.06807693652471061 -0.05194639548830149))}, :predicts []},{:log-weight 0.0, :result {:num_cluster 1, :pi (1.0), :mu_vec ((-0.22772354087749735 -0.8247185027847502 1.4019181471738296 0.6637933822449458 -1.8837007811497952 -0.186275925251576 -1.4638316287748454 -1.944950194436505 1.4571267710342848 1.7530134946400762 2.382958490768303 1.04511312756429 0.6912746537800871 0.5630690622575819 0.4086181975848834 2.2614119140011044 1.6058179112350133 0.9546278349860395 1.8875501503755818 0.1343990155312217 1.2233117032384946 0.7878926614089212 2.7220862102468226 -0.097848531108372 -0.3072984724952482)), :factor_vec (((0.33634135740293003 -2.6837731399819473 -3.6752527505416053 6.345836650199457 3.031575502229392 -2.037537549707214 -1.5700379795869825 -5.116879717056822 -3.9399301261180546 1.575562016376701 -0.15781982599892042 -5.0474357546849475 -10.067195919358056 -4.297152348342774 0.5253402529385048 9.0317124203672 4.018960116268369 4.030194688544492 4.746082363510388 -6.115459084911955 3.4594678541767485 -0.8151523265137655 7.558285703831629 1.8218954577488535 1.730383830450029) (-17.769943415912724 0.8863678357279864 -3.2669333196428476 -13.325673926474064 -6.226146896427132 -2.750964585112066 4.19132053435605 -9.120685987860979 4.526875897869477 -2.074654861055652 5.341522677630386 -8.744170644552467 3.208488482736809 4.338635559809004 3.311926276206054 8.424223277202733 -2.8372855353353885 1.632411211939325 6.127984827178523 -6.645286709730469 -1.5117004131994611 -10.04145242090126 -10.832231582488328 -10.927351398166723 -6.014230273679973) (-1.330388491220415 8.609789982493627 5.082425980395236 -8.569931791130802 -6.9626721976030455 5.179398808106658 -4.500814810378098 -8.379735324460668 -0.8295388342271858 0.9036725313947108 -0.4902374613012958 -6.336934549882878 5.758372001447008 4.895798496144878 -0.005564553454497134 1.2070000391334341 2.4876938259936345 0.2248231242483868 2.818695878140505 5.308739060741123 8.473484048217237 0.29183075788833046 1.5494855690819729 -3.25390778909477 3.493093506168273) (-1.1579581218735906 3.8178526585573853 1.5374471688393125 -3.922354636976646 -11.731940916557708 -5.151606338696695 4.7724217823603015 2.087561540494814 2.0834898146166867 -8.49618710771689 -7.028473997800409 4.613560813920084 -0.7200191557861417 9.595040227945923 4.627112482273327 -9.317672926871387 -4.070342509417306 13.273324687209014 1.0257557164958797 9.057052512529511 -6.009492396143059 -4.733008787714338 -1.4007633334104526 -6.234270799654803 1.8260110317475688) (-0.27775361163594214 -1.0768928170424026 4.590214312116002 -4.4856597349100875 1.7201192551830466 -2.7865761836447343 2.871133851677452 -0.709462987878251 1.574042072164382 -1.9722083069119676 -10.264379424064899 -2.0436097675228484 13.464307966774406 -4.745114142889611 7.288819060088006 4.471013336528814 1.340963140753435 12.131899921167152 -5.314185786772067 8.229573499249428 -7.350571002662927 -2.028252137477047 -8.386847021386052 -2.5480761152605695 3.7620189515243285) (-1.5268031305359488 -7.885877908558468 -0.959894908196336 -4.339797761454985 6.442957805213374 -2.9235644524223834 -5.595044951152418 -0.9995500767805652 2.824934580046381 -4.81570362094056 -8.58962239411637 -1.4450821992107108 -0.258871959376875 0.26368189145829257 10.195430978903767 -15.699204666001368 -0.7853978911602544 0.48041792701689345 13.672013106609121 5.280526429964967 5.952259534801187 3.6000211735041483 -0.8756122052341999 -5.340636630909402 -3.581880416810552) (-1.3430678673588583 -1.6642880823619435 -0.6522238162858913 -0.7645458895062249 -6.160232853856815 0.38400037807916376 2.844964370595594 -2.230409382586678 -5.843245030718078 -3.1876758616239647 15.102604145803912 -1.2630255915597721 -3.2493483488937196 0.6088479628847715 -0.05620306303018763 -1.1618766852249625 -11.357726861603107 -0.8957338696540553 -6.658229856837014 6.206979125349463 -3.2594527516593805 -6.558682280000745 4.97629027909978 1.842692884360301 -7.1056011914619726) (0.0380236735270707 11.548043306329179 7.194428619451172 -2.119323912958428 1.6380823387445709 -3.8770059827537535 -6.167208589254969 -5.805392702942849 7.067159881468801 0.6733888651206624 -11.7498038925911 5.325048536017459 -1.3797326529113287 -3.338401834509205 1.946988369039079 -14.319383404607132 4.869419113785612 -5.386222289781938 11.452814769546038 0.05801077656855902 -1.677510547687512 5.112510519351418 5.074321294796047 -7.126048966290471 -7.761442499623445) (-5.761863690287301 0.06176744613124008 -0.35344689611483265 -13.372011519779226 -7.049061301749045 -4.404076010800027 10.717437802639404 7.107922527741197 -12.015314409631449 5.559033454911418 3.4574744408462696 -4.953742452001541 -3.220472323698918 12.460726470089908 2.183901202916714 -0.08033179397013845 -2.8221323530600224 -6.507425576522181 -1.733688313385389 -3.606035957336517 0.28456156243306885 -2.967238747122521 -4.135807273722222 -2.563937740871527 -5.4359261241928625) (0.3269880561935439 3.223396115125453 -12.155459526783169 -1.214850336408307 -0.7426356390920076 -16.09332257656611 -2.236798124850652 0.1438613908256705 -0.5951909648436855 -8.117727863783035 7.310019501856348 0.8801480750058835 -1.4249915659807317 3.3451890045077257 -4.984631505501327 3.5774774122241184 -8.686973336869643 5.476853062257512 -7.557111764991321 -4.067074242994379 -1.79796249928599 -2.37183775276844 -2.6063478297918876 -1.31798585854267 6.937906612432101) (-3.7183756992075736 -6.806182787188359 5.3694719406654015 -13.623575653264266 -12.677233659391792 -4.178928266373548 0.7345269278022054 2.652980752562945 -2.879004336406656 -3.8129761888917453 5.392616510651887 -4.0573389072182655 7.4138748852713565 5.026531059217426 -8.563623847781813 -10.392786587964933 11.973200030030592 -3.4207776813150392 9.564520500106017 -2.0177105548721395 1.021624059739627 4.056999636870903 3.9292554447029295 1.9033503943219685 -6.224900755390641) (12.952255746108477 1.2685775774526658 4.5064245512824455 -3.2356449026617495 1.352367137580444 8.282098716308779 -6.007063578322967 -0.34627785395863353 0.9605326132296067 -1.8132233637997794 -8.156400336178926 5.9803558424795815 9.117042526702333 1.116249576938579 1.5819412771671724 5.483737441236809 -2.0748092419395836 1.1191813488494846 -6.700332920912254 0.6066686031241971 -1.977436585333419 -3.8254392704531357 7.578898517954084 -1.6380132312750972 2.91901992606578) (7.640678055141899 -4.67740242215305 0.4918577091066435 2.1319870563794163 7.560190330503593 3.236874269376537 -4.723353883294879 -6.661407534652426 -5.155203940557231 -10.75549504931067 -1.192159002610734 -4.807551560424856 -3.047613330649546 -9.402538819130394 6.461550649039573 4.949947119689431 0.6339929859091239 0.4964930076055719 5.129294998535148 10.122546172722798 12.624557502131994 -4.967354218135052 -6.319545936589018 -3.089041385066931 -5.833711013486644) (-3.1281924003078414 -4.140115490497036 -7.379503975334737 -7.2272466649902585 -4.57912434917126 1.776685451165053 5.636975095775196 -1.0642699560996622 -6.325497216085432 3.0862194192908183 4.351803574417017 -5.461422367467812 1.4239592595331731 -0.4632973896635234 -3.964249902444483 -3.031637003560925 -13.063315537029752 1.2729058873993901 1.7356913929402373 14.074069066557817 3.7708585058659367 9.7780195257145 -3.904523501228286 -7.389400655409862 12.168490478157448) (7.467870625782359 -1.0534518204075152 4.507197370699314 9.120846809020328 1.4885813775218248 3.001968818615915 -0.7068257253381925 -0.6415523470807728 4.932123828910533 13.341222850153237 -2.253016073678251 9.764816648558249 3.1098077418613363 2.8200499322179864 -0.12057723880633187 -7.974428526231006 10.445463508832589 1.1359081023449509 -4.656370552171258 1.584262110585513 -3.1200702531458813 -9.816359735826744 0.027673979009696037 -14.00617999469412 5.741504907429574) (5.672717069086232 -11.287956271352552 -3.0948706594453967 -2.112599103533487 1.273864070081666 1.737387783846028 -2.204592712931915 6.7563016931236834 -0.26421832025863157 -9.258098667463187 10.765087343578113 0.661974691416377 -8.075476289324925 -1.1886407949736895 -1.015764590841098 -9.376774177725306 -1.9021942194125319 1.879425379372976 2.2780608836448857 8.610067058213005 5.12295772283789 -1.62355495128512 -0.09674085190027126 -10.044683923930695 2.3850056441686283) (6.883791551324802 0.1961681546908054 5.420461612478056 -4.419093363517813 4.535325994162418 -7.415460952515454 -8.467030904473736 0.27571028497737815 3.07443712185184 1.9933569878946025 1.3455582319901538 -10.285016183870631 -4.925705104617445 -10.990434103235867 -15.336030575484108 5.138733286034968 -7.834209874204365 13.792248615813893 1.3485658079800649 -6.125478578142333 0.924311081362965 5.608283262445755 2.1755406260908936 -5.671593917322 0.401274478872801) (10.270468342738507 -5.360703208508335 -4.330859136318762 1.9667925682613498 -5.924038812487149 -0.6937139655908393 -2.505415417410374 1.5850771763128622 -0.8074262222292363 -2.9269006896400787 -1.7053418585766802 12.035302681252114 -0.37649328123419784 0.7756495953198744 3.6208604215750273 -2.4586327286627667 -0.9897116574485672 -9.319446442663729 6.301044769557545 -0.1463363212030595 1.2003689648253872 2.516567119218269 -8.256050856104187 9.578234136114599 -0.6156502563503878) (11.06032875572949 0.04902177121055662 -14.04574521234232 -5.84562131014228 0.45811230301950123 6.265109499372084 -5.12883209696246 1.70361062329233 3.476563578548427 -7.916490298449653 -2.635240061429201 6.414127659988451 10.570181848942307 13.70361171800069 -0.16044509312841837 3.4936486081822573 2.495448221018145 1.7094052862920233 -4.263327953284597 7.442375100678165 4.6739240012024394 -2.1773875081160203 -5.624098419616711 -12.43581516869684 5.781388332512475) (-7.545167046384108 2.321235926709194 -3.3613647571883942 0.12753120304769017 -4.134447535586229 -4.431818983642125 0.050618074338567354 -3.863328186749836 -4.982678713714011 -0.08010749826614927 2.3270077155945894 2.8929767974386276 -5.20328967471461 -2.1935888215121926 5.455459875666575 3.9987374682343826 -12.019901560882625 -0.7615648338509551 2.198830274699382 -6.5446039545952175 -3.5884837682878348 -3.283320928667206 1.3723662159829293 -2.0772820021538165 6.116901041568247) (-5.206632222554611 5.017745537841411 -3.693119404590344 3.301141986499229 -4.532798965759699 5.771115554719116 -1.953598694907313 -3.5290319287502157 2.073827944342792 -0.03591896647856585 6.5021952696759575 4.244503994554192 -2.006078085242847 -0.8725942168827026 0.4439700100496725 -5.042412204110587 0.15475471368198246 -11.146587892666732 -12.925669595856801 -2.111702846749152 -3.2124698850935727 3.3641641144505026 0.614649355598989 -1.8565657157247104 0.5110429827136881) (6.813487317100465 3.5734033378019503 -1.5455384895663118 8.756746710089818 11.209171150103886 -11.3041042989622 2.6790604882452187 8.473242733400497 -5.263041614170619 -10.100363997430662 5.151677629627422 -3.2331664074700277 2.979654016494567 -5.527596523179117 1.6542703127086749 3.142903544238331 -6.870035695629172 5.64090415132122 -3.605615872411955 2.539141950464245 -4.087826902554176 0.6106610271983618 -3.1764429456496166 0.7935590712739263 -7.34024915033366) (-2.057387329778371 5.8708274147943245 9.170673705030442 -3.5618767718404736 3.642219822812843 9.421564000978499 9.177739621445438 -3.5473580837386938 1.9097716661158746 -9.897408567228856 -3.972314963920719 -3.7193685608621125 -0.3684470118981357 -7.792424118312763 -6.271449284353215 -2.6738142621522654 -3.3013210375084694 -3.2010268341060737 -6.3621669304913775 2.0564140472740466 1.435239023490443 0.602552549398632 4.422244308674283 4.7467938074857825 -6.245708774551678) (3.6347746567956327 15.152308369067077 -4.144381525333475 1.79251559334155 -4.212663698575769 2.1258055292962013 1.9649452972408992 -10.050679625365524 5.119610174587846 -7.620445396544101 7.596237017689722 -6.789679465126831 -1.030505918160411 -7.798734698750257 2.4664309327604115 5.876083267399898 -1.8798699169327349 -0.5990964905255187 -3.083556075487002 -3.2909760676999684 2.7653964249210294 2.9321524695974834 2.9901857842967607 -12.020081713661765 0.5997469809699675) (-0.6213511069358867 -2.9003462050282187 -10.294782595331554 0.19862254932019197 -0.4405867976067618 3.801310638178099 6.050501370345707 -3.7456366981570044 1.7599031838875923 -5.174982231850128 -6.324014522427808 0.8593540170929265 9.889319593775442 3.3144906481194 -0.37120360637615835 4.834580525560632 -0.7260290811753398 -1.4980567208922548 4.778543687934413 3.36722090701722 6.944414222906466 2.4796933726753263 -3.0758537878105665 -3.264819503715708 -9.391358038518478))), :ischild_vec (0), :child_vec ((0.07863724596899949 0.023100649921350178 0.0594492456389385 0.06380892938644941 -0.04097697976510192 0.00836876837492262 0.029503180862409405 0.06325154218368789 0.07500467864833277 -0.07518790827782854 0.06737993737002354 -0.0481599800013405 -0.023752177063378024 -0.06620095592044525 -0.08205955527905984 -0.02212960021580028 -0.06459145354362902 -0.059306032976968126 0.06478889256203074 0.007123319352542012 0.03905265914132247 0.03209867594281132 0.05927607025681538 -0.06807693652471061 -0.05194639548830149))}, :predicts []},{:log-weight 0.0, :result {:num_cluster 1, :pi (1.0), :mu_vec ((-0.22772354087749735 -0.8247185027847502 1.4019181471738296 0.6637933822449458 -1.8837007811497952 -0.186275925251576 -1.4638316287748454 -1.944950194436505 1.4571267710342848 1.7530134946400762 2.382958490768303 1.04511312756429 0.6912746537800871 0.5630690622575819 0.4086181975848834 2.2614119140011044 1.6058179112350133 0.9546278349860395 1.8875501503755818 0.1343990155312217 1.2233117032384946 0.7878926614089212 2.7220862102468226 -0.097848531108372 -0.3072984724952482)), :factor_vec (((0.33634135740293003 -2.6837731399819473 -3.6752527505416053 6.345836650199457 3.031575502229392 -2.037537549707214 -1.5700379795869825 -5.116879717056822 -3.9399301261180546 1.575562016376701 -0.15781982599892042 -5.0474357546849475 -10.067195919358056 -4.297152348342774 0.5253402529385048 9.0317124203672 4.018960116268369 4.030194688544492 4.746082363510388 -6.115459084911955 3.4594678541767485 -0.8151523265137655 7.558285703831629 1.8218954577488535 1.730383830450029) (-17.769943415912724 0.8863678357279864 -3.2669333196428476 -13.325673926474064 -6.226146896427132 -2.750964585112066 4.19132053435605 -9.120685987860979 4.526875897869477 -2.074654861055652 5.341522677630386 -8.744170644552467 3.208488482736809 4.338635559809004 3.311926276206054 8.424223277202733 -2.8372855353353885 1.632411211939325 6.127984827178523 -6.645286709730469 -1.5117004131994611 -10.04145242090126 -10.832231582488328 -10.927351398166723 -6.014230273679973) (-1.330388491220415 8.609789982493627 5.082425980395236 -8.569931791130802 -6.9626721976030455 5.179398808106658 -4.500814810378098 -8.379735324460668 -0.8295388342271858 0.9036725313947108 -0.4902374613012958 -6.336934549882878 5.758372001447008 4.895798496144878 -0.005564553454497134 1.2070000391334341 2.4876938259936345 0.2248231242483868 2.818695878140505 5.308739060741123 8.473484048217237 0.29183075788833046 1.5494855690819729 -3.25390778909477 3.493093506168273) (-1.1579581218735906 3.8178526585573853 1.5374471688393125 -3.922354636976646 -11.731940916557708 -5.151606338696695 4.7724217823603015 2.087561540494814 2.0834898146166867 -8.49618710771689 -7.028473997800409 4.613560813920084 -0.7200191557861417 9.595040227945923 4.627112482273327 -9.317672926871387 -4.070342509417306 13.273324687209014 1.0257557164958797 9.057052512529511 -6.009492396143059 -4.733008787714338 -1.4007633334104526 -6.234270799654803 1.8260110317475688) (-0.27775361163594214 -1.0768928170424026 4.590214312116002 -4.4856597349100875 1.7201192551830466 -2.7865761836447343 2.871133851677452 -0.709462987878251 1.574042072164382 -1.9722083069119676 -10.264379424064899 -2.0436097675228484 13.464307966774406 -4.745114142889611 7.288819060088006 4.471013336528814 1.340963140753435 12.131899921167152 -5.314185786772067 8.229573499249428 -7.350571002662927 -2.028252137477047 -8.386847021386052 -2.5480761152605695 3.7620189515243285) (-1.5268031305359488 -7.885877908558468 -0.959894908196336 -4.339797761454985 6.442957805213374 -2.9235644524223834 -5.595044951152418 -0.9995500767805652 2.824934580046381 -4.81570362094056 -8.58962239411637 -1.4450821992107108 -0.258871959376875 0.26368189145829257 10.195430978903767 -15.699204666001368 -0.7853978911602544 0.48041792701689345 13.672013106609121 5.280526429964967 5.952259534801187 3.6000211735041483 -0.8756122052341999 -5.340636630909402 -3.581880416810552) (-1.3430678673588583 -1.6642880823619435 -0.6522238162858913 -0.7645458895062249 -6.160232853856815 0.38400037807916376 2.844964370595594 -2.230409382586678 -5.843245030718078 -3.1876758616239647 15.102604145803912 -1.2630255915597721 -3.2493483488937196 0.6088479628847715 -0.05620306303018763 -1.1618766852249625 -11.357726861603107 -0.8957338696540553 -6.658229856837014 6.206979125349463 -3.2594527516593805 -6.558682280000745 4.97629027909978 1.842692884360301 -7.1056011914619726) (0.0380236735270707 11.548043306329179 7.194428619451172 -2.119323912958428 1.6380823387445709 -3.8770059827537535 -6.167208589254969 -5.805392702942849 7.067159881468801 0.6733888651206624 -11.7498038925911 5.325048536017459 -1.3797326529113287 -3.338401834509205 1.946988369039079 -14.319383404607132 4.869419113785612 -5.386222289781938 11.452814769546038 0.05801077656855902 -1.677510547687512 5.112510519351418 5.074321294796047 -7.126048966290471 -7.761442499623445) (-5.761863690287301 0.06176744613124008 -0.35344689611483265 -13.372011519779226 -7.049061301749045 -4.404076010800027 10.717437802639404 7.107922527741197 -12.015314409631449 5.559033454911418 3.4574744408462696 -4.953742452001541 -3.220472323698918 12.460726470089908 2.183901202916714 -0.08033179397013845 -2.8221323530600224 -6.507425576522181 -1.733688313385389 -3.606035957336517 0.28456156243306885 -2.967238747122521 -4.135807273722222 -2.563937740871527 -5.4359261241928625) (0.3269880561935439 3.223396115125453 -12.155459526783169 -1.214850336408307 -0.7426356390920076 -16.09332257656611 -2.236798124850652 0.1438613908256705 -0.5951909648436855 -8.117727863783035 7.310019501856348 0.8801480750058835 -1.4249915659807317 3.3451890045077257 -4.984631505501327 3.5774774122241184 -8.686973336869643 5.476853062257512 -7.557111764991321 -4.067074242994379 -1.79796249928599 -2.37183775276844 -2.6063478297918876 -1.31798585854267 6.937906612432101) (-3.7183756992075736 -6.806182787188359 5.3694719406654015 -13.623575653264266 -12.677233659391792 -4.178928266373548 0.7345269278022054 2.652980752562945 -2.879004336406656 -3.8129761888917453 5.392616510651887 -4.0573389072182655 7.4138748852713565 5.026531059217426 -8.563623847781813 -10.392786587964933 11.973200030030592 -3.4207776813150392 9.564520500106017 -2.0177105548721395 1.021624059739627 4.056999636870903 3.9292554447029295 1.9033503943219685 -6.224900755390641) (12.952255746108477 1.2685775774526658 4.5064245512824455 -3.2356449026617495 1.352367137580444 8.282098716308779 -6.007063578322967 -0.34627785395863353 0.9605326132296067 -1.8132233637997794 -8.156400336178926 5.9803558424795815 9.117042526702333 1.116249576938579 1.5819412771671724 5.483737441236809 -2.0748092419395836 1.1191813488494846 -6.700332920912254 0.6066686031241971 -1.977436585333419 -3.8254392704531357 7.578898517954084 -1.6380132312750972 2.91901992606578) (7.640678055141899 -4.67740242215305 0.4918577091066435 2.1319870563794163 7.560190330503593 3.236874269376537 -4.723353883294879 -6.661407534652426 -5.155203940557231 -10.75549504931067 -1.192159002610734 -4.807551560424856 -3.047613330649546 -9.402538819130394 6.461550649039573 4.949947119689431 0.6339929859091239 0.4964930076055719 5.129294998535148 10.122546172722798 12.624557502131994 -4.967354218135052 -6.319545936589018 -3.089041385066931 -5.833711013486644) (-3.1281924003078414 -4.140115490497036 -7.379503975334737 -7.2272466649902585 -4.57912434917126 1.776685451165053 5.636975095775196 -1.0642699560996622 -6.325497216085432 3.0862194192908183 4.351803574417017 -5.461422367467812 1.4239592595331731 -0.4632973896635234 -3.964249902444483 -3.031637003560925 -13.063315537029752 1.2729058873993901 1.7356913929402373 14.074069066557817 3.7708585058659367 9.7780195257145 -3.904523501228286 -7.389400655409862 12.168490478157448) (7.467870625782359 -1.0534518204075152 4.507197370699314 9.120846809020328 1.4885813775218248 3.001968818615915 -0.7068257253381925 -0.6415523470807728 4.932123828910533 13.341222850153237 -2.253016073678251 9.764816648558249 3.1098077418613363 2.8200499322179864 -0.12057723880633187 -7.974428526231006 10.445463508832589 1.1359081023449509 -4.656370552171258 1.584262110585513 -3.1200702531458813 -9.816359735826744 0.027673979009696037 -14.00617999469412 5.741504907429574) (5.672717069086232 -11.287956271352552 -3.0948706594453967 -2.112599103533487 1.273864070081666 1.737387783846028 -2.204592712931915 6.7563016931236834 -0.26421832025863157 -9.258098667463187 10.765087343578113 0.661974691416377 -8.075476289324925 -1.1886407949736895 -1.015764590841098 -9.376774177725306 -1.9021942194125319 1.879425379372976 2.2780608836448857 8.610067058213005 5.12295772283789 -1.62355495128512 -0.09674085190027126 -10.044683923930695 2.3850056441686283) (6.883791551324802 0.1961681546908054 5.420461612478056 -4.419093363517813 4.535325994162418 -7.415460952515454 -8.467030904473736 0.27571028497737815 3.07443712185184 1.9933569878946025 1.3455582319901538 -10.285016183870631 -4.925705104617445 -10.990434103235867 -15.336030575484108 5.138733286034968 -7.834209874204365 13.792248615813893 1.3485658079800649 -6.125478578142333 0.924311081362965 5.608283262445755 2.1755406260908936 -5.671593917322 0.401274478872801) (10.270468342738507 -5.360703208508335 -4.330859136318762 1.9667925682613498 -5.924038812487149 -0.6937139655908393 -2.505415417410374 1.5850771763128622 -0.8074262222292363 -2.9269006896400787 -1.7053418585766802 12.035302681252114 -0.37649328123419784 0.7756495953198744 3.6208604215750273 -2.4586327286627667 -0.9897116574485672 -9.319446442663729 6.301044769557545 -0.1463363212030595 1.2003689648253872 2.516567119218269 -8.256050856104187 9.578234136114599 -0.6156502563503878) (11.06032875572949 0.04902177121055662 -14.04574521234232 -5.84562131014228 0.45811230301950123 6.265109499372084 -5.12883209696246 1.70361062329233 3.476563578548427 -7.916490298449653 -2.635240061429201 6.414127659988451 10.570181848942307 13.70361171800069 -0.16044509312841837 3.4936486081822573 2.495448221018145 1.7094052862920233 -4.263327953284597 7.442375100678165 4.6739240012024394 -2.1773875081160203 -5.624098419616711 -12.43581516869684 5.781388332512475) (-7.545167046384108 2.321235926709194 -3.3613647571883942 0.12753120304769017 -4.134447535586229 -4.431818983642125 0.050618074338567354 -3.863328186749836 -4.982678713714011 -0.08010749826614927 2.3270077155945894 2.8929767974386276 -5.20328967471461 -2.1935888215121926 5.455459875666575 3.9987374682343826 -12.019901560882625 -0.7615648338509551 2.198830274699382 -6.5446039545952175 -3.5884837682878348 -3.283320928667206 1.3723662159829293 -2.0772820021538165 6.116901041568247) (-5.206632222554611 5.017745537841411 -3.693119404590344 3.301141986499229 -4.532798965759699 5.771115554719116 -1.953598694907313 -3.5290319287502157 2.073827944342792 -0.03591896647856585 6.5021952696759575 4.244503994554192 -2.006078085242847 -0.8725942168827026 0.4439700100496725 -5.042412204110587 0.15475471368198246 -11.146587892666732 -12.925669595856801 -2.111702846749152 -3.2124698850935727 3.3641641144505026 0.614649355598989 -1.8565657157247104 0.5110429827136881) (6.813487317100465 3.5734033378019503 -1.5455384895663118 8.756746710089818 11.209171150103886 -11.3041042989622 2.6790604882452187 8.473242733400497 -5.263041614170619 -10.100363997430662 5.151677629627422 -3.2331664074700277 2.979654016494567 -5.527596523179117 1.6542703127086749 3.142903544238331 -6.870035695629172 5.64090415132122 -3.605615872411955 2.539141950464245 -4.087826902554176 0.6106610271983618 -3.1764429456496166 0.7935590712739263 -7.34024915033366) (-2.057387329778371 5.8708274147943245 9.170673705030442 -3.5618767718404736 3.642219822812843 9.421564000978499 9.177739621445438 -3.5473580837386938 1.9097716661158746 -9.897408567228856 -3.972314963920719 -3.7193685608621125 -0.3684470118981357 -7.792424118312763 -6.271449284353215 -2.6738142621522654 -3.3013210375084694 -3.2010268341060737 -6.3621669304913775 2.0564140472740466 1.435239023490443 0.602552549398632 4.422244308674283 4.7467938074857825 -6.245708774551678) (3.6347746567956327 15.152308369067077 -4.144381525333475 1.79251559334155 -4.212663698575769 2.1258055292962013 1.9649452972408992 -10.050679625365524 5.119610174587846 -7.620445396544101 7.596237017689722 -6.789679465126831 -1.030505918160411 -7.798734698750257 2.4664309327604115 5.876083267399898 -1.8798699169327349 -0.5990964905255187 -3.083556075487002 -3.2909760676999684 2.7653964249210294 2.9321524695974834 2.9901857842967607 -12.020081713661765 0.5997469809699675) (-0.6213511069358867 -2.9003462050282187 -10.294782595331554 0.19862254932019197 -0.4405867976067618 3.801310638178099 6.050501370345707 -3.7456366981570044 1.7599031838875923 -5.174982231850128 -6.324014522427808 0.8593540170929265 9.889319593775442 3.3144906481194 -0.37120360637615835 4.834580525560632 -0.7260290811753398 -1.4980567208922548 4.778543687934413 3.36722090701722 6.944414222906466 2.4796933726753263 -3.0758537878105665 -3.264819503715708 -9.391358038518478))), :ischild_vec (0), :child_vec ((0.07863724596899949 0.023100649921350178 0.0594492456389385 0.06380892938644941 -0.04097697976510192 0.00836876837492262 0.029503180862409405 0.06325154218368789 0.07500467864833277 -0.07518790827782854 0.06737993737002354 -0.0481599800013405 -0.023752177063378024 -0.06620095592044525 -0.08205955527905984 -0.02212960021580028 -0.06459145354362902 -0.059306032976968126 0.06478889256203074 0.007123319352542012 0.03905265914132247 0.03209867594281132 0.05927607025681538 -0.06807693652471061 -0.05194639548830149))}, :predicts []},{:log-weight 0.0, :result {:num_cluster 1, :pi (1.0), :mu_vec ((-0.22772354087749735 -0.8247185027847502 1.4019181471738296 0.6637933822449458 -1.8837007811497952 -0.186275925251576 -1.4638316287748454 -1.944950194436505 1.4571267710342848 1.7530134946400762 2.382958490768303 1.04511312756429 0.6912746537800871 0.5630690622575819 0.4086181975848834 2.2614119140011044 1.6058179112350133 0.9546278349860395 1.8875501503755818 0.1343990155312217 1.2233117032384946 0.7878926614089212 2.7220862102468226 -0.097848531108372 -0.3072984724952482)), :factor_vec (((0.33634135740293003 -2.6837731399819473 -3.6752527505416053 6.345836650199457 3.031575502229392 -2.037537549707214 -1.5700379795869825 -5.116879717056822 -3.9399301261180546 1.575562016376701 -0.15781982599892042 -5.0474357546849475 -10.067195919358056 -4.297152348342774 0.5253402529385048 9.0317124203672 4.018960116268369 4.030194688544492 4.746082363510388 -6.115459084911955 3.4594678541767485 -0.8151523265137655 7.558285703831629 1.8218954577488535 1.730383830450029) (-17.769943415912724 0.8863678357279864 -3.2669333196428476 -13.325673926474064 -6.226146896427132 -2.750964585112066 4.19132053435605 -9.120685987860979 4.526875897869477 -2.074654861055652 5.341522677630386 -8.744170644552467 3.208488482736809 4.338635559809004 3.311926276206054 8.424223277202733 -2.8372855353353885 1.632411211939325 6.127984827178523 -6.645286709730469 -1.5117004131994611 -10.04145242090126 -10.832231582488328 -10.927351398166723 -6.014230273679973) (-1.330388491220415 8.609789982493627 5.082425980395236 -8.569931791130802 -6.9626721976030455 5.179398808106658 -4.500814810378098 -8.379735324460668 -0.8295388342271858 0.9036725313947108 -0.4902374613012958 -6.336934549882878 5.758372001447008 4.895798496144878 -0.005564553454497134 1.2070000391334341 2.4876938259936345 0.2248231242483868 2.818695878140505 5.308739060741123 8.473484048217237 0.29183075788833046 1.5494855690819729 -3.25390778909477 3.493093506168273) (-1.1579581218735906 3.8178526585573853 1.5374471688393125 -3.922354636976646 -11.731940916557708 -5.151606338696695 4.7724217823603015 2.087561540494814 2.0834898146166867 -8.49618710771689 -7.028473997800409 4.613560813920084 -0.7200191557861417 9.595040227945923 4.627112482273327 -9.317672926871387 -4.070342509417306 13.273324687209014 1.0257557164958797 9.057052512529511 -6.009492396143059 -4.733008787714338 -1.4007633334104526 -6.234270799654803 1.8260110317475688) (-0.27775361163594214 -1.0768928170424026 4.590214312116002 -4.4856597349100875 1.7201192551830466 -2.7865761836447343 2.871133851677452 -0.709462987878251 1.574042072164382 -1.9722083069119676 -10.264379424064899 -2.0436097675228484 13.464307966774406 -4.745114142889611 7.288819060088006 4.471013336528814 1.340963140753435 12.131899921167152 -5.314185786772067 8.229573499249428 -7.350571002662927 -2.028252137477047 -8.386847021386052 -2.5480761152605695 3.7620189515243285) (-1.5268031305359488 -7.885877908558468 -0.959894908196336 -4.339797761454985 6.442957805213374 -2.9235644524223834 -5.595044951152418 -0.9995500767805652 2.824934580046381 -4.81570362094056 -8.58962239411637 -1.4450821992107108 -0.258871959376875 0.26368189145829257 10.195430978903767 -15.699204666001368 -0.7853978911602544 0.48041792701689345 13.672013106609121 5.280526429964967 5.952259534801187 3.6000211735041483 -0.8756122052341999 -5.340636630909402 -3.581880416810552) (-1.3430678673588583 -1.6642880823619435 -0.6522238162858913 -0.7645458895062249 -6.160232853856815 0.38400037807916376 2.844964370595594 -2.230409382586678 -5.843245030718078 -3.1876758616239647 15.102604145803912 -1.2630255915597721 -3.2493483488937196 0.6088479628847715 -0.05620306303018763 -1.1618766852249625 -11.357726861603107 -0.8957338696540553 -6.658229856837014 6.206979125349463 -3.2594527516593805 -6.558682280000745 4.97629027909978 1.842692884360301 -7.1056011914619726) (0.0380236735270707 11.548043306329179 7.194428619451172 -2.119323912958428 1.6380823387445709 -3.8770059827537535 -6.167208589254969 -5.805392702942849 7.067159881468801 0.6733888651206624 -11.7498038925911 5.325048536017459 -1.3797326529113287 -3.338401834509205 1.946988369039079 -14.319383404607132 4.869419113785612 -5.386222289781938 11.452814769546038 0.05801077656855902 -1.677510547687512 5.112510519351418 5.074321294796047 -7.126048966290471 -7.761442499623445) (-5.761863690287301 0.06176744613124008 -0.35344689611483265 -13.372011519779226 -7.049061301749045 -4.404076010800027 10.717437802639404 7.107922527741197 -12.015314409631449 5.559033454911418 3.4574744408462696 -4.953742452001541 -3.220472323698918 12.460726470089908 2.183901202916714 -0.08033179397013845 -2.8221323530600224 -6.507425576522181 -1.733688313385389 -3.606035957336517 0.28456156243306885 -2.967238747122521 -4.135807273722222 -2.563937740871527 -5.4359261241928625) (0.3269880561935439 3.223396115125453 -12.155459526783169 -1.214850336408307 -0.7426356390920076 -16.09332257656611 -2.236798124850652 0.1438613908256705 -0.5951909648436855 -8.117727863783035 7.310019501856348 0.8801480750058835 -1.4249915659807317 3.3451890045077257 -4.984631505501327 3.5774774122241184 -8.686973336869643 5.476853062257512 -7.557111764991321 -4.067074242994379 -1.79796249928599 -2.37183775276844 -2.6063478297918876 -1.31798585854267 6.937906612432101) (-3.7183756992075736 -6.806182787188359 5.3694719406654015 -13.623575653264266 -12.677233659391792 -4.178928266373548 0.7345269278022054 2.652980752562945 -2.879004336406656 -3.8129761888917453 5.392616510651887 -4.0573389072182655 7.4138748852713565 5.026531059217426 -8.563623847781813 -10.392786587964933 11.973200030030592 -3.4207776813150392 9.564520500106017 -2.0177105548721395 1.021624059739627 4.056999636870903 3.9292554447029295 1.9033503943219685 -6.224900755390641) (12.952255746108477 1.2685775774526658 4.5064245512824455 -3.2356449026617495 1.352367137580444 8.282098716308779 -6.007063578322967 -0.34627785395863353 0.9605326132296067 -1.8132233637997794 -8.156400336178926 5.9803558424795815 9.117042526702333 1.116249576938579 1.5819412771671724 5.483737441236809 -2.0748092419395836 1.1191813488494846 -6.700332920912254 0.6066686031241971 -1.977436585333419 -3.8254392704531357 7.578898517954084 -1.6380132312750972 2.91901992606578) (7.640678055141899 -4.67740242215305 0.4918577091066435 2.1319870563794163 7.560190330503593 3.236874269376537 -4.723353883294879 -6.661407534652426 -5.155203940557231 -10.75549504931067 -1.192159002610734 -4.807551560424856 -3.047613330649546 -9.402538819130394 6.461550649039573 4.949947119689431 0.6339929859091239 0.4964930076055719 5.129294998535148 10.122546172722798 12.624557502131994 -4.967354218135052 -6.319545936589018 -3.089041385066931 -5.833711013486644) (-3.1281924003078414 -4.140115490497036 -7.379503975334737 -7.2272466649902585 -4.57912434917126 1.776685451165053 5.636975095775196 -1.0642699560996622 -6.325497216085432 3.0862194192908183 4.351803574417017 -5.461422367467812 1.4239592595331731 -0.4632973896635234 -3.964249902444483 -3.031637003560925 -13.063315537029752 1.2729058873993901 1.7356913929402373 14.074069066557817 3.7708585058659367 9.7780195257145 -3.904523501228286 -7.389400655409862 12.168490478157448) (7.467870625782359 -1.0534518204075152 4.507197370699314 9.120846809020328 1.4885813775218248 3.001968818615915 -0.7068257253381925 -0.6415523470807728 4.932123828910533 13.341222850153237 -2.253016073678251 9.764816648558249 3.1098077418613363 2.8200499322179864 -0.12057723880633187 -7.974428526231006 10.445463508832589 1.1359081023449509 -4.656370552171258 1.584262110585513 -3.1200702531458813 -9.816359735826744 0.027673979009696037 -14.00617999469412 5.741504907429574) (5.672717069086232 -11.287956271352552 -3.0948706594453967 -2.112599103533487 1.273864070081666 1.737387783846028 -2.204592712931915 6.7563016931236834 -0.26421832025863157 -9.258098667463187 10.765087343578113 0.661974691416377 -8.075476289324925 -1.1886407949736895 -1.015764590841098 -9.376774177725306 -1.9021942194125319 1.879425379372976 2.2780608836448857 8.610067058213005 5.12295772283789 -1.62355495128512 -0.09674085190027126 -10.044683923930695 2.3850056441686283) (6.883791551324802 0.1961681546908054 5.420461612478056 -4.419093363517813 4.535325994162418 -7.415460952515454 -8.467030904473736 0.27571028497737815 3.07443712185184 1.9933569878946025 1.3455582319901538 -10.285016183870631 -4.925705104617445 -10.990434103235867 -15.336030575484108 5.138733286034968 -7.834209874204365 13.792248615813893 1.3485658079800649 -6.125478578142333 0.924311081362965 5.608283262445755 2.1755406260908936 -5.671593917322 0.401274478872801) (10.270468342738507 -5.360703208508335 -4.330859136318762 1.9667925682613498 -5.924038812487149 -0.6937139655908393 -2.505415417410374 1.5850771763128622 -0.8074262222292363 -2.9269006896400787 -1.7053418585766802 12.035302681252114 -0.37649328123419784 0.7756495953198744 3.6208604215750273 -2.4586327286627667 -0.9897116574485672 -9.319446442663729 6.301044769557545 -0.1463363212030595 1.2003689648253872 2.516567119218269 -8.256050856104187 9.578234136114599 -0.6156502563503878) (11.06032875572949 0.04902177121055662 -14.04574521234232 -5.84562131014228 0.45811230301950123 6.265109499372084 -5.12883209696246 1.70361062329233 3.476563578548427 -7.916490298449653 -2.635240061429201 6.414127659988451 10.570181848942307 13.70361171800069 -0.16044509312841837 3.4936486081822573 2.495448221018145 1.7094052862920233 -4.263327953284597 7.442375100678165 4.6739240012024394 -2.1773875081160203 -5.624098419616711 -12.43581516869684 5.781388332512475) (-7.545167046384108 2.321235926709194 -3.3613647571883942 0.12753120304769017 -4.134447535586229 -4.431818983642125 0.050618074338567354 -3.863328186749836 -4.982678713714011 -0.08010749826614927 2.3270077155945894 2.8929767974386276 -5.20328967471461 -2.1935888215121926 5.455459875666575 3.9987374682343826 -12.019901560882625 -0.7615648338509551 2.198830274699382 -6.5446039545952175 -3.5884837682878348 -3.283320928667206 1.3723662159829293 -2.0772820021538165 6.116901041568247) (-5.206632222554611 5.017745537841411 -3.693119404590344 3.301141986499229 -4.532798965759699 5.771115554719116 -1.953598694907313 -3.5290319287502157 2.073827944342792 -0.03591896647856585 6.5021952696759575 4.244503994554192 -2.006078085242847 -0.8725942168827026 0.4439700100496725 -5.042412204110587 0.15475471368198246 -11.146587892666732 -12.925669595856801 -2.111702846749152 -3.2124698850935727 3.3641641144505026 0.614649355598989 -1.8565657157247104 0.5110429827136881) (6.813487317100465 3.5734033378019503 -1.5455384895663118 8.756746710089818 11.209171150103886 -11.3041042989622 2.6790604882452187 8.473242733400497 -5.263041614170619 -10.100363997430662 5.151677629627422 -3.2331664074700277 2.979654016494567 -5.527596523179117 1.6542703127086749 3.142903544238331 -6.870035695629172 5.64090415132122 -3.605615872411955 2.539141950464245 -4.087826902554176 0.6106610271983618 -3.1764429456496166 0.7935590712739263 -7.34024915033366) (-2.057387329778371 5.8708274147943245 9.170673705030442 -3.5618767718404736 3.642219822812843 9.421564000978499 9.177739621445438 -3.5473580837386938 1.9097716661158746 -9.897408567228856 -3.972314963920719 -3.7193685608621125 -0.3684470118981357 -7.792424118312763 -6.271449284353215 -2.6738142621522654 -3.3013210375084694 -3.2010268341060737 -6.3621669304913775 2.0564140472740466 1.435239023490443 0.602552549398632 4.422244308674283 4.7467938074857825 -6.245708774551678) (3.6347746567956327 15.152308369067077 -4.144381525333475 1.79251559334155 -4.212663698575769 2.1258055292962013 1.9649452972408992 -10.050679625365524 5.119610174587846 -7.620445396544101 7.596237017689722 -6.789679465126831 -1.030505918160411 -7.798734698750257 2.4664309327604115 5.876083267399898 -1.8798699169327349 -0.5990964905255187 -3.083556075487002 -3.2909760676999684 2.7653964249210294 2.9321524695974834 2.9901857842967607 -12.020081713661765 0.5997469809699675) (-0.6213511069358867 -2.9003462050282187 -10.294782595331554 0.19862254932019197 -0.4405867976067618 3.801310638178099 6.050501370345707 -3.7456366981570044 1.7599031838875923 -5.174982231850128 -6.324014522427808 0.8593540170929265 9.889319593775442 3.3144906481194 -0.37120360637615835 4.834580525560632 -0.7260290811753398 -1.4980567208922548 4.778543687934413 3.36722090701722 6.944414222906466 2.4796933726753263 -3.0758537878105665 -3.264819503715708 -9.391358038518478))), :ischild_vec (0), :child_vec ((0.07863724596899949 0.023100649921350178 0.0594492456389385 0.06380892938644941 -0.04097697976510192 0.00836876837492262 0.029503180862409405 0.06325154218368789 0.07500467864833277 -0.07518790827782854 0.06737993737002354 -0.0481599800013405 -0.023752177063378024 -0.06620095592044525 -0.08205955527905984 -0.02212960021580028 -0.06459145354362902 -0.059306032976968126 0.06478889256203074 0.007123319352542012 0.03905265914132247 0.03209867594281132 0.05927607025681538 -0.06807693652471061 -0.05194639548830149))}, :predicts []},{:log-weight 0.0, :result {:num_cluster 1, :pi (1.0), :mu_vec ((-0.22772354087749735 -0.8247185027847502 1.4019181471738296 0.6637933822449458 -1.8837007811497952 -0.186275925251576 -1.4638316287748454 -1.944950194436505 1.4571267710342848 1.7530134946400762 2.382958490768303 1.04511312756429 0.6912746537800871 0.5630690622575819 0.4086181975848834 2.2614119140011044 1.6058179112350133 0.9546278349860395 1.8875501503755818 0.1343990155312217 1.2233117032384946 0.7878926614089212 2.7220862102468226 -0.097848531108372 -0.3072984724952482)), :factor_vec (((0.33634135740293003 -2.6837731399819473 -3.6752527505416053 6.345836650199457 3.031575502229392 -2.037537549707214 -1.5700379795869825 -5.116879717056822 -3.9399301261180546 1.575562016376701 -0.15781982599892042 -5.0474357546849475 -10.067195919358056 -4.297152348342774 0.5253402529385048 9.0317124203672 4.018960116268369 4.030194688544492 4.746082363510388 -6.115459084911955 3.4594678541767485 -0.8151523265137655 7.558285703831629 1.8218954577488535 1.730383830450029) (-17.769943415912724 0.8863678357279864 -3.2669333196428476 -13.325673926474064 -6.226146896427132 -2.750964585112066 4.19132053435605 -9.120685987860979 4.526875897869477 -2.074654861055652 5.341522677630386 -8.744170644552467 3.208488482736809 4.338635559809004 3.311926276206054 8.424223277202733 -2.8372855353353885 1.632411211939325 6.127984827178523 -6.645286709730469 -1.5117004131994611 -10.04145242090126 -10.832231582488328 -10.927351398166723 -6.014230273679973) (-1.330388491220415 8.609789982493627 5.082425980395236 -8.569931791130802 -6.9626721976030455 5.179398808106658 -4.500814810378098 -8.379735324460668 -0.8295388342271858 0.9036725313947108 -0.4902374613012958 -6.336934549882878 5.758372001447008 4.895798496144878 -0.005564553454497134 1.2070000391334341 2.4876938259936345 0.2248231242483868 2.818695878140505 5.308739060741123 8.473484048217237 0.29183075788833046 1.5494855690819729 -3.25390778909477 3.493093506168273) (-1.1579581218735906 3.8178526585573853 1.5374471688393125 -3.922354636976646 -11.731940916557708 -5.151606338696695 4.7724217823603015 2.087561540494814 2.0834898146166867 -8.49618710771689 -7.028473997800409 4.613560813920084 -0.7200191557861417 9.595040227945923 4.627112482273327 -9.317672926871387 -4.070342509417306 13.273324687209014 1.0257557164958797 9.057052512529511 -6.009492396143059 -4.733008787714338 -1.4007633334104526 -6.234270799654803 1.8260110317475688) (-0.27775361163594214 -1.0768928170424026 4.590214312116002 -4.4856597349100875 1.7201192551830466 -2.7865761836447343 2.871133851677452 -0.709462987878251 1.574042072164382 -1.9722083069119676 -10.264379424064899 -2.0436097675228484 13.464307966774406 -4.745114142889611 7.288819060088006 4.471013336528814 1.340963140753435 12.131899921167152 -5.314185786772067 8.229573499249428 -7.350571002662927 -2.028252137477047 -8.386847021386052 -2.5480761152605695 3.7620189515243285) (-1.5268031305359488 -7.885877908558468 -0.959894908196336 -4.339797761454985 6.442957805213374 -2.9235644524223834 -5.595044951152418 -0.9995500767805652 2.824934580046381 -4.81570362094056 -8.58962239411637 -1.4450821992107108 -0.258871959376875 0.26368189145829257 10.195430978903767 -15.699204666001368 -0.7853978911602544 0.48041792701689345 13.672013106609121 5.280526429964967 5.952259534801187 3.6000211735041483 -0.8756122052341999 -5.340636630909402 -3.581880416810552) (-1.3430678673588583 -1.6642880823619435 -0.6522238162858913 -0.7645458895062249 -6.160232853856815 0.38400037807916376 2.844964370595594 -2.230409382586678 -5.843245030718078 -3.1876758616239647 15.102604145803912 -1.2630255915597721 -3.2493483488937196 0.6088479628847715 -0.05620306303018763 -1.1618766852249625 -11.357726861603107 -0.8957338696540553 -6.658229856837014 6.206979125349463 -3.2594527516593805 -6.558682280000745 4.97629027909978 1.842692884360301 -7.1056011914619726) (0.0380236735270707 11.548043306329179 7.194428619451172 -2.119323912958428 1.6380823387445709 -3.8770059827537535 -6.167208589254969 -5.805392702942849 7.067159881468801 0.6733888651206624 -11.7498038925911 5.325048536017459 -1.3797326529113287 -3.338401834509205 1.946988369039079 -14.319383404607132 4.869419113785612 -5.386222289781938 11.452814769546038 0.05801077656855902 -1.677510547687512 5.112510519351418 5.074321294796047 -7.126048966290471 -7.761442499623445) (-5.761863690287301 0.06176744613124008 -0.35344689611483265 -13.372011519779226 -7.049061301749045 -4.404076010800027 10.717437802639404 7.107922527741197 -12.015314409631449 5.559033454911418 3.4574744408462696 -4.953742452001541 -3.220472323698918 12.460726470089908 2.183901202916714 -0.08033179397013845 -2.8221323530600224 -6.507425576522181 -1.733688313385389 -3.606035957336517 0.28456156243306885 -2.967238747122521 -4.135807273722222 -2.563937740871527 -5.4359261241928625) (0.3269880561935439 3.223396115125453 -12.155459526783169 -1.214850336408307 -0.7426356390920076 -16.09332257656611 -2.236798124850652 0.1438613908256705 -0.5951909648436855 -8.117727863783035 7.310019501856348 0.8801480750058835 -1.4249915659807317 3.3451890045077257 -4.984631505501327 3.5774774122241184 -8.686973336869643 5.476853062257512 -7.557111764991321 -4.067074242994379 -1.79796249928599 -2.37183775276844 -2.6063478297918876 -1.31798585854267 6.937906612432101) (-3.7183756992075736 -6.806182787188359 5.3694719406654015 -13.623575653264266 -12.677233659391792 -4.178928266373548 0.7345269278022054 2.652980752562945 -2.879004336406656 -3.8129761888917453 5.392616510651887 -4.0573389072182655 7.4138748852713565 5.026531059217426 -8.563623847781813 -10.392786587964933 11.973200030030592 -3.4207776813150392 9.564520500106017 -2.0177105548721395 1.021624059739627 4.056999636870903 3.9292554447029295 1.9033503943219685 -6.224900755390641) (12.952255746108477 1.2685775774526658 4.5064245512824455 -3.2356449026617495 1.352367137580444 8.282098716308779 -6.007063578322967 -0.34627785395863353 0.9605326132296067 -1.8132233637997794 -8.156400336178926 5.9803558424795815 9.117042526702333 1.116249576938579 1.5819412771671724 5.483737441236809 -2.0748092419395836 1.1191813488494846 -6.700332920912254 0.6066686031241971 -1.977436585333419 -3.8254392704531357 7.578898517954084 -1.6380132312750972 2.91901992606578) (7.640678055141899 -4.67740242215305 0.4918577091066435 2.1319870563794163 7.560190330503593 3.236874269376537 -4.723353883294879 -6.661407534652426 -5.155203940557231 -10.75549504931067 -1.192159002610734 -4.807551560424856 -3.047613330649546 -9.402538819130394 6.461550649039573 4.949947119689431 0.6339929859091239 0.4964930076055719 5.129294998535148 10.122546172722798 12.624557502131994 -4.967354218135052 -6.319545936589018 -3.089041385066931 -5.833711013486644) (-3.1281924003078414 -4.140115490497036 -7.379503975334737 -7.2272466649902585 -4.57912434917126 1.776685451165053 5.636975095775196 -1.0642699560996622 -6.325497216085432 3.0862194192908183 4.351803574417017 -5.461422367467812 1.4239592595331731 -0.4632973896635234 -3.964249902444483 -3.031637003560925 -13.063315537029752 1.2729058873993901 1.7356913929402373 14.074069066557817 3.7708585058659367 9.7780195257145 -3.904523501228286 -7.389400655409862 12.168490478157448) (7.467870625782359 -1.0534518204075152 4.507197370699314 9.120846809020328 1.4885813775218248 3.001968818615915 -0.7068257253381925 -0.6415523470807728 4.932123828910533 13.341222850153237 -2.253016073678251 9.764816648558249 3.1098077418613363 2.8200499322179864 -0.12057723880633187 -7.974428526231006 10.445463508832589 1.1359081023449509 -4.656370552171258 1.584262110585513 -3.1200702531458813 -9.816359735826744 0.027673979009696037 -14.00617999469412 5.741504907429574) (5.672717069086232 -11.287956271352552 -3.0948706594453967 -2.112599103533487 1.273864070081666 1.737387783846028 -2.204592712931915 6.7563016931236834 -0.26421832025863157 -9.258098667463187 10.765087343578113 0.661974691416377 -8.075476289324925 -1.1886407949736895 -1.015764590841098 -9.376774177725306 -1.9021942194125319 1.879425379372976 2.2780608836448857 8.610067058213005 5.12295772283789 -1.62355495128512 -0.09674085190027126 -10.044683923930695 2.3850056441686283) (6.883791551324802 0.1961681546908054 5.420461612478056 -4.419093363517813 4.535325994162418 -7.415460952515454 -8.467030904473736 0.27571028497737815 3.07443712185184 1.9933569878946025 1.3455582319901538 -10.285016183870631 -4.925705104617445 -10.990434103235867 -15.336030575484108 5.138733286034968 -7.834209874204365 13.792248615813893 1.3485658079800649 -6.125478578142333 0.924311081362965 5.608283262445755 2.1755406260908936 -5.671593917322 0.401274478872801) (10.270468342738507 -5.360703208508335 -4.330859136318762 1.9667925682613498 -5.924038812487149 -0.6937139655908393 -2.505415417410374 1.5850771763128622 -0.8074262222292363 -2.9269006896400787 -1.7053418585766802 12.035302681252114 -0.37649328123419784 0.7756495953198744 3.6208604215750273 -2.4586327286627667 -0.9897116574485672 -9.319446442663729 6.301044769557545 -0.1463363212030595 1.2003689648253872 2.516567119218269 -8.256050856104187 9.578234136114599 -0.6156502563503878) (11.06032875572949 0.04902177121055662 -14.04574521234232 -5.84562131014228 0.45811230301950123 6.265109499372084 -5.12883209696246 1.70361062329233 3.476563578548427 -7.916490298449653 -2.635240061429201 6.414127659988451 10.570181848942307 13.70361171800069 -0.16044509312841837 3.4936486081822573 2.495448221018145 1.7094052862920233 -4.263327953284597 7.442375100678165 4.6739240012024394 -2.1773875081160203 -5.624098419616711 -12.43581516869684 5.781388332512475) (-7.545167046384108 2.321235926709194 -3.3613647571883942 0.12753120304769017 -4.134447535586229 -4.431818983642125 0.050618074338567354 -3.863328186749836 -4.982678713714011 -0.08010749826614927 2.3270077155945894 2.8929767974386276 -5.20328967471461 -2.1935888215121926 5.455459875666575 3.9987374682343826 -12.019901560882625 -0.7615648338509551 2.198830274699382 -6.5446039545952175 -3.5884837682878348 -3.283320928667206 1.3723662159829293 -2.0772820021538165 6.116901041568247) (-5.206632222554611 5.017745537841411 -3.693119404590344 3.301141986499229 -4.532798965759699 5.771115554719116 -1.953598694907313 -3.5290319287502157 2.073827944342792 -0.03591896647856585 6.5021952696759575 4.244503994554192 -2.006078085242847 -0.8725942168827026 0.4439700100496725 -5.042412204110587 0.15475471368198246 -11.146587892666732 -12.925669595856801 -2.111702846749152 -3.2124698850935727 3.3641641144505026 0.614649355598989 -1.8565657157247104 0.5110429827136881) (6.813487317100465 3.5734033378019503 -1.5455384895663118 8.756746710089818 11.209171150103886 -11.3041042989622 2.6790604882452187 8.473242733400497 -5.263041614170619 -10.100363997430662 5.151677629627422 -3.2331664074700277 2.979654016494567 -5.527596523179117 1.6542703127086749 3.142903544238331 -6.870035695629172 5.64090415132122 -3.605615872411955 2.539141950464245 -4.087826902554176 0.6106610271983618 -3.1764429456496166 0.7935590712739263 -7.34024915033366) (-2.057387329778371 5.8708274147943245 9.170673705030442 -3.5618767718404736 3.642219822812843 9.421564000978499 9.177739621445438 -3.5473580837386938 1.9097716661158746 -9.897408567228856 -3.972314963920719 -3.7193685608621125 -0.3684470118981357 -7.792424118312763 -6.271449284353215 -2.6738142621522654 -3.3013210375084694 -3.2010268341060737 -6.3621669304913775 2.0564140472740466 1.435239023490443 0.602552549398632 4.422244308674283 4.7467938074857825 -6.245708774551678) (3.6347746567956327 15.152308369067077 -4.144381525333475 1.79251559334155 -4.212663698575769 2.1258055292962013 1.9649452972408992 -10.050679625365524 5.119610174587846 -7.620445396544101 7.596237017689722 -6.789679465126831 -1.030505918160411 -7.798734698750257 2.4664309327604115 5.876083267399898 -1.8798699169327349 -0.5990964905255187 -3.083556075487002 -3.2909760676999684 2.7653964249210294 2.9321524695974834 2.9901857842967607 -12.020081713661765 0.5997469809699675) (-0.6213511069358867 -2.9003462050282187 -10.294782595331554 0.19862254932019197 -0.4405867976067618 3.801310638178099 6.050501370345707 -3.7456366981570044 1.7599031838875923 -5.174982231850128 -6.324014522427808 0.8593540170929265 9.889319593775442 3.3144906481194 -0.37120360637615835 4.834580525560632 -0.7260290811753398 -1.4980567208922548 4.778543687934413 3.36722090701722 6.944414222906466 2.4796933726753263 -3.0758537878105665 -3.264819503715708 -9.391358038518478))), :ischild_vec (0), :child_vec ((0.07863724596899949 0.023100649921350178 0.0594492456389385 0.06380892938644941 -0.04097697976510192 0.00836876837492262 0.029503180862409405 0.06325154218368789 0.07500467864833277 -0.07518790827782854 0.06737993737002354 -0.0481599800013405 -0.023752177063378024 -0.06620095592044525 -0.08205955527905984 -0.02212960021580028 -0.06459145354362902 -0.059306032976968126 0.06478889256203074 0.007123319352542012 0.03905265914132247 0.03209867594281132 0.05927607025681538 -0.06807693652471061 -0.05194639548830149))}, :predicts []},{:log-weight 0.0, :result {:num_cluster 1, :pi (1.0), :mu_vec ((-0.22772354087749735 -0.8247185027847502 1.4019181471738296 0.6637933822449458 -1.8837007811497952 -0.186275925251576 -1.4638316287748454 -1.944950194436505 1.4571267710342848 1.7530134946400762 2.382958490768303 1.04511312756429 -1.1565472257542884 0.5630690622575819 0.4086181975848834 2.2614119140011044 1.6058179112350133 0.9546278349860395 1.8875501503755818 0.1343990155312217 1.2233117032384946 0.7878926614089212 2.7220862102468226 -0.097848531108372 -0.3072984724952482)), :factor_vec (((0.33634135740293003 -2.6837731399819473 -3.6752527505416053 6.345836650199457 3.031575502229392 -2.037537549707214 -1.5700379795869825 -5.116879717056822 -3.9399301261180546 1.575562016376701 -0.15781982599892042 -5.0474357546849475 -10.067195919358056 -4.297152348342774 0.5253402529385048 9.0317124203672 4.018960116268369 4.030194688544492 4.746082363510388 -6.115459084911955 3.4594678541767485 -0.8151523265137655 7.558285703831629 1.8218954577488535 1.730383830450029) (-17.769943415912724 0.8863678357279864 -3.2669333196428476 -13.325673926474064 -6.226146896427132 -2.750964585112066 4.19132053435605 -9.120685987860979 4.526875897869477 -2.074654861055652 5.341522677630386 -8.744170644552467 3.208488482736809 4.338635559809004 3.311926276206054 8.424223277202733 -2.8372855353353885 1.632411211939325 6.127984827178523 -6.645286709730469 -1.5117004131994611 -10.04145242090126 -10.832231582488328 -10.927351398166723 -6.014230273679973) (-1.330388491220415 8.609789982493627 5.082425980395236 -8.569931791130802 -6.9626721976030455 5.179398808106658 -4.500814810378098 -8.379735324460668 -0.8295388342271858 0.9036725313947108 -0.4902374613012958 -6.336934549882878 5.758372001447008 4.895798496144878 -0.005564553454497134 1.2070000391334341 2.4876938259936345 0.2248231242483868 2.818695878140505 5.308739060741123 8.473484048217237 0.29183075788833046 1.5494855690819729 -3.25390778909477 3.493093506168273) (-1.1579581218735906 3.8178526585573853 1.5374471688393125 -3.922354636976646 -11.731940916557708 -5.151606338696695 4.7724217823603015 2.087561540494814 2.0834898146166867 -8.49618710771689 -7.028473997800409 4.613560813920084 -0.7200191557861417 9.595040227945923 4.627112482273327 -9.317672926871387 -4.070342509417306 13.273324687209014 1.0257557164958797 9.057052512529511 -6.009492396143059 -4.733008787714338 -1.4007633334104526 -6.234270799654803 1.8260110317475688) (-0.27775361163594214 -1.0768928170424026 4.590214312116002 -4.4856597349100875 1.7201192551830466 -2.7865761836447343 2.871133851677452 -0.709462987878251 1.574042072164382 -1.9722083069119676 -10.264379424064899 -2.0436097675228484 13.464307966774406 -4.745114142889611 7.288819060088006 4.471013336528814 1.340963140753435 12.131899921167152 -5.314185786772067 8.229573499249428 -7.350571002662927 -2.028252137477047 -8.386847021386052 -2.5480761152605695 3.7620189515243285) (-1.5268031305359488 -7.885877908558468 -0.959894908196336 -4.339797761454985 6.442957805213374 -2.9235644524223834 -5.595044951152418 -0.9995500767805652 2.824934580046381 -4.81570362094056 -8.58962239411637 -1.4450821992107108 -0.258871959376875 0.26368189145829257 10.195430978903767 -15.699204666001368 -0.7853978911602544 0.48041792701689345 13.672013106609121 5.280526429964967 5.952259534801187 3.6000211735041483 -0.8756122052341999 -5.340636630909402 -3.581880416810552) (-1.3430678673588583 -1.6642880823619435 -0.6522238162858913 -0.7645458895062249 -6.160232853856815 0.38400037807916376 2.844964370595594 -2.230409382586678 -5.843245030718078 -3.1876758616239647 15.102604145803912 -1.2630255915597721 -3.2493483488937196 0.6088479628847715 -0.05620306303018763 -1.1618766852249625 -11.357726861603107 -0.8957338696540553 -6.658229856837014 6.206979125349463 -3.2594527516593805 -6.558682280000745 4.97629027909978 1.842692884360301 -7.1056011914619726) (0.0380236735270707 11.548043306329179 7.194428619451172 -2.119323912958428 1.6380823387445709 -3.8770059827537535 -6.167208589254969 -5.805392702942849 7.067159881468801 0.6733888651206624 -11.7498038925911 5.325048536017459 -1.3797326529113287 -3.338401834509205 1.946988369039079 -14.319383404607132 4.869419113785612 -5.386222289781938 11.452814769546038 0.05801077656855902 -1.677510547687512 5.112510519351418 5.074321294796047 -7.126048966290471 -7.761442499623445) (-5.761863690287301 0.06176744613124008 -0.35344689611483265 -13.372011519779226 -7.049061301749045 -4.404076010800027 10.717437802639404 7.107922527741197 -12.015314409631449 5.559033454911418 3.4574744408462696 -4.953742452001541 -3.220472323698918 12.460726470089908 2.183901202916714 -0.08033179397013845 -2.8221323530600224 -6.507425576522181 -1.733688313385389 -3.606035957336517 0.28456156243306885 -2.967238747122521 -4.135807273722222 -2.563937740871527 -5.4359261241928625) (0.3269880561935439 3.223396115125453 -12.155459526783169 -1.214850336408307 -0.7426356390920076 -16.09332257656611 -2.236798124850652 0.1438613908256705 -0.5951909648436855 -8.117727863783035 7.310019501856348 0.8801480750058835 -1.4249915659807317 3.3451890045077257 -4.984631505501327 3.5774774122241184 -8.686973336869643 5.476853062257512 -7.557111764991321 -4.067074242994379 -1.79796249928599 -2.37183775276844 -2.6063478297918876 -1.31798585854267 6.937906612432101) (-3.7183756992075736 -6.806182787188359 5.3694719406654015 -13.623575653264266 -12.677233659391792 -4.178928266373548 0.7345269278022054 2.652980752562945 -2.879004336406656 -3.8129761888917453 5.392616510651887 -4.0573389072182655 7.4138748852713565 5.026531059217426 -8.563623847781813 -10.392786587964933 11.973200030030592 -3.4207776813150392 9.564520500106017 -2.0177105548721395 1.021624059739627 4.056999636870903 3.9292554447029295 1.9033503943219685 -6.224900755390641) (12.952255746108477 1.2685775774526658 4.5064245512824455 -3.2356449026617495 1.352367137580444 8.282098716308779 -6.007063578322967 -0.34627785395863353 0.9605326132296067 -1.8132233637997794 -8.156400336178926 5.9803558424795815 9.117042526702333 1.116249576938579 1.5819412771671724 5.483737441236809 -2.0748092419395836 1.1191813488494846 -6.700332920912254 0.6066686031241971 -1.977436585333419 -3.8254392704531357 7.578898517954084 -1.6380132312750972 2.91901992606578) (7.640678055141899 -4.67740242215305 0.4918577091066435 2.1319870563794163 7.560190330503593 3.236874269376537 -4.723353883294879 -6.661407534652426 -5.155203940557231 -10.75549504931067 -1.192159002610734 -4.807551560424856 -3.047613330649546 -9.402538819130394 6.461550649039573 4.949947119689431 0.6339929859091239 0.4964930076055719 5.129294998535148 10.122546172722798 12.624557502131994 -4.967354218135052 -6.319545936589018 -3.089041385066931 -5.833711013486644) (-3.1281924003078414 -4.140115490497036 -7.379503975334737 -7.2272466649902585 -4.57912434917126 1.776685451165053 5.636975095775196 -1.0642699560996622 -6.325497216085432 3.0862194192908183 4.351803574417017 -5.461422367467812 1.4239592595331731 -0.4632973896635234 -3.964249902444483 -3.031637003560925 -13.063315537029752 1.2729058873993901 1.7356913929402373 14.074069066557817 3.7708585058659367 9.7780195257145 -3.904523501228286 -7.389400655409862 12.168490478157448) (7.467870625782359 -1.0534518204075152 4.507197370699314 9.120846809020328 1.4885813775218248 3.001968818615915 -0.7068257253381925 -0.6415523470807728 4.932123828910533 13.341222850153237 -2.253016073678251 9.764816648558249 3.1098077418613363 2.8200499322179864 -0.12057723880633187 -7.974428526231006 10.445463508832589 1.1359081023449509 -4.656370552171258 1.584262110585513 -3.1200702531458813 -9.816359735826744 0.027673979009696037 -14.00617999469412 5.741504907429574) (5.672717069086232 -11.287956271352552 -3.0948706594453967 -2.112599103533487 1.273864070081666 1.737387783846028 -2.204592712931915 6.7563016931236834 -0.26421832025863157 -9.258098667463187 10.765087343578113 0.661974691416377 -8.075476289324925 -1.1886407949736895 -1.015764590841098 -9.376774177725306 -1.9021942194125319 1.879425379372976 2.2780608836448857 8.610067058213005 5.12295772283789 -1.62355495128512 -0.09674085190027126 -10.044683923930695 2.3850056441686283) (6.883791551324802 0.1961681546908054 5.420461612478056 -4.419093363517813 4.535325994162418 -7.415460952515454 -8.467030904473736 0.27571028497737815 3.07443712185184 1.9933569878946025 1.3455582319901538 -10.285016183870631 -4.925705104617445 -10.990434103235867 -15.336030575484108 5.138733286034968 -7.834209874204365 13.792248615813893 1.3485658079800649 -6.125478578142333 0.924311081362965 5.608283262445755 2.1755406260908936 -5.671593917322 0.401274478872801) (10.270468342738507 -5.360703208508335 -4.330859136318762 1.9667925682613498 -5.924038812487149 -0.6937139655908393 -2.505415417410374 1.5850771763128622 -0.8074262222292363 -2.9269006896400787 -1.7053418585766802 12.035302681252114 -0.37649328123419784 0.7756495953198744 3.6208604215750273 -2.4586327286627667 -0.9897116574485672 -9.319446442663729 6.301044769557545 -0.1463363212030595 1.2003689648253872 2.516567119218269 -8.256050856104187 9.578234136114599 -0.6156502563503878) (11.06032875572949 0.04902177121055662 -14.04574521234232 -5.84562131014228 0.45811230301950123 6.265109499372084 -5.12883209696246 1.70361062329233 3.476563578548427 -7.916490298449653 -2.635240061429201 6.414127659988451 10.570181848942307 13.70361171800069 -0.16044509312841837 3.4936486081822573 2.495448221018145 1.7094052862920233 -4.263327953284597 7.442375100678165 4.6739240012024394 -2.1773875081160203 -5.624098419616711 -12.43581516869684 5.781388332512475) (-7.545167046384108 2.321235926709194 -3.3613647571883942 0.12753120304769017 -4.134447535586229 -4.431818983642125 0.050618074338567354 -3.863328186749836 -4.982678713714011 -0.08010749826614927 2.3270077155945894 2.8929767974386276 -5.20328967471461 -2.1935888215121926 5.455459875666575 3.9987374682343826 -12.019901560882625 -0.7615648338509551 2.198830274699382 -6.5446039545952175 -3.5884837682878348 -3.283320928667206 1.3723662159829293 -2.0772820021538165 6.116901041568247) (-5.206632222554611 5.017745537841411 -3.693119404590344 3.301141986499229 -4.532798965759699 5.771115554719116 -1.953598694907313 -3.5290319287502157 2.073827944342792 -0.03591896647856585 6.5021952696759575 4.244503994554192 -2.006078085242847 -0.8725942168827026 0.4439700100496725 -5.042412204110587 0.15475471368198246 -11.146587892666732 -12.925669595856801 -2.111702846749152 -3.2124698850935727 3.3641641144505026 0.614649355598989 -1.8565657157247104 0.5110429827136881) (6.813487317100465 3.5734033378019503 -1.5455384895663118 8.756746710089818 11.209171150103886 -11.3041042989622 2.6790604882452187 8.473242733400497 -5.263041614170619 -10.100363997430662 5.151677629627422 -3.2331664074700277 2.979654016494567 -5.527596523179117 1.6542703127086749 3.142903544238331 -6.870035695629172 5.64090415132122 -3.605615872411955 2.539141950464245 -4.087826902554176 0.6106610271983618 -3.1764429456496166 0.7935590712739263 -7.34024915033366) (-2.057387329778371 5.8708274147943245 9.170673705030442 -3.5618767718404736 3.642219822812843 9.421564000978499 9.177739621445438 -3.5473580837386938 1.9097716661158746 -9.897408567228856 -3.972314963920719 -3.7193685608621125 -0.3684470118981357 -7.792424118312763 -6.271449284353215 -2.6738142621522654 -3.3013210375084694 -3.2010268341060737 -6.3621669304913775 2.0564140472740466 1.435239023490443 0.602552549398632 4.422244308674283 4.7467938074857825 -6.245708774551678) (3.6347746567956327 15.152308369067077 -4.144381525333475 1.79251559334155 -4.212663698575769 2.1258055292962013 1.9649452972408992 -10.050679625365524 5.119610174587846 -7.620445396544101 7.596237017689722 -6.789679465126831 -1.030505918160411 -7.798734698750257 2.4664309327604115 5.876083267399898 -1.8798699169327349 -0.5990964905255187 -3.083556075487002 -3.2909760676999684 2.7653964249210294 2.9321524695974834 2.9901857842967607 -12.020081713661765 0.5997469809699675) (-0.6213511069358867 -2.9003462050282187 -10.294782595331554 0.19862254932019197 -0.4405867976067618 3.801310638178099 6.050501370345707 -3.7456366981570044 1.7599031838875923 -5.174982231850128 -6.324014522427808 0.8593540170929265 9.889319593775442 3.3144906481194 -0.37120360637615835 4.834580525560632 -0.7260290811753398 -1.4980567208922548 4.778543687934413 3.36722090701722 6.944414222906466 2.4796933726753263 -3.0758537878105665 -3.264819503715708 -9.391358038518478))), :ischild_vec (0), :child_vec ((0.07863724596899949 0.023100649921350178 0.0594492456389385 0.06380892938644941 -0.04097697976510192 0.00836876837492262 0.029503180862409405 0.06325154218368789 0.07500467864833277 -0.07518790827782854 0.06737993737002354 -0.0481599800013405 -0.023752177063378024 -0.06620095592044525 -0.08205955527905984 -0.02212960021580028 -0.06459145354362902 -0.059306032976968126 0.06478889256203074 0.007123319352542012 0.03905265914132247 0.03209867594281132 0.05927607025681538 -0.06807693652471061 -0.05194639548830149))}, :predicts []},{:log-weight 0.0, :result {:num_cluster 1, :pi (1.0), :mu_vec ((-0.22772354087749735 -0.8247185027847502 1.4019181471738296 0.6637933822449458 -1.8837007811497952 -0.186275925251576 -1.4638316287748454 -1.944950194436505 1.4571267710342848 1.7530134946400762 2.382958490768303 1.04511312756429 -1.1565472257542884 0.5630690622575819 0.4086181975848834 2.2614119140011044 1.6058179112350133 0.9546278349860395 1.8875501503755818 0.1343990155312217 1.2233117032384946 0.7878926614089212 2.7220862102468226 -0.097848531108372 -0.3072984724952482)), :factor_vec (((0.33634135740293003 -2.6837731399819473 -3.6752527505416053 6.345836650199457 3.031575502229392 -2.037537549707214 -1.5700379795869825 -5.116879717056822 -3.9399301261180546 1.575562016376701 -0.15781982599892042 -5.0474357546849475 -10.067195919358056 -4.297152348342774 0.5253402529385048 9.0317124203672 4.018960116268369 4.030194688544492 4.746082363510388 -6.115459084911955 3.4594678541767485 -0.8151523265137655 7.558285703831629 1.8218954577488535 1.730383830450029) (-17.769943415912724 0.8863678357279864 -3.2669333196428476 -13.325673926474064 -6.226146896427132 -2.750964585112066 4.19132053435605 -9.120685987860979 4.526875897869477 -2.074654861055652 5.341522677630386 -8.744170644552467 3.208488482736809 4.338635559809004 3.311926276206054 8.424223277202733 -2.8372855353353885 1.632411211939325 6.127984827178523 -6.645286709730469 -1.5117004131994611 -10.04145242090126 -10.832231582488328 -10.927351398166723 -6.014230273679973) (-1.330388491220415 8.609789982493627 5.082425980395236 -8.569931791130802 -6.9626721976030455 5.179398808106658 -4.500814810378098 -8.379735324460668 -0.8295388342271858 0.9036725313947108 -0.4902374613012958 -6.336934549882878 5.758372001447008 4.895798496144878 -0.005564553454497134 1.2070000391334341 2.4876938259936345 0.2248231242483868 2.818695878140505 5.308739060741123 8.473484048217237 0.29183075788833046 1.5494855690819729 -3.25390778909477 3.493093506168273) (-1.1579581218735906 3.8178526585573853 1.5374471688393125 -3.922354636976646 -11.731940916557708 -5.151606338696695 4.7724217823603015 2.087561540494814 2.0834898146166867 -8.49618710771689 -7.028473997800409 4.613560813920084 -0.7200191557861417 9.595040227945923 4.627112482273327 -9.317672926871387 -4.070342509417306 13.273324687209014 1.0257557164958797 9.057052512529511 -6.009492396143059 -4.733008787714338 -1.4007633334104526 -6.234270799654803 1.8260110317475688) (-0.27775361163594214 -1.0768928170424026 4.590214312116002 -4.4856597349100875 1.7201192551830466 -2.7865761836447343 2.871133851677452 -0.709462987878251 1.574042072164382 -1.9722083069119676 -10.264379424064899 -2.0436097675228484 13.464307966774406 -4.745114142889611 7.288819060088006 4.471013336528814 1.340963140753435 12.131899921167152 -5.314185786772067 8.229573499249428 -7.350571002662927 -2.028252137477047 -8.386847021386052 -2.5480761152605695 3.7620189515243285) (-1.5268031305359488 -7.885877908558468 -0.959894908196336 -4.339797761454985 6.442957805213374 -2.9235644524223834 -5.595044951152418 -0.9995500767805652 2.824934580046381 -4.81570362094056 -8.58962239411637 -1.4450821992107108 -0.258871959376875 0.26368189145829257 10.195430978903767 -15.699204666001368 -0.7853978911602544 0.48041792701689345 13.672013106609121 5.280526429964967 5.952259534801187 3.6000211735041483 -0.8756122052341999 -5.340636630909402 -3.581880416810552) (-1.3430678673588583 -1.6642880823619435 -0.6522238162858913 -0.7645458895062249 -6.160232853856815 0.38400037807916376 2.844964370595594 -2.230409382586678 -5.843245030718078 -3.1876758616239647 15.102604145803912 -1.2630255915597721 -3.2493483488937196 0.6088479628847715 -0.05620306303018763 -1.1618766852249625 -11.357726861603107 -0.8957338696540553 -6.658229856837014 6.206979125349463 -3.2594527516593805 -6.558682280000745 4.97629027909978 1.842692884360301 -7.1056011914619726) (0.0380236735270707 11.548043306329179 7.194428619451172 -2.119323912958428 1.6380823387445709 -3.8770059827537535 -6.167208589254969 -5.805392702942849 7.067159881468801 0.6733888651206624 -11.7498038925911 5.325048536017459 -1.3797326529113287 -3.338401834509205 1.946988369039079 -14.319383404607132 4.869419113785612 -5.386222289781938 11.452814769546038 0.05801077656855902 -1.677510547687512 5.112510519351418 5.074321294796047 -7.126048966290471 -7.761442499623445) (-5.761863690287301 0.06176744613124008 -0.35344689611483265 -13.372011519779226 -7.049061301749045 -4.404076010800027 10.717437802639404 7.107922527741197 -12.015314409631449 5.559033454911418 3.4574744408462696 -4.953742452001541 -3.220472323698918 12.460726470089908 2.183901202916714 -0.08033179397013845 -2.8221323530600224 -6.507425576522181 -1.733688313385389 -3.606035957336517 0.28456156243306885 -2.967238747122521 -4.135807273722222 -2.563937740871527 -5.4359261241928625) (0.3269880561935439 3.223396115125453 -12.155459526783169 -1.214850336408307 -0.7426356390920076 -16.09332257656611 -2.236798124850652 0.1438613908256705 -0.5951909648436855 -8.117727863783035 7.310019501856348 0.8801480750058835 -1.4249915659807317 3.3451890045077257 -4.984631505501327 3.5774774122241184 -8.686973336869643 5.476853062257512 -7.557111764991321 -4.067074242994379 -1.79796249928599 -2.37183775276844 -2.6063478297918876 -1.31798585854267 6.937906612432101) (-3.7183756992075736 -6.806182787188359 5.3694719406654015 -13.623575653264266 -12.677233659391792 -4.178928266373548 0.7345269278022054 2.652980752562945 -2.879004336406656 -3.8129761888917453 5.392616510651887 -4.0573389072182655 7.4138748852713565 5.026531059217426 -8.563623847781813 -10.392786587964933 11.973200030030592 -3.4207776813150392 9.564520500106017 -2.0177105548721395 1.021624059739627 4.056999636870903 3.9292554447029295 1.9033503943219685 -6.224900755390641) (12.952255746108477 1.2685775774526658 4.5064245512824455 -3.2356449026617495 1.352367137580444 8.282098716308779 -6.007063578322967 -0.34627785395863353 0.9605326132296067 -1.8132233637997794 -8.156400336178926 5.9803558424795815 9.117042526702333 1.116249576938579 1.5819412771671724 5.483737441236809 -2.0748092419395836 1.1191813488494846 -6.700332920912254 0.6066686031241971 -1.977436585333419 -3.8254392704531357 7.578898517954084 -1.6380132312750972 2.91901992606578) (7.640678055141899 -4.67740242215305 0.4918577091066435 2.1319870563794163 7.560190330503593 3.236874269376537 -4.723353883294879 -6.661407534652426 -5.155203940557231 -10.75549504931067 -1.192159002610734 -4.807551560424856 -3.047613330649546 -9.402538819130394 6.461550649039573 4.949947119689431 0.6339929859091239 0.4964930076055719 5.129294998535148 10.122546172722798 12.624557502131994 -4.967354218135052 -6.319545936589018 -3.089041385066931 -5.833711013486644) (-3.1281924003078414 -4.140115490497036 -7.379503975334737 -7.2272466649902585 -4.57912434917126 1.776685451165053 5.636975095775196 -1.0642699560996622 -6.325497216085432 3.0862194192908183 4.351803574417017 -5.461422367467812 1.4239592595331731 -0.4632973896635234 -3.964249902444483 -3.031637003560925 -13.063315537029752 1.2729058873993901 1.7356913929402373 14.074069066557817 3.7708585058659367 9.7780195257145 -3.904523501228286 -7.389400655409862 12.168490478157448) (7.467870625782359 -1.0534518204075152 4.507197370699314 9.120846809020328 1.4885813775218248 3.001968818615915 -0.7068257253381925 -0.6415523470807728 4.932123828910533 13.341222850153237 -2.253016073678251 9.764816648558249 3.1098077418613363 2.8200499322179864 -0.12057723880633187 -7.974428526231006 10.445463508832589 1.1359081023449509 -4.656370552171258 1.584262110585513 -3.1200702531458813 -9.816359735826744 0.027673979009696037 -14.00617999469412 5.741504907429574) (5.672717069086232 -11.287956271352552 -3.0948706594453967 -2.112599103533487 1.273864070081666 1.737387783846028 -2.204592712931915 6.7563016931236834 -0.26421832025863157 -9.258098667463187 10.765087343578113 0.661974691416377 -8.075476289324925 -1.1886407949736895 -1.015764590841098 -9.376774177725306 -1.9021942194125319 1.879425379372976 2.2780608836448857 8.610067058213005 5.12295772283789 -1.62355495128512 -0.09674085190027126 -10.044683923930695 2.3850056441686283) (6.883791551324802 0.1961681546908054 5.420461612478056 -4.419093363517813 4.535325994162418 -7.415460952515454 -8.467030904473736 0.27571028497737815 3.07443712185184 1.9933569878946025 1.3455582319901538 -10.285016183870631 -4.925705104617445 -10.990434103235867 -15.336030575484108 5.138733286034968 -7.834209874204365 13.792248615813893 1.3485658079800649 -6.125478578142333 0.924311081362965 5.608283262445755 2.1755406260908936 -5.671593917322 0.401274478872801) (10.270468342738507 -5.360703208508335 -4.330859136318762 1.9667925682613498 -5.924038812487149 -0.6937139655908393 -2.505415417410374 1.5850771763128622 -0.8074262222292363 -2.9269006896400787 -1.7053418585766802 12.035302681252114 -0.37649328123419784 0.7756495953198744 3.6208604215750273 -2.4586327286627667 -0.9897116574485672 -9.319446442663729 6.301044769557545 -0.1463363212030595 1.2003689648253872 2.516567119218269 -8.256050856104187 9.578234136114599 -0.6156502563503878) (11.06032875572949 0.04902177121055662 -14.04574521234232 -5.84562131014228 0.45811230301950123 6.265109499372084 -5.12883209696246 1.70361062329233 3.476563578548427 -7.916490298449653 -2.635240061429201 6.414127659988451 10.570181848942307 13.70361171800069 -0.16044509312841837 3.4936486081822573 2.495448221018145 1.7094052862920233 -4.263327953284597 7.442375100678165 4.6739240012024394 -2.1773875081160203 -5.624098419616711 -12.43581516869684 5.781388332512475) (-7.545167046384108 2.321235926709194 -3.3613647571883942 0.12753120304769017 -4.134447535586229 -4.431818983642125 0.050618074338567354 -3.863328186749836 -4.982678713714011 -0.08010749826614927 2.3270077155945894 2.8929767974386276 -5.20328967471461 -2.1935888215121926 5.455459875666575 3.9987374682343826 -12.019901560882625 -0.7615648338509551 2.198830274699382 -6.5446039545952175 -3.5884837682878348 -3.283320928667206 1.3723662159829293 -2.0772820021538165 6.116901041568247) (-5.206632222554611 5.017745537841411 -3.693119404590344 3.301141986499229 -4.532798965759699 5.771115554719116 -1.953598694907313 -3.5290319287502157 2.073827944342792 -0.03591896647856585 6.5021952696759575 4.244503994554192 -2.006078085242847 -0.8725942168827026 0.4439700100496725 -5.042412204110587 0.15475471368198246 -11.146587892666732 -12.925669595856801 -2.111702846749152 -3.2124698850935727 3.3641641144505026 0.614649355598989 -1.8565657157247104 0.5110429827136881) (6.813487317100465 3.5734033378019503 -1.5455384895663118 8.756746710089818 11.209171150103886 -11.3041042989622 2.6790604882452187 8.473242733400497 -5.263041614170619 -10.100363997430662 5.151677629627422 -3.2331664074700277 2.979654016494567 -5.527596523179117 1.6542703127086749 3.142903544238331 -6.870035695629172 5.64090415132122 -3.605615872411955 2.539141950464245 -4.087826902554176 0.6106610271983618 -3.1764429456496166 0.7935590712739263 -7.34024915033366) (-2.057387329778371 5.8708274147943245 9.170673705030442 -3.5618767718404736 3.642219822812843 9.421564000978499 9.177739621445438 -3.5473580837386938 1.9097716661158746 -9.897408567228856 -3.972314963920719 -3.7193685608621125 -0.3684470118981357 -7.792424118312763 -6.271449284353215 -2.6738142621522654 -3.3013210375084694 -3.2010268341060737 -6.3621669304913775 2.0564140472740466 1.435239023490443 0.602552549398632 4.422244308674283 4.7467938074857825 -6.245708774551678) (3.6347746567956327 15.152308369067077 -4.144381525333475 1.79251559334155 -4.212663698575769 2.1258055292962013 1.9649452972408992 -10.050679625365524 5.119610174587846 -7.620445396544101 7.596237017689722 -6.789679465126831 -1.030505918160411 -7.798734698750257 2.4664309327604115 5.876083267399898 -1.8798699169327349 -0.5990964905255187 -3.083556075487002 -3.2909760676999684 2.7653964249210294 2.9321524695974834 2.9901857842967607 -12.020081713661765 0.5997469809699675) (-0.6213511069358867 -2.9003462050282187 -10.294782595331554 0.19862254932019197 -0.4405867976067618 3.801310638178099 6.050501370345707 -3.7456366981570044 1.7599031838875923 -5.174982231850128 -6.324014522427808 0.8593540170929265 9.889319593775442 3.3144906481194 -0.37120360637615835 4.834580525560632 -0.7260290811753398 -1.4980567208922548 4.778543687934413 3.36722090701722 6.944414222906466 2.4796933726753263 -3.0758537878105665 -3.264819503715708 -9.391358038518478))), :ischild_vec (0), :child_vec ((0.07863724596899949 0.023100649921350178 0.0594492456389385 0.06380892938644941 -0.04097697976510192 0.00836876837492262 0.029503180862409405 0.06325154218368789 0.07500467864833277 -0.07518790827782854 0.06737993737002354 -0.0481599800013405 -0.023752177063378024 -0.06620095592044525 -0.08205955527905984 -0.02212960021580028 -0.06459145354362902 -0.059306032976968126 0.06478889256203074 0.007123319352542012 0.03905265914132247 0.03209867594281132 0.05927607025681538 -0.06807693652471061 -0.05194639548830149))}, :predicts []},{:log-weight 0.0, :result {:num_cluster 1, :pi (1.0), :mu_vec ((-0.22772354087749735 -0.8247185027847502 1.4019181471738296 0.6637933822449458 -1.8837007811497952 -0.186275925251576 -1.4638316287748454 -1.944950194436505 1.4571267710342848 1.7530134946400762 2.382958490768303 1.04511312756429 -1.1565472257542884 0.5630690622575819 0.4086181975848834 2.2614119140011044 1.6058179112350133 0.9546278349860395 1.8875501503755818 0.1343990155312217 1.2233117032384946 0.7878926614089212 2.7220862102468226 -0.097848531108372 -0.3072984724952482)), :factor_vec (((0.33634135740293003 -2.6837731399819473 -3.6752527505416053 6.345836650199457 3.031575502229392 -2.037537549707214 -1.5700379795869825 -5.116879717056822 -3.9399301261180546 1.575562016376701 -0.15781982599892042 -5.0474357546849475 -10.067195919358056 -4.297152348342774 0.5253402529385048 9.0317124203672 4.018960116268369 4.030194688544492 4.746082363510388 -6.115459084911955 3.4594678541767485 -0.8151523265137655 7.558285703831629 1.8218954577488535 1.730383830450029) (-17.769943415912724 0.8863678357279864 -3.2669333196428476 -13.325673926474064 -6.226146896427132 -2.750964585112066 4.19132053435605 -9.120685987860979 4.526875897869477 -2.074654861055652 5.341522677630386 -8.744170644552467 3.208488482736809 4.338635559809004 3.311926276206054 8.424223277202733 -2.8372855353353885 1.632411211939325 6.127984827178523 -6.645286709730469 -1.5117004131994611 -10.04145242090126 -10.832231582488328 -10.927351398166723 -6.014230273679973) (-1.330388491220415 8.609789982493627 5.082425980395236 -8.569931791130802 -6.9626721976030455 5.179398808106658 -4.500814810378098 -8.379735324460668 -0.8295388342271858 0.9036725313947108 -0.4902374613012958 -6.336934549882878 5.758372001447008 4.895798496144878 -0.005564553454497134 1.2070000391334341 2.4876938259936345 0.2248231242483868 2.818695878140505 5.308739060741123 8.473484048217237 0.29183075788833046 1.5494855690819729 -3.25390778909477 3.493093506168273) (-1.1579581218735906 3.8178526585573853 1.5374471688393125 -3.922354636976646 -11.731940916557708 -5.151606338696695 4.7724217823603015 2.087561540494814 2.0834898146166867 -8.49618710771689 -7.028473997800409 4.613560813920084 -0.7200191557861417 9.595040227945923 4.627112482273327 -9.317672926871387 -4.070342509417306 13.273324687209014 1.0257557164958797 9.057052512529511 -6.009492396143059 -4.733008787714338 -1.4007633334104526 -6.234270799654803 1.8260110317475688) (-0.27775361163594214 -1.0768928170424026 4.590214312116002 -4.4856597349100875 1.7201192551830466 -2.7865761836447343 2.871133851677452 -0.709462987878251 1.574042072164382 -1.9722083069119676 -10.264379424064899 -2.0436097675228484 13.464307966774406 -4.745114142889611 7.288819060088006 4.471013336528814 1.340963140753435 12.131899921167152 -5.314185786772067 8.229573499249428 -7.350571002662927 -2.028252137477047 -8.386847021386052 -2.5480761152605695 3.7620189515243285) (-1.5268031305359488 -7.885877908558468 -0.959894908196336 -4.339797761454985 6.442957805213374 -2.9235644524223834 -5.595044951152418 -0.9995500767805652 2.824934580046381 -4.81570362094056 -8.58962239411637 -1.4450821992107108 -0.258871959376875 0.26368189145829257 10.195430978903767 -15.699204666001368 -0.7853978911602544 0.48041792701689345 13.672013106609121 5.280526429964967 5.952259534801187 3.6000211735041483 -0.8756122052341999 -5.340636630909402 -3.581880416810552) (-1.3430678673588583 -1.6642880823619435 -0.6522238162858913 -0.7645458895062249 -6.160232853856815 0.38400037807916376 2.844964370595594 -2.230409382586678 -5.843245030718078 -3.1876758616239647 15.102604145803912 -1.2630255915597721 -3.2493483488937196 0.6088479628847715 -0.05620306303018763 -1.1618766852249625 -11.357726861603107 -0.8957338696540553 -6.658229856837014 6.206979125349463 -3.2594527516593805 -6.558682280000745 4.97629027909978 1.842692884360301 -7.1056011914619726) (0.0380236735270707 11.548043306329179 7.194428619451172 -2.119323912958428 1.6380823387445709 -3.8770059827537535 -6.167208589254969 -5.805392702942849 7.067159881468801 0.6733888651206624 -11.7498038925911 5.325048536017459 -1.3797326529113287 -3.338401834509205 1.946988369039079 -14.319383404607132 4.869419113785612 -5.386222289781938 11.452814769546038 0.05801077656855902 -1.677510547687512 5.112510519351418 5.074321294796047 -7.126048966290471 -7.761442499623445) (-5.761863690287301 0.06176744613124008 -0.35344689611483265 -13.372011519779226 -7.049061301749045 -4.404076010800027 10.717437802639404 7.107922527741197 -12.015314409631449 5.559033454911418 3.4574744408462696 -4.953742452001541 -3.220472323698918 12.460726470089908 2.183901202916714 -0.08033179397013845 -2.8221323530600224 -6.507425576522181 -1.733688313385389 -3.606035957336517 0.28456156243306885 -2.967238747122521 -4.135807273722222 -2.563937740871527 -5.4359261241928625) (0.3269880561935439 3.223396115125453 -12.155459526783169 -1.214850336408307 -0.7426356390920076 -16.09332257656611 -2.236798124850652 0.1438613908256705 -0.5951909648436855 -8.117727863783035 7.310019501856348 0.8801480750058835 -1.4249915659807317 3.3451890045077257 -4.984631505501327 3.5774774122241184 -8.686973336869643 5.476853062257512 -7.557111764991321 -4.067074242994379 -1.79796249928599 -2.37183775276844 -2.6063478297918876 -1.31798585854267 6.937906612432101) (-3.7183756992075736 -6.806182787188359 5.3694719406654015 -13.623575653264266 -12.677233659391792 -4.178928266373548 0.7345269278022054 2.652980752562945 -2.879004336406656 -3.8129761888917453 5.392616510651887 -4.0573389072182655 7.4138748852713565 5.026531059217426 -8.563623847781813 -10.392786587964933 11.973200030030592 -3.4207776813150392 9.564520500106017 -2.0177105548721395 1.021624059739627 4.056999636870903 3.9292554447029295 1.9033503943219685 -6.224900755390641) (12.952255746108477 1.2685775774526658 4.5064245512824455 -3.2356449026617495 1.352367137580444 8.282098716308779 -6.007063578322967 -0.34627785395863353 0.9605326132296067 -1.8132233637997794 -8.156400336178926 5.9803558424795815 9.117042526702333 1.116249576938579 1.5819412771671724 5.483737441236809 -2.0748092419395836 1.1191813488494846 -6.700332920912254 0.6066686031241971 -1.977436585333419 -3.8254392704531357 7.578898517954084 -1.6380132312750972 2.91901992606578) (7.640678055141899 -4.67740242215305 0.4918577091066435 2.1319870563794163 7.560190330503593 3.236874269376537 -4.723353883294879 -6.661407534652426 -5.155203940557231 -10.75549504931067 -1.192159002610734 -4.807551560424856 -3.047613330649546 -9.402538819130394 6.461550649039573 4.949947119689431 0.6339929859091239 0.4964930076055719 5.129294998535148 10.122546172722798 12.624557502131994 -4.967354218135052 -6.319545936589018 -3.089041385066931 -5.833711013486644) (-3.1281924003078414 -4.140115490497036 -7.379503975334737 -7.2272466649902585 -4.57912434917126 1.776685451165053 5.636975095775196 -1.0642699560996622 -6.325497216085432 3.0862194192908183 4.351803574417017 -5.461422367467812 1.4239592595331731 -0.4632973896635234 -3.964249902444483 -3.031637003560925 -13.063315537029752 1.2729058873993901 1.7356913929402373 14.074069066557817 3.7708585058659367 9.7780195257145 -3.904523501228286 -7.389400655409862 12.168490478157448) (7.467870625782359 -1.0534518204075152 4.507197370699314 9.120846809020328 1.4885813775218248 3.001968818615915 -0.7068257253381925 -0.6415523470807728 4.932123828910533 13.341222850153237 -2.253016073678251 9.764816648558249 3.1098077418613363 2.8200499322179864 -0.12057723880633187 -7.974428526231006 10.445463508832589 1.1359081023449509 -4.656370552171258 1.584262110585513 -3.1200702531458813 -9.816359735826744 0.027673979009696037 -14.00617999469412 5.741504907429574) (5.672717069086232 -11.287956271352552 -3.0948706594453967 -2.112599103533487 1.273864070081666 1.737387783846028 -2.204592712931915 6.7563016931236834 -0.26421832025863157 -9.258098667463187 10.765087343578113 0.661974691416377 -8.075476289324925 -1.1886407949736895 -1.015764590841098 -9.376774177725306 -1.9021942194125319 1.879425379372976 2.2780608836448857 8.610067058213005 5.12295772283789 -1.62355495128512 -0.09674085190027126 -10.044683923930695 2.3850056441686283) (6.883791551324802 0.1961681546908054 5.420461612478056 -4.419093363517813 4.535325994162418 -7.415460952515454 -8.467030904473736 0.27571028497737815 3.07443712185184 1.9933569878946025 1.3455582319901538 -10.285016183870631 -4.925705104617445 -10.990434103235867 -15.336030575484108 5.138733286034968 -7.834209874204365 13.792248615813893 1.3485658079800649 -6.125478578142333 0.924311081362965 5.608283262445755 2.1755406260908936 -5.671593917322 0.401274478872801) (10.270468342738507 